tree
version=v4
num_class=1
num_tree_per_iteration=1
label_index=0
max_feature_idx=9
objective=regression
feature_names=gp_factor_0 gp_factor_1 gp_factor_2 gp_factor_3 gp_factor_4 gp_factor_5 gp_factor_6 gp_factor_7 gp_factor_8 gp_factor_9
feature_infos=[-12.941325960691801:10.344523880388435] [-23.469443247330204:23.897935358419467] [-15.590469706210133:20.604802579657918] [-3.1252670200454635:4.5873171092556451] [-3.7085719786843279:3.6147844564602556] [-4.3643578047198481:4.0503641779394597] [-2.6005590071148044:7.875] [-10.577555895880691:16.16543600902467] [-1.7888543819998317:44.698998870223512] [-4.9838357149694783:3.6852531884172373]
tree_sizes=890 907 887 899 911 910 888 906 903 903 897 908 889 908 895 899 811 890 910 890 908 885 904 901 902 906 891 914 891 901 903 907 888 916 907 897 816 899 909 904 899 892 906 894 884 906 892 891 896 907 908 905 917 889 888 896 898 895 896 905 912 907 885 897 910 919 892 902 884 900 890 880 906 876 885 900 897 884 877 894 894 914 909 878 899 805 915 904 879 877 893 903 790 791 883 800 808 901 886 804 790 888 897 892 887 793 884 883 879 887 914 874

Tree=0
num_leaves=8
num_cat=0
split_feature=0 8 3 9 9 2 9
split_gain=54.8684 45.0414 43.8083 26.3064 25.8178 24.405 6.8496
threshold=0.56493786731937556 1.0000000180025095e-35 -1.4719620516563416 1.7263169283286024 -1.0742739412687847 -0.1428930701009696 -1.3971357359174992
decision_type=2 2 2 2 2 2 2
left_child=1 2 -1 -3 6 -6 -2
right_child=4 3 -4 -5 5 -7 -8
leaf_value=-0.0062550883817679495 -0.00052117378720039731 0.006939673403773888 -0.0012633673282772913 -0.011649201295302071 -0.00080111139798614672 0.0041722959838465714 -0.0064484137156109126
leaf_weight=5367 1140 2439 78668 139 3948 10509 990
leaf_count=5367 1140 2439 78668 139 3948 10509 990
internal_value=-0.00082416 -0.00137 -0.00158949 0.00549951 0.00200954 0.00282569 -0.00342792
internal_weight=103200 86613 84035 2578 16587 14457 2130
internal_count=103200 86613 84035 2578 16587 14457 2130
is_linear=0
shrinkage=1


Tree=1
num_leaves=8
num_cat=0
split_feature=4 7 3 6 7 3 0
split_gain=49.6092 43.481 45.3599 32.5196 43.5552 30.659 27.7193
threshold=0.031208678602742002 0.021458390031434831 -1.3822618415902455 -0.35094613275064573 1.0698128986569195 0.60972194450771033 0.47129154119128958
decision_type=2 2 2 2 2 2 2
left_child=1 2 -1 5 -5 -2 -3
right_child=3 6 -4 4 -6 -7 -8
leaf_value=-0.0082835609070610675 -0.0030865928895724044 -0.00069611155537858255 -0.0018064391089090163 0.0014264346555428538 0.0079287488035451655 0.0016378199032342001 0.0034349078321432541
leaf_weight=3551 8545 16179 23315 34524 3183 7343 6560
leaf_count=3551 8545 16179 23315 34524 3183 7343 6560
internal_value=-5.52734e-07 -0.00122969 -0.00269568 0.00113723 0.0019988 -0.00090702 0.000507308
internal_weight=103200 49605 26866 53595 37707 15888 22739
internal_count=103200 49605 26866 53595 37707 15888 22739
is_linear=0
shrinkage=0.054


Tree=2
num_leaves=8
num_cat=0
split_feature=1 0 7 0 0 1 1
split_gain=90.982 55.4286 34.0371 33.9404 42.5732 17.0174 10.9768
threshold=0.11201078665659613 -1.2723443459431494 1.0698128986569195 -1.6512388702185492 0.26012802101546301 0.018326163761088272 3.220694180028068
decision_type=2 2 2 2 2 2 2
left_child=1 5 -3 6 -5 -1 -2
right_child=3 2 -4 4 -6 -7 -8
leaf_value=-0.0070129515137309813 0.012716911421436144 -0.00082332104450348327 0.0035013984440004169 0.00080570329541323658 0.005780742181499 0.0021682097431548215 -0.0048571744424919057
leaf_weight=5018 1094 67810 5638 15692 7287 609 52
leaf_count=5018 1094 67810 5638 15692 7287 609 52
internal_value=-4.87147e-07 -0.000886626 -0.000486141 0.00289393 0.00240532 -0.0059943 0.0115325
internal_weight=103200 79075 73448 24125 22979 5627 1146
internal_count=103200 79075 73448 24125 22979 5627 1146
is_linear=0
shrinkage=0.054


Tree=3
num_leaves=8
num_cat=0
split_feature=1 8 2 3 8 8 3
split_gain=81.6054 38.0678 44.2245 40.0869 35.4534 34.655 34.1649
threshold=0.11201078665659613 -0.079928836764699737 -0.008504740695110204 -1.4779445868023426 -0.18006912579432841 -0.18657171529306291 1.0708836211140713
decision_type=2 2 2 2 2 2 2
left_child=1 3 -3 -1 5 -2 -6
right_child=4 2 -4 -5 6 -7 -8
leaf_value=-0.0071887857419321577 0.0052356083989948572 -0.0011396141303077895 0.004395618514018638 -0.0011230606803138002 0.001214460508038724 0.021328658699945154 0.0078555286004446459
leaf_weight=3245 2111 8955 7757 59118 19158 403 2453
leaf_count=3245 2111 8955 7757 59118 19158 403 2453
internal_value=2.61632e-07 -0.000838923 0.00144247 -0.00145193 0.00274153 0.00867055 0.00200761
internal_weight=103200 79075 16712 62363 24125 2514 21611
internal_count=103200 79075 16712 62363 24125 2514 21611
is_linear=0
shrinkage=0.054


Tree=4
num_leaves=8
num_cat=0
split_feature=4 5 6 0 5 0 5
split_gain=44.3056 39.6131 47.3758 37.966 49.07 27.447 21.7278
threshold=0.052456058723696443 -0.15603020266768916 -0.32750192270821593 0.42786025832722929 0.63414557065937094 -0.66337495107404443 0.37519391683283937
decision_type=2 2 2 2 2 2 2
left_child=3 5 -3 4 -1 -2 -5
right_child=1 2 -4 6 -6 -7 -8
leaf_value=-0.0029274946578041671 -0.0061000743240767902 -0.00064344402985445361 0.0036456345587593153 0.0032152845677310016 0.0015476231142737802 -6.6725198434165376e-05 -0.0023001101122256101
leaf_weight=30806 2410 11239 22313 7660 9207 16819 2746
leaf_count=30806 2410 11239 22313 7660 9207 16819 2746
internal_value=2.16679e-06 0.00109454 0.00221166 -0.00114121 -0.00189615 -0.000856176 0.00174996
internal_weight=103200 52781 33552 50419 40013 19229 10406
internal_count=103200 52781 33552 50419 40013 19229 10406
is_linear=0
shrinkage=0.054


Tree=5
num_leaves=8
num_cat=0
split_feature=3 4 9 4 8 8 8
split_gain=41.8592 37.7769 29.1445 28.7884 28.3791 25.5044 16.1701
threshold=0.68565353127012629 -1.1165676326190195 -0.97586521744738297 0.40838419402883036 -0.12907599560800928 0.58807005882578822 -0.076145219689411917
decision_type=2 2 2 2 2 2 2
left_child=1 2 -1 6 -3 -5 -2
right_child=3 4 -4 5 -6 -7 -8
leaf_value=0.0028724121598042297 -0.00048110264456455745 -0.0017705847920882294 -0.0056453013535576893 0.0026099785388282765 0.00079127231633681328 0.014656851298655202 0.0027583799077427642
leaf_weight=1323 21998 23092 7037 16320 27494 417 5519
leaf_count=1323 21998 23092 7037 16320 27494 417 5519
internal_value=1.81766e-06 -0.000939702 -0.00427545 0.00125513 -0.000379559 0.00301249 0.000177688
internal_weight=103200 58946 8360 44254 50586 16737 27517
internal_count=103200 58946 8360 44254 50586 16737 27517
is_linear=0
shrinkage=0.054


Tree=6
num_leaves=8
num_cat=0
split_feature=1 0 0 0 7 1 1
split_gain=73.3732 48.5433 30.9162 36.69 29.6312 15.3282 10.1519
threshold=0.11201078665659613 -1.2723443459431494 -1.6512388702185492 0.26012802101546301 1.0698128986569195 0.018326163761088272 3.220694180028068
decision_type=2 2 2 2 2 2 2
left_child=1 5 6 -4 -3 -1 -2
right_child=2 4 3 -5 -6 -7 -8
leaf_value=-0.0065403259627287704 0.011988877924486609 -0.00073295258668552193 0.0006525815974910839 0.0052700245218259539 0.0033020827473672219 0.0021593445368938975 -0.0047944104345905222
leaf_weight=5018 1094 67810 15692 7287 5638 609 52
leaf_count=5018 1094 67810 15692 7287 5638 609 52
internal_value=2.7114e-06 -0.000793022 0.00260203 0.00213673 -0.000418298 -0.00557288 0.0108429
internal_weight=103200 79075 24125 22979 73448 5627 1146
internal_count=103200 79075 24125 22979 73448 5627 1146
is_linear=0
shrinkage=0.054


Tree=7
num_leaves=8
num_cat=0
split_feature=3 6 4 4 2 3 9
split_gain=37.4441 43.2568 32.6867 25.8846 23.5207 20.3667 14.9433
threshold=0.68565353127012629 -0.31638060998359224 -1.1165676326190195 0.40838419402883036 -0.027925037990562222 1.2540069961680615 2.1058592360794832
decision_type=2 2 2 2 2 2 2
left_child=1 4 -3 6 -1 -5 -2
right_child=3 2 -4 5 -6 -7 -8
leaf_value=-0.0049171885884908666 -2.5353891465146168e-05 -0.0037766061237435311 0.00070830462313249904 0.0031000386377776842 -0.0010613347969623613 -0.010576400777110462 0.0083551130292030765
leaf_weight=9408 27002 5356 35072 16528 9110 209 515
leaf_count=9408 27002 5356 35072 16528 9110 209 515
internal_value=3.27549e-06 -0.000887208 0.000104648 0.00118865 -0.00303948 0.00285502 0.000166992
internal_weight=103200 58946 40428 44254 18518 16737 27517
internal_count=103200 58946 40428 44254 18518 16737 27517
is_linear=0
shrinkage=0.054


Tree=8
num_leaves=8
num_cat=0
split_feature=1 0 8 2 0 0 0
split_gain=65.6586 43.6223 34.9125 33.7929 42.521 26.0599 15.282
threshold=0.11201078665659613 -1.2723443459431494 1.0000000180025095e-35 -0.19860268095754077 -1.9789479016670302 0.26012802101546301 -3.2205058503242974
decision_type=2 2 2 2 2 2 2
left_child=1 6 -3 4 -2 -5 -1
right_child=3 2 -4 5 -6 -7 -8
leaf_value=-2.2202039026432546e-05 0.018216157990547568 -0.00060261048376142464 0.0062399284493301855 0.0021603892190318768 -0.0024079621454054833 0.0065264043437303632 -0.0067568729211694694
leaf_weight=1260 189 71325 2123 12992 5171 5773 4367
leaf_count=1260 189 71325 2123 12992 5171 5773 4367
internal_value=2.58048e-06 -0.000750158 -0.000394936 0.00246146 -0.00129727 0.00353666 -0.00528126
internal_weight=103200 79075 73448 24125 5360 18765 5627
internal_count=103200 79075 73448 24125 5360 18765 5627
is_linear=0
shrinkage=0.054


Tree=9
num_leaves=8
num_cat=0
split_feature=1 8 8 8 2 3 3
split_gain=59.0164 32.8574 31.8487 31.1842 39.0343 34.6497 29.2706
threshold=0.11201078665659613 -0.18006912579432841 -0.18657171529306291 -0.079928836764699737 -0.008504740695110204 -1.4779445868023426 1.0708836211140713
decision_type=2 2 2 2 2 2 2
left_child=3 2 -2 5 -5 -1 -3
right_child=1 6 -4 4 -6 -7 -8
leaf_value=-0.0065976991826961267 0.0047654089404584798 0.00089820451510558416 0.020153887600699093 -0.0010708961899809264 0.0041293851657121915 -0.00095906466818119151 0.0070417980700778595
leaf_weight=3245 2111 19158 403 8955 7757 59118 2453
leaf_count=3245 2111 19158 403 8955 7757 59118 2453
internal_value=3.90435e-06 0.00233509 0.00803903 -0.000709745 0.00135492 -0.00126462 0.0016307
internal_weight=103200 24125 2514 79075 16712 62363 21611
internal_count=103200 24125 2514 79075 16712 62363 21611
is_linear=0
shrinkage=0.054


Tree=10
num_leaves=8
num_cat=0
split_feature=1 0 9 0 0 0 1
split_gain=53.1515 39.3369 27.4825 27.0283 29.9303 13.7984 9.236
threshold=0.11201078665659613 -1.2723443459431494 -0.60225217864292147 -1.6512388702185492 0.27663523953979879 -3.2205058503242974 3.220694180028068
decision_type=2 2 2 2 2 2 2
left_child=1 5 -3 6 -5 -1 -2
right_child=3 2 -4 4 -6 -7 -8
leaf_value=1.5126542799964383e-05 0.011023796448466188 -0.0018338740442562025 0.00039118180937912817 0.00047980924169485666 0.0046903967278120618 -0.0063766647753529049 -0.0047880675498309516
leaf_weight=1260 1094 23897 49551 15958 7021 4367 52
leaf_count=1260 1094 23897 49551 15958 7021 4367 52
internal_value=5.47383e-06 -0.000671788 -0.000334535 0.0022178 0.00178411 -0.00497451 0.00991836
internal_weight=103200 79075 73448 24125 22979 5627 1146
internal_count=103200 79075 73448 24125 22979 5627 1146
is_linear=0
shrinkage=0.054


Tree=11
num_leaves=8
num_cat=0
split_feature=3 6 2 2 8 9 8
split_gain=32.1268 37.4925 21.0764 19.2747 18.8033 27.0675 18.6729
threshold=0.71096241413364258 -0.31638060998359224 0.070882579234016654 0.35098748736966623 -0.076119681348713428 -1.8193537326793987 -0.1992970152047038
decision_type=2 2 2 2 2 2 2
left_child=1 2 -1 -3 6 -6 -2
right_child=4 3 -4 -5 5 -7 -8
leaf_value=-0.0039487713069916094 0.0046344875866121743 -0.00050205513943042603 2.8630132628911551e-05 0.0023367182752736882 -0.010830822598718265 0.0041159201266754084 0.00020623294632768387
leaf_weight=13297 2917 32225 5464 8772 257 7679 32589
leaf_count=13297 2917 32225 5464 8772 257 7679 32589
internal_value=5.40539e-06 -0.000806289 -0.00279742 0.00011033 0.00112116 0.00347743 0.000584498
internal_weight=103200 59758 18761 40997 43442 7936 35506
internal_count=103200 59758 18761 40997 43442 7936 35506
is_linear=0
shrinkage=0.054


Tree=12
num_leaves=8
num_cat=0
split_feature=1 0 2 0 7 7 2
split_gain=47.5664 35.3797 29.1455 38.5848 26.7052 26.3776 13.6974
threshold=0.11201078665659613 -1.2723443459431494 -0.19860268095754077 -1.9789479016670302 1.9804717361168229 1.0698128986569195 -2.1640243961065067
decision_type=2 2 2 2 2 2 2
left_child=1 6 3 -2 -4 -3 -1
right_child=2 5 4 -5 -6 -7 -8
leaf_value=0.010177647841604864 0.017205369028854139 -0.000612977972902039 0.0026006680186161663 -0.0024450219269710567 0.011808517128634356 0.0031939248855360081 -0.0051102601267125928
leaf_weight=68 189 67810 17902 5171 863 5638 5559
leaf_count=68 189 67810 17902 5171 863 5638 5559
internal_value=4.86659e-06 -0.000635824 0.00209773 -0.00139005 0.00309662 -0.000315984 -0.00471639
internal_weight=103200 79075 24125 5360 18765 73448 5627
internal_count=103200 79075 24125 5360 18765 73448 5627
is_linear=0
shrinkage=0.054


Tree=13
num_leaves=8
num_cat=0
split_feature=1 5 8 5 4 6 1
split_gain=42.8045 48.0156 52.8903 31.995 31.5918 22.8857 15.9525
threshold=0.11201078665659613 -0.16601268682297665 1.0000000180025095e-35 -1.4576685325453049 -0.22489756293094876 -0.81374869542999795 0.21025517116457601
decision_type=2 2 2 2 2 2 2
left_child=1 2 -1 6 -3 -5 -2
right_child=3 4 -4 5 -6 -7 -8
leaf_value=-0.0028427406266864959 0.0038757235064471145 -0.0012638070164068898 0.010560712082395469 -0.00069385668004928161 0.0014564063533116334 0.003527391478808701 -0.0064428901749704346
leaf_weight=26658 485 20629 771 4732 31017 17201 1707
leaf_count=26658 485 20629 771 4732 31017 17201 1707
internal_value=6.91431e-06 -0.000600861 -0.00242153 0.00199226 0.000369406 0.00261772 -0.00407597
internal_weight=103200 79075 27429 24125 51646 21933 2192
internal_count=103200 79075 27429 24125 51646 21933 2192
is_linear=0
shrinkage=0.054


Tree=14
num_leaves=8
num_cat=0
split_feature=5 1 5 2 2 9 2
split_gain=39.4487 43.07 50.2671 35.381 22.2166 21.5579 3.70854
threshold=-2.2657132272521521 -0.047443792571245064 0.086073005236218567 0.50811971157840163 -0.7438400084860789 -0.54457713337155222 0.89976383597671805
decision_type=2 2 2 2 2 2 2
left_child=3 2 -2 5 -3 -1 -5
right_child=1 4 -4 6 -6 -7 -8
leaf_value=0.00080987052455523548 -0.0022464466189378559 -0.0026465569622189447 0.00099387764907441075 0.011431383129374065 0.0017454513572850248 -0.014583692894313173 -0.00061678188431248506
leaf_weight=325 32111 3548 24531 151 41374 1074 86
leaf_count=325 32111 3548 24531 151 41374 1074 86
internal_value=7.05241e-06 0.000145651 -0.000843917 -0.00801765 0.00139238 -0.0112244 0.00831414
internal_weight=103200 101564 56642 1636 44922 1399 237
internal_count=103200 101564 56642 1636 44922 1399 237
is_linear=0
shrinkage=0.054


Tree=15
num_leaves=8
num_cat=0
split_feature=1 8 6 8 4 3 3
split_gain=35.5147 29.6287 31.3243 27.1442 36.2797 26.0115 25.2091
threshold=0.11201078665659613 -0.18006912579432841 -0.48593994447217259 1.0000000180025095e-35 0.245054133184997 1.0708836211140713 0.6439113789933687
decision_type=2 2 2 2 2 2 2
left_child=3 2 -2 6 -5 -3 -1
right_child=1 5 -4 4 -6 -7 -8
leaf_value=-0.001583807902651242 -0.0011993187337940492 0.00046075932039194131 0.011268180730990647 -0.0010541685566185829 0.012187997182126006 0.006247438156286568 0.00038579723227132311
leaf_weight=43192 842 19158 1672 1264 1004 2453 33615
leaf_count=43192 842 19158 1672 1264 1004 2453 33615
internal_value=6.34953e-06 0.00181475 0.00722708 -0.000547257 0.00512464 0.00114858 -0.000722507
internal_weight=103200 24125 2514 79075 2268 21611 76807
internal_count=103200 24125 2514 79075 2268 21611 76807
is_linear=0
shrinkage=0.054


Tree=16
num_leaves=7
num_cat=0
split_feature=5 4 8 5 8 8
split_gain=35.6536 30.5089 37.015 24.6284 22.2914 21.3085
threshold=-2.1710185118257992 -0.062480784542976404 -1.0000000180025095e-35 1.2537551998682286 -0.19933377558370716 -0.11071282050980123
decision_type=2 2 2 2 2 2
left_child=4 3 -3 -2 -1 -6
right_child=1 2 -4 -5 5 -7
leaf_value=0.010711077391640528 -0.0013870485857273365 0.00047410585558776795 0.004618909340878238 0.0022330620490795682 -0.012486104820728684 -0.002175685846948037
leaf_weight=108 38691 48684 7101 6270 1136 1210
leaf_count=108 38691 48684 7101 6270 1136 1210
internal_value=7.68337e-06 0.000167853 0.00101054 -0.000877549 -0.0062681 -0.00753403
internal_weight=103200 100746 55785 44961 2454 2346
internal_count=103200 100746 55785 44961 2454 2346
is_linear=0
shrinkage=0.054


Tree=17
num_leaves=8
num_cat=0
split_feature=5 0 5 8 8 8 7
split_gain=32.4887 30.0258 36.9871 24.1048 25.5571 19.2471 6.02914
threshold=-2.2657132272521521 0.61246920491132506 0.63414557065937094 -0.1866216849434997 -0.16707090169935881 -0.17194641720492912 0.40671808305470319
decision_type=2 2 2 2 2 2 2
left_child=3 2 -2 6 -5 -3 -1
right_child=1 5 -4 4 -6 -7 -8
leaf_value=0.013073157679646659 -0.00082879150246163724 -0.0018037348498383256 0.0019147959518696306 -0.0241935178540609 -0.0055894013598520396 0.003221845043101087 -0.0027972044912177845
leaf_weight=97 68463 2615 17994 174 1315 12492 50
leaf_count=97 68463 2615 17994 174 1315 12492 50
internal_value=7.39321e-06 0.000133173 -0.000255884 -0.00727508 -0.00940732 0.00234439 0.0088339
internal_weight=103200 101564 86457 1636 1489 15107 147
internal_count=103200 101564 86457 1636 1489 15107 147
is_linear=0
shrinkage=0.054


Tree=18
num_leaves=8
num_cat=0
split_feature=1 0 9 1 2 0 0
split_gain=32.0266 45.0257 57.4121 31.6008 24.8476 28.7173 23.3291
threshold=-0.047443792571245064 0.17744545555134608 -0.61158913337131071 -0.067224708798718683 0.24692191465796873 1.2408399793744604 0.47129154119128958
decision_type=2 2 2 2 2 2 2
left_child=1 3 -3 -1 6 -6 -2
right_child=4 2 -4 -5 5 -7 -8
leaf_value=-0.0013923670558402125 -0.00030113777642196864 -0.0030227883578395299 0.003075165709034568 -0.0063329733790520341 0.0041493538519832875 -0.0060436388865938084 0.0032299530722600216
leaf_weight=32676 28424 6444 14256 4171 9830 772 6627
leaf_count=32676 28424 6444 14256 4171 9830 772 6627
internal_value=5.92337e-06 -0.000840594 0.00117024 -0.00197045 0.00107245 0.00334755 0.000375142
internal_weight=103200 57547 20700 36847 45653 10602 35051
internal_count=103200 57547 20700 36847 45653 10602 35051
is_linear=0
shrinkage=0.054


Tree=19
num_leaves=8
num_cat=0
split_feature=5 4 6 5 9 3 3
split_gain=29.7996 28.5244 23.7659 19.4632 19.0896 10.6241 3.8496
threshold=-2.2657132272521521 0.052456058723696443 -0.35094613275064573 1.3256500784706613 -0.8169440414825907 0.81118190845269933 1.011500435593409
decision_type=2 2 2 2 2 2 2
left_child=4 3 -3 -2 6 -6 -1
right_child=1 2 -4 -5 5 -7 -8
leaf_value=0.0079145495140222656 -0.0012085076038720383 -0.00076211914557227723 0.0017613295583877729 0.0019583533612585135 -0.013711244237612634 -0.003731036029038212 -0.0031007614380790518
leaf_weight=185 43328 15416 36424 6396 682 712 57
leaf_count=185 43328 15416 36424 6396 682 712 57
internal_value=5.18292e-06 0.000125648 0.00101084 -0.000797366 -0.00696938 -0.00931528 0.00514476
internal_weight=103200 101564 51840 49724 1636 1394 242
internal_count=103200 101564 51840 49724 1636 1394 242
is_linear=0
shrinkage=0.054


Tree=20
num_leaves=8
num_cat=0
split_feature=1 5 3 1 5 2 1
split_gain=29.649 36.7875 46.7464 42.8444 26.6113 35.5159 15.4182
threshold=0.11201078665659613 -0.16601268682297665 0.6439113789933687 -0.71810102789280006 -1.1021337625172516 -0.19860268095754077 0.22593468149815044
decision_type=2 2 2 2 2 2 2
left_child=1 3 -3 -1 6 -6 -2
right_child=4 2 -4 -5 5 -7 -8
leaf_value=-0.0095766153231534052 0.0031008454063407415 -0.0010155188889850459 0.0022753913699362599 -0.0014806858517566275 -0.0017304004254100154 0.0035456620629654417 -0.0050960831726692473
leaf_weight=1949 830 30286 21360 25480 4734 16246 2315
leaf_count=1949 830 30286 21360 25480 4734 16246 2315
internal_value=4.21648e-06 -0.000501607 0.000347619 -0.00209526 0.00165655 0.00235195 -0.00289754
internal_weight=103200 79075 51646 27429 24125 20980 3145
internal_count=103200 79075 51646 27429 24125 20980 3145
is_linear=0
shrinkage=0.054


Tree=21
num_leaves=8
num_cat=0
split_feature=1 0 0 9 4 0 3
split_gain=26.8584 35.2315 35.4261 26.5748 34.7594 24.4869 17.7557
threshold=2.0429980177159934 0.11953153514636065 2.8611773850965698 -0.60225217864292147 -1.1378431249058834 -0.81242822202512943 -1.4835122022623131
decision_type=2 2 2 2 2 2 2
left_child=3 5 -3 6 -5 -2 -1
right_child=1 2 -4 4 -6 -7 -8
leaf_value=-0.0063863200751359027 0.011301605304012842 0.016859278916431103 -0.011842911677025052 -0.0024642251617658338 0.00096831493749647375 -0.0070320601354240684 -0.0010724986571891174
leaf_weight=1843 186 779 59 9922 59998 584 29829
leaf_count=1843 186 779 59 9922 59998 584 29829
internal_value=3.3588e-06 0.00667918 0.0136053 -0.000110035 0.000477794 -0.00167368 -0.00140473
internal_weight=103200 1608 838 101592 69920 770 31672
internal_count=103200 1608 838 101592 69920 770 31672
is_linear=0
shrinkage=0.054


Tree=22
num_leaves=8
num_cat=0
split_feature=1 7 1 7 2 2 2
split_gain=25.9852 38.2988 38.6614 24.334 25.3854 22.355 12.8892
threshold=-0.047443792571245064 0.10500445808350621 -0.066084035705455069 4.2786813779922612 0.24692191465796873 -0.034216255400783477 -0.19297809241381356
decision_type=2 2 2 2 2 2 2
left_child=1 2 -1 4 -2 -3 -5
right_child=3 5 -4 6 -6 -7 -8
leaf_value=-0.0012434957820420974 0.00011442033683848558 -0.00089469624633151351 -0.0070194860449014664 -0.0032566730259813181 0.0031264261551948685 0.0025133034579353599 0.015903206594171087
leaf_weight=31407 34665 10135 3681 85 10556 12324 347
leaf_count=31407 34665 10135 3681 85 10556 12324 347
internal_value=3.19393e-06 -0.000759308 -0.00187138 0.000963881 0.00082399 0.000978685 0.01224
internal_weight=103200 57547 35088 45653 45221 22459 432
internal_count=103200 57547 35088 45653 45221 22459 432
is_linear=0
shrinkage=0.054


Tree=23
num_leaves=8
num_cat=0
split_feature=5 1 5 9 1 0 1
split_gain=26.4326 30.1706 42.3913 24.3023 16.9938 8.47784 4.63904
threshold=-2.1254780671206999 -0.048737560907053744 0.086073005236218567 -0.8169440414825907 2.0429980177159934 -0.20575167596962743 -0.073103359172908153
decision_type=2 2 2 2 2 2 2
left_child=3 2 -2 6 -3 -5 -1
right_child=1 4 -4 5 -6 -7 -8
leaf_value=0.0092611523963007578 -0.0020013892408769027 0.00098386194805296463 0.00099803442007654415 -0.012329623404353233 0.0065259569345093599 -0.0047313492768059351 -5.0667815562791944e-05
leaf_weight=213 31219 43190 24366 629 1562 1731 290
leaf_count=213 31219 43190 24366 629 1562 1731 290
internal_value=3.59977e-06 0.000152371 -0.000687209 -0.00500574 0.0011943 -0.00725618 0.0049125
internal_weight=103200 100337 55585 2863 44752 2360 503
internal_count=103200 100337 55585 2863 44752 2360 503
is_linear=0
shrinkage=0.054


Tree=24
num_leaves=8
num_cat=0
split_feature=0 1 1 6 0 7 1
split_gain=23.5722 58.8514 36.1871 36.9732 34.276 31.073 29.4228
threshold=0.17744545555134608 1.7563337311524772 -0.048737560907053744 0.042883958254820727 2.8611773850965698 0.51399122087746896 -0.067224708798718683
decision_type=2 2 2 2 2 2 2
left_child=2 5 6 -4 -3 -2 -1
right_child=1 4 3 -5 -6 -7 -8
leaf_value=-0.0012010855305760726 -0.00033375986611466918 0.016534118102253744 -0.00091060761958012225 0.0029015648003180403 -0.011367386990130603 0.0030999872787285622 -0.0061211820891627286
leaf_weight=32676 24915 881 16551 13263 62 10979 3873
leaf_count=32676 24915 881 16551 13263 62 10979 3873
internal_value=3.31968e-06 0.00109668 -0.000604432 0.000790011 0.013621 0.000723285 -0.00174085
internal_weight=103200 36837 66363 29814 943 35894 36549
internal_count=103200 36837 66363 29814 943 35894 36549
is_linear=0
shrinkage=0.054


Tree=25
num_leaves=8
num_cat=0
split_feature=3 7 2 8 9 8 8
split_gain=23.2494 31.2991 29.5077 16.5392 25.949 23.6568 12.6258
threshold=0.59298524306137346 1.0698128986569195 0.081600812776772863 -0.076119681348713428 -1.8193537326793987 -0.15347564012433543 -0.13183179409625437
decision_type=2 2 2 2 2 2 2
left_child=1 2 -1 5 -5 -2 -3
right_child=3 6 -4 4 -6 -7 -8
leaf_value=-0.0020482878700698011 0.0022285354320204106 0.00037845848717686696 0.00066972833704383595 -0.010523905981945591 0.0036163635633345956 -0.00058231777657370969 0.00587059575373581
leaf_weight=34085 13343 2268 17586 282 8326 24739 2571
leaf_count=34085 13343 2268 17586 282 8326 24739 2571
internal_value=3.29933e-06 -0.000732718 -0.00112376 0.000893771 0.00301449 0.000406372 0.00336847
internal_weight=103200 56510 51671 46690 8608 38082 4839
internal_count=103200 56510 51671 46690 8608 38082 4839
is_linear=0
shrinkage=0.054


Tree=26
num_leaves=8
num_cat=0
split_feature=5 6 7 9 9 6 7
split_gain=24.2519 24.5738 27.2426 25.3719 16.5465 10.0607 3.94616
threshold=-2.2657132272521521 -1.0483835138663087 1.9804717361168229 1.7263169283286024 -0.8169440414825907 0.067133933842968632 -0.18447719063938403
decision_type=2 2 2 2 2 2 2
left_child=4 3 -3 -2 6 -6 -1
right_child=1 2 -4 -5 5 -7 -8
leaf_value=0.010049964089934714 -0.0012043950061757802 0.00027784945899447252 0.0051281474890773242 -0.0094518649416887521 -0.011516649794611283 -0.0016091287421182857 -0.00076753552988607519
leaf_weight=80 15134 81969 3403 1058 910 484 162
leaf_count=80 15134 81969 3403 1058 910 484 162
internal_value=3.09809e-06 0.000111778 0.000478145 -0.00180903 -0.00628885 -0.00847871 0.00494709
internal_weight=103200 101564 85372 16192 1636 1394 242
internal_count=103200 101564 85372 16192 1636 1394 242
is_linear=0
shrinkage=0.054


Tree=27
num_leaves=8
num_cat=0
split_feature=4 8 5 7 1 5 8
split_gain=24.2857 32.8513 28.2444 27.5248 38.7632 21.6458 20.1807
threshold=-0.052889551893539895 1.0000000180025095e-35 -1.2051988678364491 0.021458390031434831 -0.047443792571245064 1.3999974055288575 -0.20688407769234549
decision_type=2 2 2 2 2 2 2
left_child=3 2 -2 4 -1 -3 -5
right_child=1 5 -4 6 -6 -7 -8
leaf_value=-0.0039809872538847891 -0.0026639291139688762 0.0097601548353469323 0.00098017880420493936 0.0080832345681875542 0.00028897113566364938 -0.007973104643777507 0.00014910361521208365
leaf_weight=14111 6999 1560 48164 860 10956 137 20413
leaf_count=14111 6999 1560 48164 860 10956 137 20413
internal_value=2.35621e-06 0.000749521 0.000512992 -0.000913938 -0.00212213 0.00789503 0.000513524
internal_weight=103200 56860 55163 46340 25067 1697 21273
internal_count=103200 56860 55163 46340 25067 1697 21273
is_linear=0
shrinkage=0.054


Tree=28
num_leaves=8
num_cat=0
split_feature=1 0 0 2 1 0 2
split_gain=22.4007 29.4375 30.6296 25.6835 26.6187 23.7409 11.8112
threshold=-0.71810102789280006 0.62823051274765407 -3.6758043195544512 0.35098748736966623 -0.23432721515573401 0.7551277215696327 -0.093424230693935448
decision_type=2 2 2 2 2 2 2
left_child=1 2 -1 5 -5 -2 -3
right_child=3 6 -4 4 -6 -7 -8
leaf_value=0.016425294736082358 -0.00057508453403924708 0.012665118141916579 -0.0054934162297229066 -0.0038464853465227837 0.0027127915798502759 0.0022746544349604375 8.2860483552252699e-05
leaf_weight=79 69491 293 4890 1918 16470 9595 464
leaf_count=79 69491 293 4890 1918 16470 9595 464
internal_value=2.52164e-06 -0.0032443 -0.00476531 0.000197035 0.00200796 -0.000226387 0.00602256
internal_weight=103200 5726 4969 97474 18388 79086 757
internal_count=103200 5726 4969 97474 18388 79086 757
is_linear=0
shrinkage=0.054


Tree=29
num_leaves=8
num_cat=0
split_feature=4 7 3 7 3 7 0
split_gain=21.8302 27.4708 36.9443 15.7411 15.3387 12.7278 6.031
threshold=0.052456058723696443 0.021458390031434831 -1.3436986781471512 3.2859548001908609 0.74311525149148705 0.051570689274154119 -1.6512388702185492
decision_type=2 2 2 2 2 2 2
left_child=1 2 -1 4 -2 -3 -5
right_child=3 5 -4 6 -6 -7 -8
leaf_value=-0.0065195655127457276 -0.0001406861827260068 0.0052971086161564202 -0.0010871564417783235 -0.0018120274013292931 0.0017383449372077376 0.00023133334077654006 0.0093736057043828716
leaf_weight=4234 30344 1431 23092 127 21604 21662 706
leaf_count=4234 30344 1431 23092 127 21604 21662 706
internal_value=3.90751e-06 -0.000798667 -0.0019538 0.00077069 0.000642914 0.00057112 0.00765197
internal_weight=103200 50419 27326 52781 51948 23093 833
internal_count=103200 50419 27326 52781 51948 23093 833
is_linear=0
shrinkage=0.054


Tree=30
num_leaves=8
num_cat=0
split_feature=1 8 2 2 1 1 2
split_gain=19.7768 51.7074 24.3636 22.8727 23.9468 20.5818 17.55
threshold=-0.71810102789280006 -0.10710392158831818 -0.67823842547586921 0.35098748736966623 -0.23432721515573401 -0.16517628575954271 -0.008504740695110204
decision_type=2 2 2 2 2 2 2
left_child=1 2 -1 5 -5 -2 -3
right_child=3 6 -4 4 -6 -7 -8
leaf_value=0.0063662514518791572 0.0015083609426398037 -0.0013666480504884281 -0.0080666709504945196 -0.0036567443817022509 0.0025644292733049993 -0.00065210088277407971 0.0082753145148763557
leaf_weight=289 16025 995 3407 1918 16470 63061 1035
leaf_count=289 16025 995 3407 1918 16470 63061 1035
internal_value=4.1392e-06 -0.00304661 -0.00677271 0.000186905 0.00189587 -0.000212676 0.00373557
internal_weight=103200 5726 3696 97474 18388 79086 2030
internal_count=103200 5726 3696 97474 18388 79086 2030
is_linear=0
shrinkage=0.054


Tree=31
num_leaves=8
num_cat=0
split_feature=4 9 1 0 1 4 3
split_gain=19.5344 18.0528 27.4012 20.2815 17.9711 21.2575 12.1227
threshold=-0.052889551893539895 -1.0017159494978893 0.31715538174732266 0.73184701049052425 -0.938556423907424 -0.61983539015334832 -0.086300333500570814
decision_type=2 2 2 2 2 2 2
left_child=4 2 -2 -3 5 -1 -6
right_child=1 3 -4 -5 6 -7 -8
leaf_value=-0.01025345734158207 -0.0024743310620185849 0.00067666610755078547 0.0064068601657998143 0.0040200652830399159 -0.0015744074767049228 0.00096797108398519887 0.00021489143875581181
leaf_weight=1108 8548 41318 1031 5963 19931 789 24512
leaf_count=1108 8548 41318 1031 5963 19931 789 24512
internal_value=4.22613e-06 0.000674329 -0.00145072 0.0011075 -0.000817561 -0.00580499 -0.000589559
internal_weight=103200 56860 9579 47281 46340 1897 44443
internal_count=103200 56860 9579 47281 46340 1897 44443
is_linear=0
shrinkage=0.054


Tree=32
num_leaves=8
num_cat=0
split_feature=5 2 6 6 1 2 2
split_gain=21.5284 39.4018 27.6922 22.0847 28.3569 24.8987 8.92593
threshold=-2.1710185118257992 0.49504008493408341 0.87689066733119969 -1.0483835138663087 2.0429980177159934 0.070882579234016654 0.89976383597671805
decision_type=2 2 2 2 2 2 2
left_child=1 2 -1 5 -5 -2 -3
right_child=3 6 -4 4 -6 -7 -8
leaf_value=-0.01032956022952175 -0.0029784826904301247 0.013099499983575987 0.0058578571521841647 0.00035069839186207836 0.008173353740714458 0.0017523099224645751 -0.0018103479586511848
leaf_weight=1771 11774 266 287 83349 1254 4369 130
leaf_count=1771 11774 266 287 83349 1254 4369 130
internal_value=3.8729e-06 -0.00487278 -0.00787252 0.000128342 0.000478091 -0.00169448 0.0089169
internal_weight=103200 2454 2058 100746 84603 16143 396
internal_count=103200 2454 2058 100746 84603 16143 396
is_linear=0
shrinkage=0.054


Tree=33
num_leaves=8
num_cat=0
split_feature=5 8 8 1 7 1 1
split_gain=19.9859 76.1842 43.0653 42.1037 29.8441 27.3129 24.5384
threshold=0.065501326389098932 -0.10777176761391193 -0.10710392158833003 -0.21048649279210166 -1.6009268708685298 -0.55570882375001074 -0.71810102789280006
decision_type=2 2 2 2 2 2 2
left_child=1 3 6 -1 -3 -4 -2
right_child=2 4 5 -5 -6 -7 -8
leaf_value=-0.0065260749133301101 -0.0041047715089919286 0.0092193528463862424 0.0062935394133988897 -0.0014649429134929056 0.0011006452385230376 -0.0017424625827447795 0.0026669810878789256
leaf_weight=5732 1559 1280 1213 27202 24525 16813 24876
leaf_count=5732 1559 1280 1213 27202 24525 16813 24876
internal_value=4.55045e-06 -0.000648678 0.000867038 -0.00236638 0.00154427 -0.00116351 0.00225077
internal_weight=103200 58739 44461 32934 25805 18026 26435
internal_count=103200 58739 44461 32934 25805 18026 26435
is_linear=0
shrinkage=0.054


Tree=34
num_leaves=8
num_cat=0
split_feature=3 1 6 2 4 4 2
split_gain=18.3346 28.5609 28.1661 26.8293 22.0052 18.388 15.3988
threshold=0.71096241413364258 1.5417200687610675 -0.31638060998359224 0.049283706049213373 -1.1378431249058834 0.40838419402883036 0.070882579234016654
decision_type=2 2 2 2 2 2 2
left_child=2 5 6 -3 -4 -2 -1
right_child=1 3 4 -5 -6 -7 -8
leaf_value=-0.0033185221531780587 -0.00027036198688590204 0.015019597062860327 -0.0030328593759705895 -0.00096334859836567184 0.00066876763178081789 0.002045968750930249 7.9963741463746663e-05
leaf_weight=13297 26341 663 5267 480 35730 15958 5464
leaf_count=13297 26341 663 5267 480 35730 15958 5464
internal_value=4.64464e-06 0.000847543 -0.000608539 0.00885165 0.00018568 0.000606764 -0.00233438
internal_weight=103200 43442 59758 1143 40997 42299 18761
internal_count=103200 43442 59758 1143 40997 42299 18761
is_linear=0
shrinkage=0.054


Tree=35
num_leaves=8
num_cat=0
split_feature=0 1 0 1 1 1 8
split_gain=17.0975 48.3766 31.9067 27.8272 35.893 27.5218 24.1005
threshold=0.17744545555134608 1.7563337311524772 2.8611773850965698 -0.048737560907053744 1.1339870597322304 -0.067224708798718683 -0.20066104793721137
decision_type=2 2 2 2 2 2 2
left_child=3 6 -3 5 -5 -1 -2
right_child=1 2 -4 4 -6 -7 -8
leaf_value=-0.00098787146668324541 0.0064961840600791408 0.015144553008019417 -0.011492709196854261 0.0012277932236558612 -0.0059888694972403686 -0.0057443885135160695 0.00026596452503574772
leaf_weight=32676 1793 881 62 27767 2047 3873 34101
leaf_count=32676 1793 881 62 27767 2047 3873 34101
internal_value=5.03397e-06 0.00093621 0.012291 -0.000512562 0.000710192 -0.00150913 0.000597864
internal_weight=103200 36837 943 66363 29814 36549 35894
internal_count=103200 36837 943 66363 29814 36549 35894
is_linear=0
shrinkage=0.054


Tree=36
num_leaves=7
num_cat=0
split_feature=5 4 7 5 7 7
split_gain=19.2116 16.3142 26.1636 19.0501 13.5147 9.63134
threshold=-2.2657132272521521 0.052456058723696443 0.021458390031434831 -0.15603020266768916 -1.5092862118970067 0.40671808305470319
decision_type=2 2 2 2 2 2
left_child=4 2 -2 -3 -1 -6
right_child=1 3 -4 -5 5 -7
leaf_value=0.0086426391745482254 -0.0017298754239228843 -0.00062852025800470097 0.00075122896094463284 0.0015332116524732473 -0.0092182451633081031 0.00022511594946638257
leaf_weight=79 26995 18288 22729 33552 1146 411
leaf_count=79 26995 18288 22729 33552 1146 411
internal_value=4.69303e-06 0.000101423 -0.000596622 0.000770858 -0.00559537 -0.00688614
internal_weight=103200 101564 49724 51840 1636 1557
internal_count=103200 101564 49724 51840 1636 1557
is_linear=0
shrinkage=0.054


Tree=37
num_leaves=8
num_cat=0
split_feature=9 1 0 1 8 6 9
split_gain=16.1564 44.8669 23.6377 27.9168 20.6467 12.0289 10.0276
threshold=-0.67291503514733442 1.7563337311524772 0.28284963595730911 1.1339870597322304 -0.18201433118860497 0.019478213258687874 -1.5623605798147377
decision_type=2 2 2 2 2 2 2
left_child=1 5 3 -2 -4 -1 -3
right_child=2 6 4 -5 -6 -7 -8
leaf_value=-0.002377715250484155 5.8397002603537832e-05 -0.0039216782425977531 0.0070041802789809838 -0.0067041636903710285 0.0013843300765604691 -0.00015843897509896815 0.01416388857104965
leaf_weight=15937 51254 51 2018 1724 18828 12836 552
leaf_count=15937 51254 51 2018 1724 18828 12836 552
internal_value=4.41299e-06 -0.00106411 0.000430671 -0.000176272 0.00196546 -0.00139253 0.0122335
internal_weight=103200 29376 73824 52978 20846 28773 603
internal_count=103200 29376 73824 52978 20846 28773 603
is_linear=0
shrinkage=0.054


Tree=38
num_leaves=8
num_cat=0
split_feature=5 8 8 0 9 8 8
split_gain=17.6445 69.2009 38.1231 35.584 26.0745 25.3986 20.6904
threshold=0.065501326389098932 -0.10777176761391193 -0.10710392158833003 -0.73386076340293505 -0.015058607624405999 0.58807005882578822 -0.10777176760641544
decision_type=2 2 2 2 2 2 2
left_child=1 3 6 -1 -4 -3 -2
right_child=2 5 4 -5 -6 -7 -8
leaf_value=-0.0068879583458934645 0.001929514436144164 0.0010335703915044245 -0.0027358359269924813 -0.0015612696396398648 0.0014427790832879082 0.007953150677441876 0.014933698592511554
leaf_weight=4094 26190 24267 10944 28840 7082 1538 245
leaf_count=4094 26190 24267 10944 28840 7082 1538 245
internal_value=4.76588e-06 -0.000609007 0.00081516 -0.00224611 -0.00109532 0.00148099 0.00211708
internal_weight=103200 58739 44461 32934 18026 25805 26435
internal_count=103200 58739 44461 32934 18026 25805 26435
is_linear=0
shrinkage=0.054


Tree=39
num_leaves=8
num_cat=0
split_feature=2 9 1 1 9 1 7
split_gain=17.7645 25.0706 36.1817 31.9409 23.3431 39.1072 25.9676
threshold=-0.027925037990562222 1.5437685794967326 -0.047443792571245064 -0.15779038123327196 -1.0157351418500298 0.57679920953106201 1.5654534983907988
decision_type=2 2 2 2 2 2 2
left_child=1 2 -1 -3 5 -2 -6
right_child=4 3 -4 -5 6 -7 -8
leaf_value=-0.001717802609132087 -0.0027406466496531466 0.002998197544743942 0.0014061863578210183 -0.0075672609933881418 0.00084622599405113246 0.011310550270525171 0.0064815712672179242
leaf_weight=24995 8560 1068 18866 2967 43836 501 2407
leaf_count=24995 8560 1068 18866 2967 43836 501 2407
internal_value=5.52018e-06 -0.000754755 -0.000373845 -0.00476428 0.000664214 -0.00182576 0.00115563
internal_weight=103200 47896 43861 4035 55304 9061 46243
internal_count=103200 47896 43861 4035 55304 9061 46243
is_linear=0
shrinkage=0.054


Tree=40
num_leaves=8
num_cat=0
split_feature=5 9 9 4 7 0 0
split_gain=17.463 21.5714 18.8525 25.7437 19.7445 8.36028 3.03272
threshold=-2.1254780671206999 -0.8169440414825907 -0.67291503514733442 -1.1378431249058834 -0.21414384981007831 -0.20575167596962743 0.26012802101546301
decision_type=2 2 2 2 2 2 2
left_child=1 6 4 -4 -2 -3 -1
right_child=2 5 3 -5 -6 -7 -8
leaf_value=0.0015325479811879705 -0.0031331523114152965 -0.011145341969526731 -0.0018972916870151238 0.0010143647149283741 -8.5615472661043727e-05 -0.0037949133431129877 0.0098769764118994199
leaf_weight=371 8902 629 10231 61362 19842 1731 132
leaf_count=371 8902 629 10231 61362 19842 1731 132
internal_value=5.91446e-06 -0.00406573 0.000126839 0.000595758 -0.00103863 -0.00619957 0.00520735
internal_weight=103200 2863 100337 71593 28744 2360 503
internal_count=103200 2863 100337 71593 28744 2360 503
is_linear=0
shrinkage=0.054


Tree=41
num_leaves=8
num_cat=0
split_feature=5 0 0 0 6 5 5
split_gain=16.5345 42.8089 37.2307 30.5561 29.7179 25.668 5.29696
threshold=0.63414557065937094 2.8611773850965698 -0.62301911685970846 0.80178322880431352 -1.9036721623888553 0.011687590885179651 1.2537551998682286
decision_type=2 2 2 2 2 2 2
left_child=3 2 -2 4 -1 -5 -3
right_child=1 6 -4 5 -6 -7 -8
leaf_value=-0.0081533895774487802 0.0071949326715719025 -0.0027370776270651681 0.00071663729893861193 0.0003239636398847116 -0.00055675197674259443 0.0060078204875806396 -0.021637638620006689
leaf_weight=1415 2925 100 17444 6122 71436 3623 135
leaf_count=1415 2925 100 17444 6122 71436 3623 135
internal_value=5.11216e-06 0.0013691 0.00168375 -0.0003366 -0.000717506 0.00248476 -0.0172464
internal_weight=103200 20604 20369 82596 72851 9745 235
internal_count=103200 20604 20369 82596 72851 9745 235
is_linear=0
shrinkage=0.054


Tree=42
num_leaves=8
num_cat=0
split_feature=2 9 1 1 9 1 2
split_gain=16.2055 22.7372 32.4384 28.807 19.9495 35.6967 22.9403
threshold=-0.027925037990562222 1.5437685794967326 -0.047443792571245064 -0.15779038123327196 -1.0157351418500298 0.57679920953106201 0.029171402582501563
decision_type=2 2 2 2 2 2 2
left_child=1 2 -1 -3 5 -2 -6
right_child=4 3 -4 -5 6 -7 -8
leaf_value=-0.0016322561754483998 -0.0025441109772989319 0.0028320453578444854 0.0013257264759221415 -0.0072026338086684794 0.0034149185399987968 0.01087845494266898 0.00046537625283058366
leaf_weight=24995 8560 1068 18866 2967 9632 501 36611
leaf_count=24995 8560 1068 18866 2967 9632 501 36611
internal_value=3.65298e-06 -0.000722493 -0.000359727 -0.00454088 0.000632783 -0.00166917 0.00108705
internal_weight=103200 47896 43861 4035 55304 9061 46243
internal_count=103200 47896 43861 4035 55304 9061 46243
is_linear=0
shrinkage=0.054


Tree=43
num_leaves=8
num_cat=0
split_feature=3 1 1 1 2 7 1
split_gain=16.1363 27.9644 27.7564 40.3051 38.8787 23.7157 13.9164
threshold=0.59298524306137346 1.5417200687610675 0.67697043349022079 0.11776418961360668 -0.23706693326435785 -0.4688791251639593 1.0480869456787554
decision_type=2 2 2 2 2 2 2
left_child=2 6 3 -1 -4 -3 -2
right_child=1 5 4 -5 -6 -7 -8
leaf_value=-0.00099325227771860855 0.000649526361450502 -0.0052306880544542708 -0.015528257559860316 0.0028938280749070365 -0.0019502792210379059 0.011880455839076865 -0.0062253125575304109
leaf_weight=43923 44730 226 710 9328 2549 978 756
leaf_count=43923 44730 226 710 9328 2549 978 756
internal_value=3.92987e-06 0.000745783 -0.000609242 -0.000307325 -0.00535556 0.00848355 0.000519124
internal_weight=103200 46690 56510 53251 3259 1204 45486
internal_count=103200 46690 56510 53251 3259 1204 45486
is_linear=0
shrinkage=0.054


Tree=44
num_leaves=8
num_cat=0
split_feature=5 2 6 2 7 6 2
split_gain=16.2486 34.1579 18.5426 21.2709 21.1267 9.83073 7.06032
threshold=-2.3258125239796983 0.056589172369383163 -1.0483835138663087 0.070882579234016654 4.2786813779922612 -1.0483835138663087 0.50811971157840163
decision_type=2 2 2 2 2 2 2
left_child=1 5 3 -2 -4 -1 -3
right_child=2 6 4 -5 -6 -7 -8
leaf_value=0.002633575375213242 -0.0027731788231003408 -0.00094568396174261893 0.0003158712835611307 0.0015869905813117621 0.0092169057027207818 -0.015527134223230302 0.0097657945087063127
leaf_weight=63 11816 426 85093 4399 665 570 168
leaf_count=63 11816 426 85093 4399 665 570 168
internal_value=2.80377e-06 -0.00588929 8.05663e-05 -0.00158717 0.000397707 -0.0135844 0.00321219
internal_weight=103200 1227 101973 16215 85758 633 594
internal_count=103200 1227 101973 16215 85758 633 594
is_linear=0
shrinkage=0.054


Tree=45
num_leaves=8
num_cat=0
split_feature=1 8 0 8 5 8 8
split_gain=14.9428 32.8375 27.3381 20.4962 13.4363 54.7913 46.3708
threshold=-0.84477355063353765 -0.10777176760641544 0.5348206431755439 -0.16937467542394422 0.069874273758732217 -0.10777176785812656 -0.10710392158833003
decision_type=2 2 2 2 2 2 2
left_child=1 3 -3 -1 5 -2 -6
right_child=4 2 -4 -5 6 -7 -8
leaf_value=-4.9468203050982286e-05 -0.001893526784444245 -0.0013754047454569065 0.012071122847149954 -0.0096365077578376788 0.0023639423776766425 0.0014897138293927144 -0.0012793779110655849
leaf_weight=966 31380 1580 481 1881 24863 24950 17099
leaf_count=966 31380 1580 481 1881 24863 24950 17099
internal_value=2.92178e-06 -0.00286844 0.00225303 -0.00651806 0.000149647 -0.000394974 0.000879855
internal_weight=103200 4908 2061 2847 98292 56330 41962
internal_count=103200 4908 2061 2847 98292 56330 41962
is_linear=0
shrinkage=0.054


Tree=46
num_leaves=8
num_cat=0
split_feature=2 0 7 7 9 0 0
split_gain=14.2151 21.225 22.5354 19.6875 10.5334 28.8413 22.4185
threshold=0.35098748736966623 0.7551277215696327 -2.2932063534149836 -1.9578462189851014 1.331277202723085 1.1874164937379408 1.1874164937379408
decision_type=2 2 2 2 2 2 2
left_child=1 2 -1 -3 5 -2 -6
right_child=4 3 -4 -5 6 -7 -8
leaf_value=0.0050708707904605788 0.0014720093173163293 -0.0097401532264177991 -0.00077641526354297035 0.0024542082227013381 0.0024530548393015485 -0.0070089944184722874 0.018429614205007414
leaf_weight=1856 16177 285 71867 9848 1837 1141 189
leaf_count=1856 16177 285 71867 9848 1837 1141 189
internal_value=2.86579e-06 -0.000301875 -0.00062117 0.00200098 0.00131777 0.000868694 0.00489193
internal_weight=103200 83856 73723 10133 19344 17318 2026
internal_count=103200 83856 73723 10133 19344 17318 2026
is_linear=0
shrinkage=0.054


Tree=47
num_leaves=8
num_cat=0
split_feature=6 9 1 7 1 0 1
split_gain=13.9121 22.6311 23.995 21.2473 19.0369 16.2623 15.3275
threshold=-1.0228788140507599 1.7263169283286024 -0.27901973758954085 1.9804717361168229 -0.84477355063353765 0.15405200453290488 -0.38685082724480074
decision_type=2 2 2 2 2 2 2
left_child=1 5 -3 4 -2 -1 -5
right_child=3 2 -4 6 -6 -7 -8
leaf_value=-0.0021950040562516214 -0.0035301688917665042 0.005725241888996876 -0.012216910298419171 0.013232635325808451 0.00028797876595874276 0.0013763553684068477 0.0028072235204541357
leaf_weight=9824 3880 201 868 380 79164 5835 3048
leaf_count=9824 3880 201 868 380 79164 5835 3048
internal_value=3.48728e-06 -0.00141624 -0.0086037 0.000279746 0.000104718 -0.000863694 0.00437213
internal_weight=103200 16728 1069 86472 83044 15659 3428
internal_count=103200 16728 1069 86472 83044 15659 3428
is_linear=0
shrinkage=0.054


Tree=48
num_leaves=8
num_cat=0
split_feature=3 1 1 2 1 2 6
split_gain=14.5705 23.2844 35.6315 35.6295 21.3719 24.8061 16.7259
threshold=0.71096241413364258 0.67697043349022079 0.11776418961360668 -0.27857749932497367 1.5417200687610675 0.05394729403183416 -1.8402888435481153
decision_type=2 2 2 2 2 2 2
left_child=1 2 -1 -3 6 -6 -2
right_child=4 3 -4 -5 5 -7 -8
leaf_value=-0.00090244266983308531 -0.0046198510057674901 -0.014699577835383009 0.0026512648531729428 -0.00174168354246678 0.013504757353682423 -0.0017599769749184499 0.00076734921760926531
leaf_weight=46462 1634 697 9873 2726 675 468 40665
leaf_count=46462 1634 697 9873 2726 675 468 40665
internal_value=3.64454e-06 -0.00054298 -0.000275278 -0.00478947 0.000755058 0.00767911 0.000546699
internal_weight=103200 59758 56335 3423 43442 1143 42299
internal_count=103200 59758 56335 3423 43442 1143 42299
is_linear=0
shrinkage=0.054


Tree=49
num_leaves=8
num_cat=0
split_feature=4 8 0 6 8 8 0
split_gain=14.0553 32.0894 20.6371 17.8227 12.9467 19.8098 8.61465
threshold=0.031208678602742002 1.0000000180025095e-35 -0.077811416608663433 -0.35094613275064573 -0.20688407769234549 -0.17207530254190334 0.26593112908753341
decision_type=2 2 2 2 2 2 2
left_child=4 3 -3 -2 6 -6 -1
right_child=1 2 -4 -5 5 -7 -8
leaf_value=0.0012686642228224223 -0.001169059715017377 -0.00016154379112253084 0.012222585782999389 0.0010149917990785221 -0.0034028914950845353 -0.00035844899046804925 0.0092446529970861783
leaf_weight=1462 15373 600 995 36627 7257 40438 448
leaf_count=1462 15373 600 995 36627 7257 40438 448
internal_value=3.01702e-06 0.000608672 0.00787707 0.000368054 -0.00065119 -0.000829108 0.00357669
internal_weight=103200 53595 1595 52000 49605 47695 1910
internal_count=103200 53595 1595 52000 49605 47695 1910
is_linear=0
shrinkage=0.054


Tree=50
num_leaves=8
num_cat=0
split_feature=5 2 7 4 4 3 7
split_gain=14.9748 26.0834 17.6921 35.1596 16.7209 16.6131 16.1722
threshold=0.63414557065937094 0.19733626790189032 -0.14025399162795665 0.69892945898853365 -0.53798392751974788 0.68565353127012629 -0.084991756745449606
decision_type=2 2 2 2 2 2 2
left_child=2 6 3 -1 -3 -4 -2
right_child=1 4 5 -5 -6 -7 -8
leaf_value=-0.0024227879481262746 0.0023362351801456478 0.014121238481156477 -0.00052651031805536882 0.0015843087876144535 0.0034406289893062192 0.0014462272161961927 -0.00084380687449280023
leaf_weight=23009 8598 546 29509 8724 1533 21354 9927
leaf_count=23009 8598 546 29509 8724 1533 21354 9927
internal_value=4.02293e-06 0.00130208 -0.000321172 -0.00131926 0.00686439 0.000303113 0.000637537
internal_weight=103200 20604 82596 31733 2079 50863 18525
internal_count=103200 20604 82596 31733 2079 50863 18525
is_linear=0
shrinkage=0.054


Tree=51
num_leaves=8
num_cat=0
split_feature=4 7 8 7 8 3 8
split_gain=12.3039 23.1086 34.9808 28.0879 21.895 11.6077 10.6265
threshold=-0.22489756293094876 -1.6009268708685298 -0.14147425408188821 0.021458390031434831 -0.076101752657721886 -1.4779445868023426 -0.062272460932465711
decision_type=2 2 2 2 2 2 2
left_child=1 2 -1 -3 5 -2 -6
right_child=4 3 -4 -5 6 -7 -8
leaf_value=-0.0035746391356283693 -0.0031528726752292845 -0.0024663798948645552 0.010130379003600301 0.00047221475665506102 0.011945750481399894 0.00025604670424584519 0.0025094676586886367
leaf_weight=831 2967 19481 1220 18312 255 51479 8655
leaf_count=831 2967 19481 1220 18312 255 51479 8655
internal_value=5.00723e-06 -0.000737207 0.00468564 -0.00104547 0.000472332 6.37052e-05 0.00293499
internal_weight=103200 39844 2051 37793 63356 54446 8910
internal_count=103200 39844 2051 37793 63356 54446 8910
is_linear=0
shrinkage=0.054


Tree=52
num_leaves=8
num_cat=0
split_feature=2 8 8 9 1 1 1
split_gain=12.6348 38.0718 43.1443 20.6181 27.767 27.1324 18.0425
threshold=-0.027925037990562222 -0.12660840922152702 -0.1559578425119296 1.5437685794967326 -0.048737560907053744 -0.047443792571245064 0.21025517116457601
decision_type=2 2 2 2 2 2 2
left_child=3 2 -2 5 -5 -1 -3
right_child=1 6 -4 4 -6 -7 -8
leaf_value=-0.0014540305934018292 0.00097603993669971014 0.0025481118541095058 -0.0033807332275609925 0.00010703287944181858 -0.0087146495237382035 0.0012511867565843167 -0.0010424970722799842
leaf_weight=24995 15350 23605 11491 2091 1944 18866 4858
leaf_count=24995 15350 23605 11491 2091 1944 18866 4858
internal_value=5.74927e-06 0.000561261 -0.0008958 -0.000635426 -0.0042714 -0.000290131 0.00193338
internal_weight=103200 55304 26841 47896 4035 43861 28463
internal_count=103200 55304 26841 47896 4035 43861 28463
is_linear=0
shrinkage=0.054


Tree=53
num_leaves=8
num_cat=0
split_feature=5 8 6 6 8 7 7
split_gain=14.6974 18.31 21.673 14.2452 31.8757 17.6302 7.31823
threshold=-2.1254780671206999 -0.1866216849434997 0.019478213258687874 -1.0228788140507599 -0.18429011115897795 4.2786813779922612 0.39588060060450331
decision_type=2 2 2 2 2 2 2
left_child=1 6 -3 4 -2 -5 -1
right_child=3 2 -4 5 -6 -7 -8
leaf_value=0.011379475134148416 -0.0082164017330669976 -0.0089699798470228437 0.00090441639899790861 0.00032532410513875002 -0.00051224545388141611 0.0084627964453567427 -0.00321351906142646
leaf_weight=196 1633 1564 1020 83150 14890 664 83
leaf_count=196 1633 1564 1020 83150 14890 664 83
internal_value=4.82842e-06 -0.00373052 -0.00520404 0.000115768 -0.00132758 0.000401831 0.0073706
internal_weight=103200 2863 2584 100337 16523 83814 279
internal_count=103200 2863 2584 100337 16523 83814 279
is_linear=0
shrinkage=0.054


Tree=54
num_leaves=8
num_cat=0
split_feature=0 7 6 0 8 6 6
split_gain=11.7605 20.1442 17.0409 15.9677 16.7715 12.9534 11.5319
threshold=-1.1761358915951881 4.2786813779922612 0.0059209541559497557 -3.2205058503242974 -0.20688407769234549 0.27467480446606424 -0.28372241998034281
decision_type=2 2 2 2 2 2 2
left_child=3 2 -2 5 -5 -1 -3
right_child=1 6 -4 4 -6 -7 -8
leaf_value=0.0058015239142805951 -0.0005731414517806115 -0.0010231919673040761 0.0008789466223123706 0.0068257107088554514 -0.0038307468597595911 -0.0037533736829914554 0.01341006001757522
leaf_weight=1108 50354 210 44088 354 6160 524 402
leaf_count=1108 50354 210 44088 354 6160 524 402
internal_value=4.57631e-06 0.000174285 0.000104958 -0.00194918 -0.00313823 0.00268516 0.00909795
internal_weight=103200 95054 94442 8146 6514 1632 612
internal_count=103200 95054 94442 8146 6514 1632 612
is_linear=0
shrinkage=0.054


Tree=55
num_leaves=8
num_cat=0
split_feature=5 0 0 0 8 7 5
split_gain=14.1107 41.0337 33.7388 27.4197 30.4111 17.0387 4.80881
threshold=0.63414557065937094 2.8611773850965698 -0.62301911685970846 -0.73386076340293505 0.58807005882578822 -1.7045660863060814 1.2537551998682286
decision_type=2 2 2 2 2 2 2
left_child=3 2 -2 5 -5 -1 -3
right_child=1 6 -4 4 -6 -7 -8
leaf_value=0.0011511783597571905 0.0068202082530365053 -0.0028030355438323352 0.0006535243303143727 -0.00010970395552127424 0.006715402250710093 -0.0039301979640543831 -0.021178880540768011
leaf_weight=2413 2925 100 17444 69802 1837 8544 135
leaf_count=2413 2925 100 17444 69802 1837 8544 135
internal_value=5.44014e-06 0.00126549 0.00157395 -0.000310234 7.62082e-05 -0.00281056 -0.0169577
internal_weight=103200 20604 20369 82596 71639 10957 235
internal_count=103200 20604 20369 82596 71639 10957 235
is_linear=0
shrinkage=0.054


Tree=56
num_leaves=8
num_cat=0
split_feature=2 7 6 3 3 4 3
split_gain=11.7429 14.9174 17.9179 12.7462 12.6227 8.91707 6.38939
threshold=0.35098748736966623 3.2859548001908609 -0.97318365909293369 -1.5416645742108765 0.75305415471467974 0.57019662469602483 -1.5913255145358061
decision_type=2 2 2 2 2 2 2
left_child=1 4 -3 6 -1 -5 -2
right_child=3 2 -4 5 -6 -7 -8
leaf_value=-0.00092290010412306666 0.00055819532595701143 -0.0060950652275688771 0.0077732550518762669 0.00057082959403132729 0.00043511846489216081 0.0030422768004177794 -0.011886053446486378
leaf_weight=48872 175 249 1154 12596 33581 6371 202
leaf_count=48872 175 249 1154 12596 33581 6371 202
internal_value=4.34959e-06 -0.000272626 0.00502387 0.00119945 -0.000369953 0.00141504 -0.00736407
internal_weight=103200 83856 1403 19344 82453 18967 377
internal_count=103200 83856 1403 19344 82453 18967 377
is_linear=0
shrinkage=0.054


Tree=57
num_leaves=8
num_cat=0
split_feature=1 6 2 8 1 6 8
split_gain=12.0844 12.4849 11.7714 37.0904 19.5757 5.46935 4.16753
threshold=2.4964559345563546 -1.0228788140507599 -0.027925037990562222 -0.12660840922152702 0.64342170138731591 -0.051443521845010796 -0.10777176760641544
decision_type=2 2 2 2 2 2 2
left_child=2 6 4 -4 -1 -3 -2
right_child=1 5 3 -5 -6 -7 -8
leaf_value=-0.00041266347588551764 -0.0082645565029933962 0.012045025112976882 -0.00097312719409194744 0.0018356297626688292 -0.0051176859196688223 0.0033482226849839048 0.002829110293686943
leaf_weight=44710 142 374 26467 28198 2619 608 82
leaf_count=44710 142 374 26467 28198 2619 608 82
internal_value=3.70694e-06 0.00512565 -6.27819e-05 0.00047652 -0.000685362 0.00761384 -0.00462539
internal_weight=103200 1206 101994 54665 47329 982 224
internal_count=103200 1206 101994 54665 47329 982 224
is_linear=0
shrinkage=0.054


Tree=58
num_leaves=8
num_cat=0
split_feature=1 4 8 9 8 0 8
split_gain=12.0059 27.2603 29.2705 19.6706 10.4578 37.9113 31.1291
threshold=-0.84477355063353765 -0.61983539015334832 -0.10777176761391193 -0.3798330685870222 -0.1992970152047038 0.35243236122366584 -0.19570042651053324
decision_type=2 2 2 2 2 2 2
left_child=1 3 -3 -1 5 -2 -6
right_child=4 2 -4 -5 6 -7 -8
leaf_value=-0.0013516992166577898 -8.3600774119294219e-05 -0.004254515081395991 0.0051368031529371947 -0.014936747305198304 -0.013452694284241553 0.0093999618288488889 5.7955856377736333e-05
leaf_weight=573 5124 2108 1591 636 380 1496 91292
leaf_count=573 5124 2108 1591 636 380 1496 91292
internal_value=3.83712e-06 -0.00256993 -0.000179966 -0.00920362 0.000135357 0.00218831 -1.55328e-05
internal_weight=103200 4908 3699 1209 98292 6620 91672
internal_count=103200 4908 3699 1209 98292 6620 91672
is_linear=0
shrinkage=0.054


Tree=59
num_leaves=8
num_cat=0
split_feature=3 6 7 8 8 0 8
split_gain=10.4242 25.452 23.5956 13.8761 13.6559 32.6259 18.4992
threshold=0.59298524306137346 -0.31638060998359224 1.0698128986569195 -0.21537080418026966 -0.1992970152047038 0.35243236122366584 -0.18429011115897795
decision_type=2 2 2 2 2 2 2
left_child=1 3 -3 -1 5 -2 -6
right_child=4 2 -4 -5 6 -7 -8
leaf_value=0.0086538977245670251 0.00057996227502531909 -0.00012976377855483946 0.0045329261878097171 -0.0023711113659076258 -0.0051071513785290561 0.012680732184448679 0.00057077472448954693
leaf_weight=224 2343 35381 3355 17550 1623 786 41938
leaf_count=224 2343 35381 3355 17550 1623 786 41938
internal_value=2.40366e-06 -0.000490424 0.000286763 -0.00217491 0.000598671 0.00397657 0.000345715
internal_weight=103200 56510 38736 17774 46690 3129 43561
internal_count=103200 56510 38736 17774 46690 3129 43561
is_linear=0
shrinkage=0.054


Tree=60
num_leaves=8
num_cat=0
split_feature=9 4 8 0 9 6 9
split_gain=10.8103 20.3632 27.3269 18.3709 15.1867 24.5346 19.7635
threshold=-0.67291503514733442 -1.1378431249058834 -0.14545368225412222 0.17744545555134608 -0.88404402709025565 -1.6239195121555239 -0.98826320117184363
decision_type=2 2 2 2 2 2 2
left_child=4 2 -2 -3 6 -6 -1
right_child=1 3 -4 -5 5 -7 -8
leaf_value=-0.00086323164980924602 0.0019606458473775856 2.1919171996934671e-05 -0.0037995321417772336 0.0019310875240326881 -0.013711158521721759 -0.0020007214477836452 0.0034333608969977151
leaf_weight=17544 3556 40363 6907 22998 447 7713 3672
leaf_count=17544 3556 40363 6907 22998 447 7713 3672
internal_value=3.49264e-06 0.000352171 -0.00184156 0.000717269 -0.000870538 -0.00283195 -0.000104336
internal_weight=103200 73824 10463 63361 29376 8160 21216
internal_count=103200 73824 10463 63361 29376 8160 21216
is_linear=0
shrinkage=0.054


Tree=61
num_leaves=8
num_cat=0
split_feature=5 6 0 2 6 0 5
split_gain=14.1929 29.2144 19.3329 18.405 17.5701 24.0988 13.1312
threshold=0.065501326389098932 -1.4466488879257418 0.015184919512833406 -0.062063059407098775 1.9034509124142829 -0.065442500272770002 0.15543857718097062
decision_type=2 2 2 2 2 2 2
left_child=1 3 -3 -1 6 -6 -2
right_child=4 2 -4 -5 5 -7 -8
leaf_value=-0.0099783570321668597 0.0028600723293729972 -0.0013228507798728681 0.00069247718328657097 -0.0017686591979241884 0.0028195933280655504 -0.010251931300031467 0.00047091218725086594
leaf_weight=1354 8215 25990 29520 1875 643 846 34757
leaf_count=1354 8215 25990 29520 1875 643 846 34757
internal_value=2.48556e-06 -0.000547986 -0.000251877 -0.00544618 0.00072931 -0.00481623 0.000934406
internal_weight=103200 58739 55510 3229 44461 1489 42972
internal_count=103200 58739 55510 3229 44461 1489 42972
is_linear=0
shrinkage=0.054


Tree=62
num_leaves=8
num_cat=0
split_feature=5 2 5 0 0 7 3
split_gain=13.5218 30.7587 11.5276 38.959 23.4124 8.89062 6.48163
threshold=-2.3258125239796983 0.056589172369383163 0.63414557065937094 2.8611773850965698 -0.73386076340293505 0.64194029405183095 -1.4075410022615504
decision_type=2 2 2 2 2 2 2
left_child=1 5 4 -4 -2 -1 -3
right_child=2 6 3 -5 -6 -7 -8
leaf_value=-0.015537410966200493 -0.0025366464647754543 -0.0064551254633997308 0.0015100600486341498 -0.016546470099514963 0.00014390473206702165 -0.00032247041879560458 0.0053656575342497575
leaf_weight=489 10859 63 20369 235 70510 144 531
leaf_count=489 10859 63 20369 235 70510 144 531
internal_value=1.31642e-06 -0.00537369 7.22584e-05 0.00120937 -0.000217 -0.0126828 0.00323397
internal_weight=103200 1227 101973 20604 81369 633 594
internal_count=103200 1227 101973 20604 81369 633 594
is_linear=0
shrinkage=0.054


Tree=63
num_leaves=8
num_cat=0
split_feature=1 1 2 2 1 8 6
split_gain=10.9869 21.5746 23.5439 15.9611 17.7905 16.7128 15.5495
threshold=-0.938556423907424 -2.0055468765714308 0.0035804031810249656 0.35098748736966623 -0.16517628575954271 -0.1290759964060996 0.14419935699157524
decision_type=2 2 2 2 2 2 2
left_child=1 2 -1 4 -2 -5 -3
right_child=3 6 -4 5 -6 -7 -8
leaf_value=0.006450365848433481 0.001327491555252617 -0.008860710739209389 -0.0045720432677925187 -0.00015437753686716179 -0.00063043787194388024 0.0030797835697341097 1.6731703248437924e-05
leaf_weight=1120 17103 1588 925 8864 63061 9673 866
leaf_count=1120 17103 1588 925 8864 63061 9673 866
internal_value=-8.6279e-07 -0.00257507 0.00148636 0.000119432 -0.00021132 0.00154209 -0.00587214
internal_weight=103200 4499 2045 98701 80164 18537 2454
internal_count=103200 4499 2045 98701 80164 18537 2454
is_linear=0
shrinkage=0.054


Tree=64
num_leaves=8
num_cat=0
split_feature=9 4 7 0 7 0 9
split_gain=9.86136 18.3172 27.6178 15.796 14.491 24.8374 19.2055
threshold=-0.67291503514733442 -1.1378431249058834 -1.4370367979491063 0.61246920491132506 -0.21414384981007831 0.015184919512833406 -0.87346773639702424
decision_type=2 2 2 2 2 2 2
left_child=4 2 -2 -3 5 -1 -6
right_child=1 3 -4 -5 6 -7 -8
leaf_value=-0.00059832091052017765 0.0075711009792511913 0.00031084091602432643 -0.0025418849066428154 0.0026578274551675228 0.00097603021968951562 -0.0065448378325419108 -0.0027424840255042197
leaf_weight=6099 740 53561 9723 9800 14860 2986 5431
leaf_count=6099 740 53561 9723 9800 14860 2986 5431
internal_value=-1.02446e-06 0.000331954 -0.00174865 0.000678228 -0.00083586 -0.00261292 -2.93908e-05
internal_weight=103200 73824 10463 63361 29376 9085 20291
internal_count=103200 73824 10463 63361 29376 9085 20291
is_linear=0
shrinkage=0.054


Tree=65
num_leaves=8
num_cat=0
split_feature=5 7 8 9 9 7 8
split_gain=12.9187 21.9496 32.9703 18.5835 18.5136 18.0978 17.2696
threshold=-0.17109126936061267 -0.093405355105135188 1.0000000180025095e-35 0.03100085923099195 -0.11885129746993543 -3.1440529634613976 -0.12877445477912211
decision_type=2 2 2 2 2 2 2
left_child=1 6 -3 4 -2 -5 -1
right_child=3 2 -4 5 -6 -7 -8
leaf_value=-0.0042681760505094406 -8.7122840292835866e-06 -5.7186026662660684e-05 0.011528078551265667 -0.0088554067150036237 -0.0042593051109121507 0.0015647597969575412 -0.00069601966858246411
leaf_weight=7127 33900 18559 625 376 3157 30661 8795
leaf_count=7127 33900 18559 625 376 3157 30661 8795
internal_value=-1.02489e-06 -0.000840826 0.000389429 0.000432614 -0.000383485 0.00140482 -0.00231512
internal_weight=103200 35106 19184 68094 37057 31037 15922
internal_count=103200 35106 19184 68094 37057 31037 15922
is_linear=0
shrinkage=0.054


Tree=66
num_leaves=8
num_cat=0
split_feature=5 2 4 3 8 2 4
split_gain=12.3723 27.9551 13.3377 10.4098 19.9786 11.014 9.47847
threshold=-2.3258125239796983 0.056589172369383163 -1.0400857288367098 1.0061606701979995 -0.076119681348713428 0.081600812776772863 -0.76524794130083884
decision_type=2 2 2 2 2 2 2
left_child=1 6 -3 5 -5 -2 -1
right_child=3 2 -4 4 -6 -7 -8
leaf_value=0.00098336310920720351 -0.00065616581270956274 -0.010547209036387502 0.0062539830533919517 0.0004092525687587097 0.0050069532929104439 0.00065829460834007658 -0.014733413263253692
leaf_weight=118 53760 60 534 16764 3185 28264 515
leaf_count=118 53760 60 534 16764 3185 28264 515
internal_value=-1.29064e-06 -0.00514281 0.0030657 6.65209e-05 0.00116899 -0.000202893 -0.0121102
internal_weight=103200 1227 594 101973 19949 82024 633
internal_count=103200 1227 594 101973 19949 82024 633
is_linear=0
shrinkage=0.054


Tree=67
num_leaves=8
num_cat=0
split_feature=5 2 2 3 7 5 3
split_gain=11.7537 17.5325 28.4217 17.4569 16.2538 14.6643 0.614527
threshold=0.081831841336077807 -0.039855108863610759 -0.093424230693935448 -1.3670460763337431 5.6338591696706377 0.11719747858712372 -0.89586284343679823
decision_type=2 2 2 2 2 2 2
left_child=1 2 -1 -3 5 -2 -6
right_child=4 3 -4 -5 6 -7 -8
leaf_value=-0.00070562885562148786 0.0038232206735977626 -0.0024975359972323787 -0.0054013805868199215 0.00077525858597807934 0.016585846307873728 0.00028706848636842646 0.002611535849926933
leaf_weight=19773 3631 5505 4536 30545 71 39073 66
leaf_count=19773 3631 5505 4536 30545 71 39073 66
internal_value=-2.00852e-06 -0.000487176 -0.00160418 0.000268785 0.000680937 0.000597671 0.014227
internal_weight=103200 60359 24309 36050 42841 42704 137
internal_count=103200 60359 24309 36050 42841 42704 137
is_linear=0
shrinkage=0.054


Tree=68
num_leaves=8
num_cat=0
split_feature=1 9 4 9 1 1 3
split_gain=11.0686 15.0204 14.3004 11.5642 23.6919 14.6036 6.51086
threshold=2.4964559345563546 -0.65530020327436223 0.95945080677235772 -0.60225217864292147 0.64342170138731591 1.7563337311524772 0.57306210109751754
decision_type=2 2 2 2 2 2 2
left_child=3 2 -2 5 -5 -1 -3
right_child=1 6 -4 4 -6 -7 -8
leaf_value=-0.0010409228250380133 0.016123191680445983 -0.0041143611628585803 -0.0041646789058362166 0.00056749801682621603 -0.0036748633101631122 0.0095246406052066669 0.004390409192974387
leaf_weight=31546 318 392 77 66226 3955 267 419
leaf_count=31546 318 392 77 66226 3955 267 419
internal_value=-9.25058e-07 0.00490098 0.0121142 -6.4604e-05 0.00032252 -0.000916705 0.000276238
internal_weight=103200 1206 395 101994 70181 31813 811
internal_count=103200 1206 395 101994 70181 31813 811
is_linear=0
shrinkage=0.054


Tree=69
num_leaves=8
num_cat=0
split_feature=5 9 1 8 5 8 1
split_gain=11.4675 19.709 13.1391 20.5995 19.6659 10.0144 4.31704
threshold=-2.1254780671206999 -0.8169440414825907 0.11201078665659613 -0.18006912579432841 0.081831841336077807 -0.1866216849434997 -0.069608425644655594
decision_type=2 2 2 2 2 2 2
left_child=1 6 4 -4 -2 -3 -1
right_child=2 5 3 -5 -6 -7 -8
leaf_value=0.0095313309234884604 -0.00098923162007702459 0.0042244252621507598 0.0057640604251369383 0.00064926358562298128 0.00075364296648563177 -0.0064444034435368249 0.00032664879571261724
leaf_weight=226 43984 206 2465 20995 32893 2154 277
leaf_count=226 43984 206 2465 20995 32893 2154 277
internal_value=1.78571e-07 -0.00329929 9.81807e-05 0.0012134 -0.000243469 -0.00535271 0.00550597
internal_weight=103200 2863 100337 23460 76877 2360 503
internal_count=103200 2863 100337 23460 76877 2360 503
is_linear=0
shrinkage=0.054


Tree=70
num_leaves=8
num_cat=0
split_feature=5 3 3 1 0 0 4
split_gain=10.481 9.95718 12.0532 9.48675 28.316 26.9402 6.88132
threshold=-2.3258125239796983 -0.72031433922432375 0.98998983256473816 0.11201078665659613 -1.6512388702185492 -1.5772730013175278 0.36647719498481862
decision_type=2 2 2 2 2 2 2
left_child=1 6 -3 5 -5 -2 -1
right_child=3 2 -4 4 -6 -7 -8
leaf_value=-0.015084957743859675 -0.0044528503981874903 0.0042966696235156076 -0.0070649732247541298 0.0089083723284974388 0.00056439960787431473 1.298120094785595e-05 -0.00055231313026527754
leaf_weight=223 4040 471 388 1133 22698 74102 145
leaf_count=223 4040 471 388 1133 22698 74102 145
internal_value=1.03964e-06 -0.00473116 -0.00106943 6.35009e-05 0.00100386 -0.000224345 -0.0109082
internal_weight=103200 1227 859 101973 23831 78142 368
internal_count=103200 1227 859 101973 23831 78142 368
is_linear=0
shrinkage=0.054


Tree=71
num_leaves=8
num_cat=0
split_feature=1 7 9 7 3 6 1
split_gain=9.74233 51.5308 36.0024 33.1811 11.407 15.1491 10.1827
threshold=-0.84477355063353765 1.3972137374359315 -0.63471091832386783 -1.6009268708685298 -1.5416645742108765 1.0935622621140997 -0.4962447792134293
decision_type=2 2 2 2 2 2 2
left_child=1 3 -3 -1 5 -2 -6
right_child=4 2 -4 -5 6 -7 -8
leaf_value=0.010836649710380586 -0.0055048401120921086 -0.0081273183838850901 0.021805016522301979 -0.0053333755506117598 0.0031627414664162213 0.0049038717138865651 0.00010639172325759297
leaf_weight=293 1919 92 285 4238 3172 410 92791
leaf_count=293 1919 92 285 4238 3172 410 92791
internal_value=1.43391e-07 -0.00231833 0.0142965 -0.00403453 0.000118625 -0.00352087 0.000211269
internal_weight=103200 4908 377 4531 98292 2329 95963
internal_count=103200 4908 377 4531 98292 2329 95963
is_linear=0
shrinkage=0.054


Tree=72
num_leaves=8
num_cat=0
split_feature=5 7 7 6 6 3 9
split_gain=10.1393 16.8134 44.4588 18.3377 15.2852 13.5829 12.0055
threshold=0.63414557065937094 -0.084991756745449606 0.021458390031434831 -0.672175129762833 -1.7297122844665898 -1.5416645742108765 -0.92685870262201586
decision_type=2 2 2 2 2 2 2
left_child=4 3 -3 -2 6 -6 -1
right_child=1 2 -4 -5 5 -7 -8
leaf_value=0.0032625745109240733 -0.00046768423553838535 -0.0072066278234481909 0.0013163920717631245 0.0044399704594875293 -0.0045881714289770512 -7.8674793102706907e-06 -0.0053778792273593799
leaf_weight=483 3398 2103 8936 6167 1815 77725 2573
leaf_count=483 3398 2103 8936 6167 1815 77725 2573
internal_value=1.50738e-06 0.00106963 -0.000367093 0.00271204 -0.000266074 -0.000119172 -0.00393973
internal_weight=103200 20604 11039 9565 82596 79540 3056
internal_count=103200 20604 11039 9565 82596 79540 3056
is_linear=0
shrinkage=0.054


Tree=73
num_leaves=8
num_cat=0
split_feature=0 2 8 7 2 8 6
split_gain=8.98431 9.67417 9.78772 8.97782 8.83748 11.7706 2.14407
threshold=4.8293610390019293 -5.5585970987012896 -0.1992970152047038 -0.11826402841709585 -0.008504740695110204 -0.16707090169935881 -0.011007444989721728
decision_type=2 2 2 2 2 2 2
left_child=1 3 -3 -1 6 -6 -2
right_child=4 2 -4 -5 5 -7 -8
leaf_value=0.0020826856712074528 -0.0050539509948692284 0.0019801440563626646 -0.00013826558315872898 -0.012070141467364261 -0.0033927861889283505 0.017137671648123871 0.0028725778396723406
leaf_weight=155 96 6692 95703 246 66 163 79
leaf_count=155 96 6692 95703 246 66 163 79
internal_value=8.80541e-07 -3.50044e-05 2.31204e-06 -0.00737473 0.0070538 0.0120808 -0.00175359
internal_weight=103200 102796 102395 401 404 229 175
internal_count=103200 102796 102395 401 404 229 175
is_linear=0
shrinkage=0.054


Tree=74
num_leaves=8
num_cat=0
split_feature=1 6 1 3 1 7 8
split_gain=9.64952 11.0354 9.98088 40.0405 15.0829 8.03103 3.95595
threshold=2.4964559345563546 -1.0228788140507599 0.76379340546049423 0.77094414469067518 0.11201078665659613 0.24440233376615211 -0.10777176760641544
decision_type=2 2 2 2 2 2 2
left_child=2 6 4 -4 -1 -3 -2
right_child=1 5 3 -5 -6 -7 -8
leaf_value=-0.00026843765508672294 -0.0080798443381233809 0.0025550414979021861 -0.0069311856598983715 0.0031788355453744935 0.0014397237388020028 0.012597765873908533 0.0027385582836494679
leaf_weight=79075 142 653 2484 1938 18497 329 82
leaf_count=79075 142 653 2484 1938 18497 329 82
internal_value=1.04594e-06 0.00457799 -5.83627e-05 -0.00253282 5.67264e-05 0.00692754 -0.00453788
internal_weight=103200 1206 101994 4422 97572 982 224
internal_count=103200 1206 101994 4422 97572 982 224
is_linear=0
shrinkage=0.054


Tree=75
num_leaves=8
num_cat=0
split_feature=4 3 7 3 2 0 0
split_gain=9.42235 15.7889 14.9225 27.2343 14.1171 13.4436 2.24912
threshold=0.052456058723696443 1.2540069961680615 0.021458390031434831 -1.3436986781471512 -0.22214439928402016 -3.6758043195544512 0.59498583510359748
decision_type=2 2 2 2 2 2 2
left_child=2 5 3 -1 -4 -2 -3
right_child=1 6 4 -5 -6 -7 -8
leaf_value=-0.0052959526169902493 0.0084717135991019179 -0.012103362439982848 -0.0020201276563471516 -0.00063497513405233669 0.0011869059665460648 0.00048756010604331134 4.0140534166027524e-05
leaf_weight=4234 503 209 5015 23092 18078 52019 50
leaf_count=4234 503 209 5015 23092 18078 52019 50
internal_value=1.44435e-06 0.000505213 -0.000525819 -0.00137726 0.00048349 0.000583213 -0.0104815
internal_weight=103200 52781 50419 27326 23093 52522 259
internal_count=103200 52781 50419 27326 23093 52522 259
is_linear=0
shrinkage=0.054


Tree=76
num_leaves=8
num_cat=0
split_feature=1 9 9 9 6 8 8
split_gain=8.97814 23.3134 11.9 20.2866 11.4639 10.1056 4.52367
threshold=2.0429980177159934 -0.66445469736924057 -0.60225217864292147 -0.34026576266883107 0.019478213258687874 -0.10418770890523682 -0.16382544076455133
decision_type=2 2 2 2 2 2 2
left_child=2 6 4 -4 -1 -3 -2
right_child=1 5 3 -5 -6 -7 -8
leaf_value=-0.001852144612902953 0.017391332990974187 -0.0041450812069354142 0.0024577988681242099 -6.7948641674020756e-05 0.00020880384201385277 0.0059230754221020398 0.0051517319339382302
leaf_weight=17479 190 764 10879 59041 14193 315 339
leaf_count=17479 190 764 10879 59041 14193 315 339
internal_value=7.46039e-07 0.0038605 -6.48022e-05 0.000328537 -0.000931196 -0.000904932 0.0119548
internal_weight=103200 1608 101592 69920 31672 1079 529
internal_count=103200 1608 101592 69920 31672 1079 529
is_linear=0
shrinkage=0.054


Tree=77
num_leaves=8
num_cat=0
split_feature=5 2 1 6 2 1 6
split_gain=9.73056 24.8984 29.6832 9.39491 16.7873 15.1415 9.18879
threshold=-2.3258125239796983 0.056589172369383163 -0.46994616297549868 -1.0483835138663087 0.070882579234016654 2.0429980177159934 -1.0483835138663087
decision_type=2 2 2 2 2 2 2
left_child=1 6 -3 4 -2 -5 -1
right_child=3 2 -4 5 -6 -7 -8
leaf_value=0.0034626796661830338 -0.0021794375061292403 -0.015190313010680878 0.0085685216151633169 0.0001956851971502989 0.0016906705590841898 0.0058645141536633576 -0.013082548843333902
leaf_weight=63 11816 86 508 84481 4399 1277 570
leaf_count=63 11816 86 508 84481 4399 1277 570
internal_value=2.27935e-06 -0.00455736 0.00315004 6.24623e-05 -0.00112464 0.000288206 -0.0111429
internal_weight=103200 1227 594 101973 16215 85758 633
internal_count=103200 1227 594 101973 16215 85758 633
is_linear=0
shrinkage=0.054


Tree=78
num_leaves=8
num_cat=0
split_feature=1 7 1 6 1 2 2
split_gain=8.52415 53.4552 22.0725 22.0411 11.0416 15.0995 12.578
threshold=-0.71810102789280006 1.3972137374359315 -2.0055468765714308 -1.2687999012608524 -0.4962447792134293 2.6228204341966674 0.35098748736966623
decision_type=2 2 2 2 2 2 2
left_child=1 2 -1 -3 5 -2 -6
right_child=4 3 -4 -5 6 -7 -8
leaf_value=0.0010332797250585143 0.00455223269810286 -0.0075240988335719232 -0.0061308337849933399 0.018127232225006069 -0.00027364299270804234 -0.011907638120152988 0.0013079701751096565
leaf_weight=1901 2393 51 3395 379 77039 60 17982
leaf_count=1901 2393 51 3395 379 77039 60 17982
internal_value=1.48846e-06 -0.00200138 -0.00359286 0.0141021 0.000121488 0.003612 2.69091e-05
internal_weight=103200 5726 5296 430 97474 2453 95021
internal_count=103200 5726 5296 430 97474 2453 95021
is_linear=0
shrinkage=0.054


Tree=79
num_leaves=8
num_cat=0
split_feature=8 9 3 3 1 8 2
split_gain=8.20904 20.0829 17.4874 12.1828 14.7604 12.1126 4.89381
threshold=-0.07611968130985533 -1.8193537326793987 1.014647342141801 -1.3875582346094844 1.5417200687610675 -0.10777182412290534 -0.3675693415187738
decision_type=2 2 2 2 2 2 2
left_child=3 6 -3 5 -5 -1 -2
right_child=1 2 -4 4 -6 -7 -8
leaf_value=-0.0030283694578116904 0.002501534128773871 0.00061093906780371762 0.0052326129582100211 -8.8145497628409485e-05 0.0049145306845753663 0.00095568743059451446 -0.010510258400813318
leaf_weight=7720 52 14179 2762 73398 1641 3039 409
leaf_count=7720 52 14179 2762 73398 1641 3039 409
internal_value=1.35553e-06 0.00106662 0.0013961 -0.000215863 2.88922e-05 -0.00190465 -0.00882438
internal_weight=103200 17402 16941 85798 75039 10759 461
internal_count=103200 17402 16941 85798 75039 10759 461
is_linear=0
shrinkage=0.054


Tree=80
num_leaves=8
num_cat=0
split_feature=4 3 9 1 9 9 1
split_gain=8.44165 15.2951 9.8393 9.66516 17.1513 6.93095 6.13799
threshold=-0.052889551893539895 1.2540069961680615 -1.0017159494978893 -0.938556423907424 -0.39845645133548085 2.7635503101897347 0.028269909269924533
decision_type=2 2 2 2 2 2 2
left_child=3 2 -2 4 -1 -5 -3
right_child=1 6 -4 5 -6 -7 -8
leaf_value=0.0015358146199333537 -0.0010579674096274528 -0.014106215214683693 0.00083471557591301984 -0.00031659564362631731 -0.008386732402289241 -0.0087246823167748521 0.00078914953811424918
leaf_weight=833 9539 174 47053 44275 1064 168 94
leaf_count=833 9539 174 47053 44275 1064 168 94
internal_value=1.32065e-06 0.000441841 0.000514079 -0.000538892 -0.00419611 -0.000371848 -0.0102465
internal_weight=103200 56860 56592 46340 1897 44443 268
internal_count=103200 56860 56592 46340 1897 44443 268
is_linear=0
shrinkage=0.054


Tree=81
num_leaves=8
num_cat=0
split_feature=5 1 7 1 7 5 6
split_gain=9.66448 29.1058 28.3722 20.5024 35.1374 26.3139 17.1963
threshold=0.63414557065937094 -0.020038282789653774 -0.066424087127004025 -0.039207634661410841 -0.051718974938594342 -2.1254780671206999 -1.8730391754420121
decision_type=2 2 2 2 2 2 2
left_child=3 2 -2 4 -1 -5 -3
right_child=1 6 -4 5 -6 -7 -8
leaf_value=-0.0025808763539780424 0.0051545102749268679 0.0065637547933769472 0.0001623936056600897 -0.0066838625619261606 0.00035801244155288204 0.0010206533981315013 -0.0024313675134448151
leaf_weight=21789 6257 565 6944 1225 25813 33769 6838
leaf_count=21789 6257 565 6944 1225 25813 33769 6838
internal_value=-5.48569e-07 0.00104222 0.00255387 -0.000261839 -0.000990264 0.000728952 -0.00165075
internal_weight=103200 20604 13201 82596 47602 34994 7403
internal_count=103200 20604 13201 82596 47602 34994 7403
is_linear=0
shrinkage=0.054


Tree=82
num_leaves=8
num_cat=0
split_feature=5 0 3 3 9 3 6
split_gain=8.94634 26.9794 24.6387 24.4354 22.3157 22.2239 15.2387
threshold=-0.17109126936061267 0.073924079360465647 0.083463656852979559 0.75305415471467974 1.1145617587559842 -1.5000487912208011 -1.8402888435481153
decision_type=2 2 2 2 2 2 2
left_child=1 5 -3 4 -2 -1 -5
right_child=3 2 -4 6 -6 -7 -8
leaf_value=-0.010442434023808053 -0.0010319991882718794 0.0032857276728140658 -0.00090709761651289742 -0.0034971183489539248 0.0022239775905223873 -0.0016736745147417382 0.0019625903803884891
leaf_weight=772 34351 7018 9469 1477 7351 17847 24915
leaf_count=772 34351 7018 9469 1477 7351 17847 24915
internal_value=-4.1668e-07 -0.000699282 0.00088834 0.000360441 -0.000453254 -0.00210194 0.0016425
internal_weight=103200 35106 16487 68094 41702 18619 26392
internal_count=103200 35106 16487 68094 41702 18619 26392
is_linear=0
shrinkage=0.054


Tree=83
num_leaves=8
num_cat=0
split_feature=0 0 1 6 9 9 9
split_gain=8.40836 7.75386 33.1292 11.1497 7.74224 9.34054 7.984
threshold=4.8293610390019293 -1.1761358915951881 0.018326163761088272 0.0059209541559497557 0.47238031963310717 1.7263169283286024 -1.152202092993166
decision_type=2 2 2 2 2 2 2
left_child=1 2 -1 -3 6 -6 -2
right_child=4 3 -4 -5 5 -7 -8
leaf_value=-0.0039332285352572183 -0.0031398069742804061 -0.00044555773928351821 0.0033516473973630384 0.00072769838848743681 -0.0095649490638802046 0.0072928866031813748 0.014398654808626152
leaf_weight=5579 50 50447 2567 44203 82 67 205
leaf_count=5579 50 50447 2567 44203 82 67 205
internal_value=-1.02777e-06 -3.57926e-05 -0.00162193 0.00010257 0.00682203 -0.00210279 0.0110483
internal_weight=103200 102796 8146 94650 404 149 255
internal_count=103200 102796 8146 94650 404 149 255
is_linear=0
shrinkage=0.054


Tree=84
num_leaves=8
num_cat=0
split_feature=5 1 9 9 7 6 1
split_gain=8.61891 19.4157 59.0595 50.7977 15.5144 32.0634 19.7323
threshold=0.86464220420401483 -0.020038282789653774 0.37354453378007696 0.97291839671557889 -2.2932063534149836 0.23864720075317922 -0.938556423907424
decision_type=2 2 2 2 2 2 2
left_child=4 3 -3 -2 5 -1 -6
right_child=1 2 -4 -5 6 -7 -8
leaf_value=0.0090532331851464372 0.00078634221993270409 0.003124977075661426 -0.007381874476286238 0.010552545161244773 -0.0041893622056824774 -0.0038885135903272898 -0.00016051629442282646
leaf_weight=1333 9026 3617 2563 1762 3589 818 80492
leaf_count=1333 9026 3617 2563 1762 3589 818 80492
internal_value=-4.26015e-07 0.00110762 -0.00128966 0.00248024 -0.000219725 0.00418504 -0.000338245
internal_weight=103200 16968 6180 10788 86232 2151 84081
internal_count=103200 16968 6180 10788 86232 2151 84081
is_linear=0
shrinkage=0.054


Tree=85
num_leaves=7
num_cat=0
split_feature=5 9 6 9 9 4
split_gain=8.1652 13.4834 10.8782 8.34385 16.9434 13.0997
threshold=-2.3258125239796983 1.4192325521800704 -0.51682234940565663 -0.60225217864292147 -0.34026576266883107 1.6381221102891039
decision_type=2 2 2 2 2 2
left_child=1 2 -1 5 -5 -2
right_child=3 -3 -4 4 -6 -7
leaf_value=0.006787440015708115 -0.00088838793486278119 -0.016527441327473785 -0.0043058193700448678 0.0023320698604252081 2.3197682180973008e-05 0.0046183157128386002
leaf_weight=229 30780 98 900 10872 59126 1195
leaf_count=229 30780 98 900 10872 59126 1195
internal_value=4.14088e-08 -0.00417676 -0.00161763 5.5176e-05 0.000385225 -0.000666004
internal_weight=103200 1227 1129 101973 69998 31975
internal_count=103200 1227 1129 101973 69998 31975
is_linear=0
shrinkage=0.054


Tree=86
num_leaves=8
num_cat=0
split_feature=5 8 8 0 5 8 5
split_gain=7.9546 46.6776 39.3931 28.3137 24.136 21.2746 16.0448
threshold=0.069874273758732217 -0.10777176761391193 -0.10710392158833003 -1.8493274470860985 0.16650638294850009 -0.076119681348713428 -0.1767794399372562
decision_type=2 2 2 2 2 2 2
left_child=1 3 4 -1 -2 -4 -3
right_child=2 6 5 -5 -6 -7 -8
leaf_value=-0.0093281939807637396 0.0051063837093693739 0.00014627089968290093 -0.0031000431714400586 -0.0014159125199721756 0.0010417042268610658 0.00062301814419380287 0.0028547913054026669
leaf_weight=1262 5261 14990 9679 31891 20942 8174 11001
leaf_count=1262 5261 14990 9679 31891 20942 8174 11001
internal_value=-4.07837e-07 -0.000409276 0.000548047 -0.00174974 0.00187747 -0.00140251 0.00130064
internal_weight=103200 59144 44056 33153 26203 17853 25991
internal_count=103200 59144 44056 33153 26203 17853 25991
is_linear=0
shrinkage=0.054


Tree=87
num_leaves=8
num_cat=0
split_feature=4 8 8 8 1 2 1
split_gain=7.70979 14.7843 18.0797 14.6716 17.595 13.9747 11.0187
threshold=-0.22489756293094876 -0.20688407769234549 -0.17207530254190334 -0.076101752657721886 -0.52293223010696932 -0.48503504717166485 0.2850033246569566
decision_type=2 2 2 2 2 2 2
left_child=1 6 -3 5 -5 -2 -1
right_child=3 2 -4 4 -6 -7 -8
leaf_value=0.006157599796819708 -0.0022447094836426751 -0.0035258785071176123 -0.00029555617464300827 0.0093984133154481498 0.001546979081141434 0.00036166082120806344 -0.0056948531464407481
leaf_weight=1329 6739 5870 32471 820 8090 47707 174
leaf_count=1329 6739 5870 32471 820 8090 47707 174
internal_value=-6.3697e-07 -0.000588207 -0.000799646 0.000369251 0.00238515 3.47834e-05 0.00446419
internal_weight=103200 39844 38341 63356 8910 54446 1503
internal_count=103200 39844 38341 63356 8910 54446 1503
is_linear=0
shrinkage=0.054


Tree=88
num_leaves=8
num_cat=0
split_feature=7 8 1 8 1 8 4
split_gain=8.14878 10.8575 10.3292 7.35477 26.3654 22.7385 0.778937
threshold=5.6338591696706377 -0.16707090169935881 -0.12330316998483877 -0.1992970152047038 0.13493635898366615 -0.19570042651053324 0.33617447903709291
decision_type=2 2 2 2 2 2 2
left_child=3 6 -3 4 -1 -5 -2
right_child=1 2 -4 5 -6 -7 -8
leaf_value=0.00016427424880234047 0.00029381614535262709 -0.0029917720485901967 0.015119935246338081 -0.011165568446374056 0.0090980167847656262 -9.3773674254454825e-05 -0.0066380125628850038
leaf_weight=5736 51 78 223 424 1039 95599 50
leaf_count=5736 51 78 223 424 1039 95599 50
internal_value=-2.43445e-07 0.00672959 0.0109051 -3.44031e-05 0.00166922 -0.000156566 -0.0048666
internal_weight=103200 402 301 102798 6775 96023 101
internal_count=103200 402 301 102798 6775 96023 101
is_linear=0
shrinkage=0.054


Tree=89
num_leaves=8
num_cat=0
split_feature=8 9 1 1 1 8 3
split_gain=6.76607 22.0345 40.0464 12.0669 9.05134 21.425 10.5931
threshold=1.0000000180025095e-35 1.6892672191311138 -0.068363338670604054 0.64342170138731591 -0.71810102789280006 -0.10710392158831818 -1.5416645742108765
decision_type=2 2 2 2 2 2 2
left_child=4 3 -3 -2 5 -1 -6
right_child=1 2 -4 -5 6 -7 -8
leaf_value=-0.0045131485000663467 0.0049846053527451183 0.010790406466439367 -0.023045608197730778 -0.0060309913114462675 -0.003519607757483638 0.0023794447893547835 0.00014032677070000853
leaf_weight=3696 2569 80 130 223 2245 1913 92344
leaf_count=3696 2569 80 130 223 2245 1913 92344
internal_value=0 0.00247564 -0.010911 0.00389158 -7.70626e-05 -0.0021613 4.9083e-05
internal_weight=103200 3002 210 2792 100198 5609 94589
internal_count=103200 3002 210 2792 100198 5609 94589
is_linear=0
shrinkage=0.054


Tree=90
num_leaves=8
num_cat=0
split_feature=7 8 4 4 8 7 4
split_gain=7.46033 10.2506 8.14729 6.80228 19.0933 13.1303 0.753299
threshold=5.6338591696706377 -0.16707090169935881 -0.24881962723817286 0.052456058723696443 1.0000000180025095e-35 -1.4370367979491063 0.33617447903709291
decision_type=2 2 2 2 2 2 2
left_child=3 6 -3 5 -5 -1 -2
right_child=1 2 -4 4 -6 -7 -8
leaf_value=0.0029753842209943437 0.00028682417171566109 -0.00031247149159400057 0.015583932498414603 0.00020731051471178341 0.0060438518138833551 -0.00070151825786421808 -0.0065333358980014045
leaf_weight=2894 51 132 169 51027 1569 47308 50
leaf_count=2894 51 132 169 51027 1569 47308 50
internal_value=-1.17044e-06 0.00643811 0.0105043 -3.38553e-05 0.000394834 -0.000482912 -0.00479149
internal_weight=103200 402 301 102798 52596 50202 101
internal_count=103200 402 301 102798 52596 50202 101
is_linear=0
shrinkage=0.054


Tree=91
num_leaves=8
num_cat=0
split_feature=5 0 0 0 1 1 1
split_gain=7.73815 35.7424 29.2931 18.9173 18.3964 16.5745 13.5116
threshold=0.63414557065937094 2.8611773850965698 -0.62301911685970846 -0.73386076340293505 0.018326163761088272 -0.2193961055407754 0.014935542558346433
decision_type=2 2 2 2 2 2 2
left_child=3 2 -2 4 -1 -5 -3
right_child=1 6 -4 5 -6 -7 -8
leaf_value=-0.0038395361029686052 0.0061098622693911567 2.4845309923114499e-05 0.00036646336869339442 -0.0017113509549667063 0.00083371125812431695 0.0004609166818620343 -0.022941859333455026
leaf_weight=7355 2925 106 17444 12252 3602 59387 129
leaf_count=7355 2925 106 17444 12252 3602 59387 129
internal_value=-2.31136e-09 0.000933067 0.0012223 -0.00023381 -0.00231062 8.71282e-05 -0.0160682
internal_weight=103200 20604 20369 82596 10957 71639 235
internal_count=103200 20604 20369 82596 10957 71639 235
is_linear=0
shrinkage=0.054


Tree=92
num_leaves=7
num_cat=0
split_feature=2 9 9 2 2 4
split_gain=7.54862 8.35988 9.82449 7.66959 12.6827 8.64776
threshold=-5.5585970987012896 1.2659138834607697 -0.71829517500821849 -3.3140445718754061 -2.1640243961065067 0.84725885675392665
decision_type=2 2 2 2 2 2
left_child=1 2 -1 5 -5 -2
right_child=3 -3 -4 4 -6 -7
leaf_value=-0.010289632514574511 0.0077908002024371587 -0.015727022831319153 0.0043560137073995284 -0.0052122447208426889 5.66478924570998e-05 -0.0032381267469425413
leaf_weight=88 608 65 257 1230 100740 212
leaf_count=88 608 65 257 1230 100740 212
internal_value=-1.29602e-06 -0.00642929 -0.00106522 3.17843e-05 -1.29329e-05 0.00488717
internal_weight=103200 410 345 102790 101970 820
internal_count=103200 410 345 102790 101970 820
is_linear=0
shrinkage=0.054


Tree=93
num_leaves=7
num_cat=0
split_feature=2 1 2 2 1 7
split_gain=7.35338 10.2472 6.9574 11.4642 11.013 5.17793
threshold=-5.5585970987012896 -0.15345617339828857 -3.3140445718754061 -2.1640243961065067 -0.13801173119476604 -0.11826402841709585
decision_type=2 2 2 2 2 2
left_child=1 -1 4 -4 -2 -3
right_child=2 5 3 -5 -6 -7
leaf_value=0.0054064332725606784 0.012510631109474422 -0.00040565009182773348 -0.00495580228077434 5.359255618014782e-05 0.00025029734097173887 -0.013766715427749916
leaf_weight=86 215 126 1230 100740 605 198
leaf_count=86 215 126 1230 100740 605 198
internal_value=-2.62235e-06 -0.00634694 3.00286e-05 -1.25604e-05 0.0046545 -0.0100908
internal_weight=103200 410 102790 101970 820 324
internal_count=103200 410 102790 101970 820 324
is_linear=0
shrinkage=0.054


Tree=94
num_leaves=8
num_cat=0
split_feature=5 9 8 8 5 5 4
split_gain=7.64881 32.1851 12.8829 8.67948 21.2877 9.68638 2.25619
threshold=2.4188125087761425 1.5437685794967326 -0.040198015199813288 1.0000000180025095e-35 0.026491531392375148 -1.2374692510414074 -0.093999959207779912
decision_type=2 2 2 2 2 2 2
left_child=3 2 -2 5 -5 -1 -3
right_child=1 6 -4 4 -6 -7 -8
leaf_value=-0.0015711624930259407 0.012083068450623572 -0.016475289393275638 -0.0053985958693282942 0.00674058094323381 -0.0021537237688716202 6.3195617547979137e-05 -0.001544094836286136
leaf_weight=11906 607 56 76 1619 1347 87520 69
leaf_count=11906 607 56 76 1619 1347 87520 69
internal_value=-2.53482e-06 0.00487789 0.00961839 -4.67387e-05 0.00277371 -0.000134145 -0.0130375
internal_weight=103200 808 683 102392 2966 99426 125
internal_count=103200 808 683 102392 2966 99426 125
is_linear=0
shrinkage=0.054


Tree=95
num_leaves=7
num_cat=0
split_feature=7 2 2 8 7 8
split_gain=7.01023 13.4462 7.70088 13.6468 8.74152 5.1354
threshold=5.6338591696706377 -0.14999250496844441 0.35098748736966623 -0.12907599560800928 -2.2932063534149836 -0.16707090169935881
decision_type=2 2 2 2 2 2
left_child=2 -2 4 -4 -1 -3
right_child=1 5 3 -5 -6 -7
leaf_value=0.0031190775410184601 -0.0069120033430264275 -0.0014089591076443208 -0.00055772972667311922 0.0023022650667369475 -0.00034934498216899861 0.013069697665668284
leaf_weight=2056 84 61 9265 10034 81443 257
leaf_count=2056 84 61 9265 10034 81443 257
internal_value=-2.91715e-06 0.00623909 -3.45994e-05 0.000934147 -0.000259556 0.0106611
internal_weight=103200 402 102798 19299 83499 318
internal_count=103200 402 102798 19299 83499 318
is_linear=0
shrinkage=0.054


Tree=96
num_leaves=7
num_cat=0
split_feature=5 9 6 6 9 9
split_gain=7.1038 13.0217 9.99606 8.41157 20.9528 10.0875
threshold=-2.3258125239796983 1.4192325521800704 -0.51682234940565663 -1.0483835138663087 1.7263169283286024 -0.60225217864292147
decision_type=2 2 2 2 2 2
left_child=1 2 -1 4 -2 -5
right_child=3 -3 -4 5 -6 -7
leaf_value=0.0066329021599485323 -0.00053033693388024046 -0.01602372152885986 -0.0039926153452646482 -0.00059383818767898581 -0.0080134169075517878 0.00066201057235645378
leaf_weight=229 15157 98 900 27239 1058 58519
leaf_count=229 15157 98 900 27239 1058 58519
internal_value=-2.17866e-06 -0.00389811 -0.00140503 4.91998e-05 -0.00107404 0.000262816
internal_weight=103200 1227 1129 101973 16215 85758
internal_count=103200 1227 1129 101973 16215 85758
is_linear=0
shrinkage=0.054


Tree=97
num_leaves=8
num_cat=0
split_feature=5 2 2 8 4 2 4
split_gain=6.86827 28.8537 16.3711 15.1351 18.9022 10.5746 10.0634
threshold=0.86464220420401483 0.24692191465796873 -0.34607505892309137 0.58807005882578822 0.245054133184997 -0.13950724510468901 0.13310274678441861
decision_type=2 2 2 2 2 2 2
left_child=3 2 -2 5 -5 -1 -3
right_child=1 6 -4 4 -6 -7 -8
leaf_value=-0.0012629418335875879 0.0046295197319006845 0.012684722938538196 -0.0003909033737767956 -0.00065213720465459514 0.0090602195961383102 6.9992541548972322e-05 0.002982021705475687
leaf_weight=24339 2079 634 13556 1166 1021 59706 699
leaf_count=24339 2079 634 13556 1166 1021 59706 699
internal_value=-3.43479e-06 0.000985696 0.000306672 -0.000199198 0.00411633 -0.000317237 0.00826515
internal_weight=103200 16968 15635 86232 2187 84045 1333
internal_count=103200 16968 15635 86232 2187 84045 1333
is_linear=0
shrinkage=0.054


Tree=98
num_leaves=8
num_cat=0
split_feature=0 5 7 2 7 6 6
split_gain=7.26007 25.7285 20.9442 19.7089 13.5118 10.8565 9.6295
threshold=-1.1761358915951881 1.3999974055288575 -2.1055315358669286 0.093650934263383362 4.2786813779922612 0.0059209541559497557 -0.28372241998034281
decision_type=2 2 2 2 2 2 2
left_child=1 2 -1 -3 5 -2 -6
right_child=4 3 -4 -5 6 -7 -8
leaf_value=0.0025980464516316961 -0.00046623923535303331 0.010558168832120914 -0.0041035456557225796 -0.0081664859022880943 -0.0015206244376606559 0.00069278044565514554 0.011399867721452732
leaf_weight=1685 50354 667 5682 112 210 44088 402
leaf_count=1685 50354 667 5682 112 210 44088 402
internal_value=-1.54414e-06 -0.00153665 -0.00255331 0.00713232 0.000131756 7.49855e-05 0.0074402
internal_weight=103200 8146 7367 779 95054 94442 612
internal_count=103200 8146 7367 779 95054 94442 612
is_linear=0
shrinkage=0.054


Tree=99
num_leaves=7
num_cat=0
split_feature=2 9 9 4 7 9
split_gain=6.67906 8.01545 9.28332 6.52225 18.8116 9.24636
threshold=-5.5585970987012896 1.2659138834607697 -0.71829517500821849 -0.22489756293094876 -1.6009268708685298 -1.0017159494978893
decision_type=2 2 2 2 2 2
left_child=1 2 -1 4 -2 -5
right_child=3 -3 -4 5 -6 -7
leaf_value=-0.0098601704756021858 0.0043796093932035353 -0.01514044128995288 0.0043683720736964471 -0.0010766383841574385 -0.00079087078943394079 0.00066482967251347213
leaf_weight=88 2051 65 257 10584 37632 52523
leaf_count=88 2051 65 257 10584 37632 52523
internal_value=-7.69954e-07 -0.00604721 -0.000863095 3.03447e-05 -0.000511171 0.000371227
internal_weight=103200 410 345 102790 39683 63107
internal_count=103200 410 345 102790 39683 63107
is_linear=0
shrinkage=0.054


Tree=100
num_leaves=7
num_cat=0
split_feature=0 5 3 5 4 6
split_gain=6.77789 8.47475 7.06812 6.20599 5.20504 3.43062
threshold=4.8293610390019293 2.4188125087761425 0.68565353127012629 0.39090273984399276 -1.3993530918498982 -0.90354128592287031
decision_type=2 2 2 2 2 2
left_child=1 2 -1 5 -3 -2
right_child=3 4 -4 -5 -6 -7
leaf_value=-0.00046761005482736631 -0.0013382777126058518 -0.003749488343503415 0.00043995338002724902 -0.0046741649640233886 0.0066120387317915759 0.010273563934958024
leaf_weight=58394 59 89 43600 51 713 294
leaf_count=58394 59 89 43600 51 713 294
internal_value=-1.82313e-06 -3.30375e-05 -7.95608e-05 0.00612409 0.00512092 0.00847992
internal_weight=103200 102796 101994 404 802 353
internal_count=103200 102796 101994 404 802 353
is_linear=0
shrinkage=0.054


Tree=101
num_leaves=8
num_cat=0
split_feature=0 9 0 9 2 0 5
split_gain=6.77514 24.0438 26.2832 10.9244 9.40724 12.1613 10.8972
threshold=-1.1761358915951881 1.0257564428636174 -3.2205058503242974 1.5437685794967326 -1.7389675438382741 1.572916777839398 -2.1254780671206999
decision_type=2 2 2 2 2 2 2
left_child=1 2 -1 -3 5 -2 -6
right_child=4 3 -4 -5 6 -7 -8
leaf_value=0.0037055655839835439 -0.0036673344380631911 0.0073481651879962256 -0.0049029159555640375 -0.00031335537187631151 -0.0031181119559073002 0.0080831134967389515 0.0003302323430189299
leaf_weight=1207 2918 947 4908 1084 2635 168 89333
leaf_count=1207 2918 947 4908 1084 2635 168 89333
internal_value=-1.27965e-06 -0.00148423 -0.0031647 0.00346839 0.00012749 -0.0027482 0.000227469
internal_weight=103200 8146 6115 2031 95054 3086 91968
internal_count=103200 8146 6115 2031 95054 3086 91968
is_linear=0
shrinkage=0.054


Tree=102
num_leaves=8
num_cat=0
split_feature=5 6 6 9 7 7 7
split_gain=6.41598 23.9382 17.2371 15.0705 13.8607 13.8032 12.2712
threshold=0.065501326389098932 -1.5733799018209282 1.9034509124142829 1.6547428181035317 0.33103444631464651 -3.8483204826047426 1.6559318333896214
decision_type=2 2 2 2 2 2 2
left_child=1 3 5 -1 -4 -2 -3
right_child=2 6 4 -5 -6 -7 -8
leaf_value=-0.0035492769155595436 -0.0099822791029340954 -0.00033176426081730858 -0.0075678780408408768 -0.01572526501229797 0.0039235567412674041 0.00077714420566594436 0.0031612747101396077
leaf_weight=2142 231 53361 1171 253 318 42741 2983
leaf_count=2142 231 53361 1171 253 318 42741 2983
internal_value=-7.40922e-07 -0.000370892 0.0004879 -0.00552552 -0.00500243 0.000691606 -0.00014046
internal_weight=103200 58739 44461 2395 1489 42972 56344
internal_count=103200 58739 44461 2395 1489 42972 56344
is_linear=0
shrinkage=0.054


Tree=103
num_leaves=8
num_cat=0
split_feature=8 1 1 8 4 1 8
split_gain=6.89744 23.184 36.7268 20.8017 14.7779 10.7237 8.85005
threshold=-0.1992970152047038 0.13493635898366615 -0.081016299203221412 -0.19570042651053324 -0.94741437075996682 -0.42687630121987602 -0.17194641720492912
decision_type=2 2 2 2 2 2 2
left_child=1 2 -1 5 -3 -2 -5
right_child=3 4 -4 6 -6 -7 -8
leaf_value=0.0033800765242556863 0.0044200260240033094 -0.0049549757556956522 -0.0054516165111261278 -0.0014110250442222712 0.010939208161412034 -0.013582743520863241 0.00013793290035196538
leaf_weight=3731 59 132 2014 12218 907 365 83774
leaf_count=3731 59 132 2014 12218 907 365 83774
internal_value=-2.53961e-06 0.00164631 0.000235332 -0.000120486 0.00861364 -0.0106503 -6.07082e-05
internal_weight=103200 6784 5745 96416 1039 424 95992
internal_count=103200 6784 5745 96416 1039 424 95992
is_linear=0
shrinkage=0.054


Tree=104
num_leaves=8
num_cat=0
split_feature=1 5 5 1 0 1 2
split_gain=6.65585 17.0061 35.9487 10.6704 23.6307 11.2542 3.28353
threshold=2.4964559345563546 -0.13684120863445617 0.18977099472912298 0.76379340546049423 0.94856784945696859 0.11201078665659613 -0.18800052734918518
decision_type=2 2 2 2 2 2 2
left_child=3 6 -3 5 -5 -1 -2
right_child=1 2 -4 4 -6 -7 -8
leaf_value=-0.00021410011718390944 -0.010661171669701234 0.015648007728627511 -0.0046391979199108943 -0.0041142038656147061 0.0069765565483962903 0.0012614158084070216 -0.00095421401203762914
leaf_weight=79075 68 497 359 3882 540 18497 282
leaf_count=79075 68 497 359 3882 540 18497 282
internal_value=-2.81017e-06 0.00379838 0.00761265 -5.21936e-05 -0.0026107 6.67958e-05 -0.00508637
internal_weight=103200 1206 856 101994 4422 97572 350
internal_count=103200 1206 856 101994 4422 97572 350
is_linear=0
shrinkage=0.054


Tree=105
num_leaves=7
num_cat=0
split_feature=2 0 2 2 4 0
split_gain=6.18166 9.41357 6.90344 9.62876 7.8923 5.3536
threshold=-5.5585970987012896 0.7551277215696327 -3.3140445718754061 -2.1640243961065067 0.84725885675392665 -0.12487527312871322
decision_type=2 2 2 2 2 2
left_child=1 5 4 -4 -2 -1
right_child=2 -3 3 -5 -6 -7
leaf_value=0.00091795281744562083 0.0074096362136970894 0.0066247060593233667 -0.0045452208828199656 4.5689807132642693e-05 -0.0031191902434015758 -0.011956986496562228
leaf_weight=104 608 54 1230 100740 212 252
leaf_count=104 608 54 1230 100740 212 252
internal_value=-2.45266e-06 -0.00581939 2.7482e-05 -1.49385e-05 0.00463398 -0.00890689
internal_weight=103200 410 102790 101970 820 356
internal_count=103200 410 102790 101970 820 356
is_linear=0
shrinkage=0.054


Tree=106
num_leaves=8
num_cat=0
split_feature=8 0 8 5 5 0 5
split_gain=6.2419 24.62 18.9911 15.9775 11.161 9.96765 5.40003
threshold=-0.1992970152047038 0.35243236122366584 -0.19570042651053324 -1.9537565984410199 -2.2657132272521521 2.0037904476492683 0.18977099472912298
decision_type=2 2 2 2 2 2 2
left_child=1 3 6 -1 -4 -3 -2
right_child=2 5 4 -5 -6 -7 -8
leaf_value=0.011352401017624919 -0.0036428357281649811 0.0087119601412793523 -0.004409937321834605 -0.00095594211525418336 2.0058023770404644e-05 -0.0038056750599649017 -0.016672732820980654
leaf_weight=207 305 1378 1568 5056 94424 143 119
leaf_count=207 305 1378 1568 5056 94424 143 119
internal_value=-2.60738e-06 0.00156593 -0.00011481 -0.000229058 -5.76922e-05 0.00734121 -0.0101759
internal_weight=103200 6784 96416 5263 95992 1521 424
internal_count=103200 6784 96416 5263 95992 1521 424
is_linear=0
shrinkage=0.054


Tree=107
num_leaves=8
num_cat=0
split_feature=1 1 3 1 7 3 8
split_gain=5.96082 9.51182 33.7808 17.1058 5.12212 15.6805 7.94235
threshold=2.4964559345563546 0.64342170138731591 0.77094414469067518 0.55179292821065418 0.24440233376615211 0.8181666541904945 -0.16544178931506753
decision_type=2 2 2 2 2 2 2
left_child=1 3 -3 -1 6 -6 -2
right_child=4 2 -4 -5 5 -7 -8
leaf_value=-7.4655949542003422e-06 -0.007278745945654759 -0.0058475041440445305 0.0024129312015864104 0.0061683778420135449 0.014287969620748509 -0.0044065277639590925 0.0034656615262146583
leaf_weight=95160 148 3114 2514 1206 233 136 689
leaf_count=95160 148 3114 2514 1206 233 136 689
internal_value=-3.0577e-06 -4.97926e-05 -0.0021838 7.73713e-05 0.00359419 0.0080018 0.000888523
internal_weight=103200 101994 5628 96366 1206 369 837
internal_count=103200 101994 5628 96366 1206 369 837
is_linear=0
shrinkage=0.054


Tree=108
num_leaves=8
num_cat=0
split_feature=3 4 3 1 1 1 1
split_gain=5.77586 10.3971 7.42999 23.4958 10.4532 3.79082 1.89765
threshold=1.2540069961680615 0.16379275532444201 1.0617490976413333 0.55179292821065418 0.64342170138731591 0.024739299640635284 -0.067224708798718683
decision_type=2 2 2 2 2 2 2
left_child=2 6 4 -4 -1 -3 -2
right_child=1 5 3 -5 -6 -7 -8
leaf_value=1.5794768366681805e-05 -0.00115953778649911 -0.013890382584168557 0.0005233985986406568 0.0088161318963426473 -0.0022965760901335432 -0.00034269109420660064 0.0070316549149604295
leaf_weight=85030 98 162 10794 980 5990 85 61
leaf_count=85030 98 162 10794 980 5990 85 61
internal_value=-2.3396e-06 -0.00564656 2.64849e-05 0.00129585 -0.000139176 -0.010872 0.00364606
internal_weight=103200 406 102794 11774 91020 247 159
internal_count=103200 406 102794 11774 91020 247 159
is_linear=0
shrinkage=0.054


Tree=109
num_leaves=8
num_cat=0
split_feature=8 8 8 1 1 4 1
split_gain=5.90099 13.631 17.794 17.4673 9.50571 5.47445 1.66901
threshold=-0.22891572287476963 -0.1992970152047038 -0.19570042651053324 -0.13619717225197123 0.13493635898366615 -0.64707001622135552 0.57679920953106201
decision_type=2 2 2 2 2 2 2
left_child=4 3 -3 -2 5 -1 -6
right_child=1 2 -4 -5 6 -7 -8
leaf_value=0.0014380107533790774 0.0065840176941471158 -0.0098480268316072945 -5.3922639519797609e-05 0.00036454128256232062 0.0087385686250104171 -0.0074862845180828589 -0.00017408302574615757
leaf_weight=213 1938 424 95992 3701 69 780 83
leaf_count=213 1938 424 95992 3701 69 780 83
internal_value=-2.29352e-06 4.30651e-05 -0.000109209 0.00259516 -0.00366786 -0.00562093 0.00593217
internal_weight=103200 102055 96416 5639 1145 993 152
internal_count=103200 102055 96416 5639 1145 993 152
is_linear=0
shrinkage=0.054


Tree=110
num_leaves=8
num_cat=0
split_feature=4 5 7 7 5 1 6
split_gain=5.78489 11.7953 23.3676 17.4459 11.4024 26.303 20.102
threshold=0.031208678602742002 1.3256500784706613 -2.2932063534149836 -0.17614514160468661 -0.15603020266768916 0.028269909269924533 -0.50077270710125055
decision_type=2 2 2 2 2 2 2
left_child=1 2 -1 -3 5 -2 -6
right_child=4 3 -4 -5 6 -7 -8
leaf_value=0.0061456498989067186 -0.0019718947507656841 0.0052995882297735631 -0.00096619498549664314 -0.00047078247267421785 -0.0010671337368328426 0.0022818231315536162 0.0018154922079819597
leaf_weight=1273 13499 2351 42026 3955 9840 6040 24216
leaf_count=1273 13499 2351 42026 3955 9840 6040 24216
internal_value=-2.19568e-06 -0.000421937 -0.000740636 0.0017389 0.000386322 -0.000650923 0.000981697
internal_weight=103200 49605 43299 6306 53595 19539 34056
internal_count=103200 49605 43299 6306 53595 19539 34056
is_linear=0
shrinkage=0.054


Tree=111
num_leaves=8
num_cat=0
split_feature=7 5 5 9 8 5 8
split_gain=5.70144 11.7079 5.72299 30.338 6.84581 3.39039 1.66471
