tree
version=v4
num_class=1
num_tree_per_iteration=1
label_index=0
max_feature_idx=1
objective=regression
feature_names=gp_factor_0 gp_factor_1
feature_infos=[-10.15133214975268:12.029719646319222] [-7.416198487095663:16.110866986873653]
tree_sizes=624 897 628 897 628 899 629 900 628 899 630 903 634 904 634 902 629 901

Tree=0
num_leaves=5
num_cat=0
split_feature=0 0 0 0
split_gain=24.5803 20.8967 26.8853 17.1367
threshold=3.6914038435155248 -0.15363189817035397 -1.5184129163717992 1.0794034162392325
decision_type=2 2 2 2
left_child=1 2 -1 -3
right_child=-2 3 -4 -5
leaf_value=-0.0032509504863657778 0.0079343328655812062 -0.0019661866511784601 0.00058153086816265117 0.00042628525881259027
leaf_weight=6150 806 49747 36019 10478
leaf_count=6150 806 49747 36019 10478
internal_value=-0.00082416 -0.000903273 1.7231e-05 -0.00154824
internal_weight=103200 102394 42169 60225
internal_count=103200 102394 42169 60225
is_linear=0
shrinkage=1


Tree=1
num_leaves=8
num_cat=0
split_feature=1 1 1 1 1 1 1
split_gain=61.8577 10.6633 9.92831 9.20326 8.94941 3.70172 0.297922
threshold=0.61139646487963117 0.065489305646573667 6.4419461776887994 2.6041949554793202 0.30922075404814597 0.036757404164811804 7.5107520444623104
decision_type=2 2 2 2 2 2 2
left_child=1 5 3 -2 -3 -1 -4
right_child=2 4 6 -5 -6 -7 -8
leaf_value=-0.00045742805420939973 0.0011047981724564733 -0.0022874716375926411 -0.0053350464778201927 0.0030197958224231179 -0.00076124350261318728 0.0019340183542274003 -0.0020924791199176439
leaf_weight=4209 40551 24766 405 8910 20706 3248 405
leaf_count=4209 40551 24766 405 8910 20706 3248 405
internal_value=4.67898e-07 -0.00128652 0.0013554 0.0014563 -0.00159638 0.000597976 -0.00419586
internal_weight=103200 52929 50271 49461 45472 7457 810
internal_count=103200 52929 50271 49461 45472 7457 810
is_linear=0
shrinkage=0.054


Tree=2
num_leaves=5
num_cat=0
split_feature=0 0 0 0
split_gain=22.1627 18.3762 24.5211 14.8957
threshold=3.6914038435155248 -0.15363189817035397 -1.5184129163717992 1.0794034162392325
decision_type=2 2 2 2
left_child=1 2 -1 -3
right_child=-2 3 -4 -5
leaf_value=-0.0023328260985054127 0.0083167746165200059 -0.0010694433996091015 0.0013271940208995094 0.0011611247350014266
leaf_weight=6150 806 49747 36019 10478
leaf_count=6150 806 49747 36019 10478
internal_value=1.32059e-07 -7.49653e-05 0.000788242 -0.000679785
internal_weight=103200 102394 42169 60225
internal_count=103200 102394 42169 60225
is_linear=0
shrinkage=0.054


Tree=3
num_leaves=8
num_cat=0
split_feature=1 1 1 1 1 1 1
split_gain=54.9357 9.56001 9.0835 8.19172 7.96566 3.34606 0.278537
threshold=0.61139646487963117 0.065489305646573667 6.4419461776887994 2.6041949554793202 0.30922075404814597 0.036757404164811804 7.5107520444623104
decision_type=2 2 2 2 2 2 2
left_child=1 5 3 -2 -3 -1 -4
right_child=2 4 6 -5 -6 -7 -8
leaf_value=-0.0004314683516193259 0.0010423825301232965 -0.0021576549406000234 -0.0051295520737096676 0.0028490951855416921 -0.00071774319953917247 0.0018422272576376711 -0.0020072000088776861
leaf_weight=4209 40551 24766 405 8910 20706 3248 405
leaf_count=4209 40551 24766 405 8910 20706 3248 405
internal_value=5.88935e-07 -0.00121226 0.00127746 0.00137401 -0.00150565 0.000572007 -0.00403171
internal_weight=103200 52929 50271 49461 45472 7457 810
internal_count=103200 52929 50271 49461 45472 7457 810
is_linear=0
shrinkage=0.054


Tree=4
num_leaves=5
num_cat=0
split_feature=0 0 0 0
split_gain=19.9846 16.1582 22.3592 12.9439
threshold=3.6914038435155248 -0.15363189817035397 -1.5184129163717992 1.0794034162392325
decision_type=2 2 2 2
left_child=1 2 -1 -3
right_child=-2 3 -4 -5
leaf_value=-0.0022418199316122061 0.0078976630785094152 -0.0010014295459025398 0.0012530630539982033 0.0010778876802065328
leaf_weight=6150 806 49747 36019 10478
leaf_count=6150 806 49747 36019 10478
internal_value=2.57813e-07 -7.10527e-05 0.000738384 -0.000638199
internal_weight=103200 102394 42169 60225
internal_count=103200 102394 42169 60225
is_linear=0
shrinkage=0.054


Tree=5
num_leaves=8
num_cat=0
split_feature=1 1 1 1 1 1 1
split_gain=48.9454 9.69319 8.01682 8.22553 4.78447 3.02405 0.260536
threshold=0.54096115269024869 0.065489305646573667 6.4419461776887994 2.6041949554793202 0.30922075404814597 0.036757404164811804 7.5107520444623104
decision_type=2 2 2 2 2 2 2
left_child=1 5 3 -2 -3 -1 -4
right_child=2 4 6 -5 -6 -7 -8
leaf_value=-0.00040700013314278437 0.0008949663311176168 -0.0020353256824583812 -0.0049314697657147685 0.0026883440705449892 -0.00084257822391505682 0.0017545542276391399 -0.0019248796085715295
leaf_weight=4209 44611 24766 405 8910 16646 3248 405
leaf_count=4209 44611 24766 405 8910 16646 3248 405
internal_value=6.81921e-07 -0.00123769 0.00111488 0.00119892 -0.00155977 0.000547015 -0.00387342
internal_weight=103200 48869 54331 53521 41412 7457 810
internal_count=103200 48869 54331 53521 41412 7457 810
is_linear=0
shrinkage=0.054


Tree=6
num_leaves=5
num_cat=0
split_feature=0 0 0 0
split_gain=18.0159 14.2068 20.3701 11.2487
threshold=3.6914038435155248 -0.15363189817035397 -1.5184129163717992 1.0794034162392325
decision_type=2 2 2 2
left_child=1 2 -1 -3
right_child=-2 3 -4 -5
leaf_value=-0.0021528454334519562 0.0074986840309479467 -0.00093777301201168389 0.0011829047060112471 0.0010006221726688972
leaf_weight=6150 806 49747 36019 10478
leaf_count=6150 806 49747 36019 10478
internal_value=3.39728e-07 -6.73662e-05 0.000691621 -0.000599165
internal_weight=103200 102394 42169 60225
internal_count=103200 102394 42169 60225
is_linear=0
shrinkage=0.054


Tree=7
num_leaves=8
num_cat=0
split_feature=1 1 1 1 1 1 1
split_gain=43.6419 7.71992 7.61365 6.45681 6.21831 2.73256 0.243799
threshold=0.61139646487963117 0.065489305646573667 6.4419461776887994 2.6041949554793202 0.30922075404814597 0.036757404164811804 7.5107520444623104
decision_type=2 2 2 2 2 2 2
left_child=1 5 3 -2 -3 -1 -4
right_child=2 4 6 -5 -6 -7 -8
leaf_value=-0.00038393539573056742 0.00093279708364257937 -0.0019200430422370446 -0.0047405710450740797 0.0025369441846885901 -0.00064764296172028905 0.0016708321121192383 -0.0018454631927630732
leaf_weight=4209 40551 24766 405 8910 20706 3248 405
leaf_count=4209 40551 24766 405 8910 20706 3248 405
internal_value=7.34911e-07 -0.00108027 0.00113882 0.00122727 -0.00134394 0.000522978 -0.00372083
internal_weight=103200 52929 50271 49461 45472 7457 810
internal_count=103200 52929 50271 49461 45472 7457 810
is_linear=0
shrinkage=0.054


Tree=8
num_leaves=5
num_cat=0
split_feature=0 0 0 0
split_gain=16.248 12.5172 18.802 9.64215
threshold=3.6914038435155248 -0.16679207598492315 -1.5184129163717992 1.0794034162392325
decision_type=2 2 2 2
left_child=1 2 -1 -3
right_child=-2 3 -4 -5
leaf_value=-0.0020677346619918865 0.0071213506197832423 -0.00086376187619351629 0.0011425082646362706 0.00092833168656228837
leaf_weight=6150 806 50565 35201 10478
leaf_count=6150 806 50565 35201 10478
internal_value=4.15189e-07 -6.38817e-05 0.000660393 -0.000554888
internal_weight=103200 102394 41351 61043
internal_count=103200 102394 41351 61043
is_linear=0
shrinkage=0.054


Tree=9
num_leaves=8
num_cat=0
split_feature=1 1 1 1 1 1 1
split_gain=38.8597 7.32814 5.96621 7.76397 4.76085 2.46835 0.228127
threshold=0.72070199502292365 6.4419461776887994 0.065489305646573667 0.30922075404814597 2.800497178413476 0.036757404164811804 7.5107520444623104
decision_type=2 2 2 2 2 2 2
left_child=2 4 5 -4 -2 -1 -3
right_child=1 6 3 -5 -6 -7 -8
leaf_value=-0.00036225344762111687 0.0010240394395205784 -0.0045570584214779412 -0.0018110981935802496 -0.00047338317683539313 0.0025030688721048027 0.0015906758092668514 -0.0017692584589145014
leaf_weight=4209 36488 405 24766 25984 7695 3248 405
leaf_count=4209 36488 405 24766 25984 7695 3248 405
internal_value=7.85129e-07 0.00119091 -0.000919672 -0.00112897 0.00128777 0.000499736 -0.00357421
internal_weight=103200 44993 58207 50750 44183 7457 810
internal_count=103200 44993 58207 50750 44183 7457 810
is_linear=0
shrinkage=0.054


Tree=10
num_leaves=5
num_cat=0
split_feature=0 0 0 0
split_gain=14.6551 11.0584 16.6686 10.9192
threshold=3.6914038435155248 -0.1340762543979642 -1.5184129163717992 0.082053703877733628
decision_type=2 2 2 2
left_child=1 2 -1 -3
right_child=-2 3 -4 -5
leaf_value=-0.0019862643188162613 0.0067633785800811719 -0.0018121164002089867 0.001023741991958685 -0.00011716190212197902
leaf_weight=6150 806 14668 37246 44330
leaf_count=6150 806 14668 37246 44330
internal_value=4.96813e-07 -6.0566e-05 0.000592806 -0.000541428
internal_weight=103200 102394 43396 58998
internal_count=103200 102394 43396 58998
is_linear=0
shrinkage=0.054


Tree=11
num_leaves=8
num_cat=0
split_feature=1 1 1 1 1 1 1
split_gain=34.7998 7.98922 6.14208 5.84475 5.4277 2.36547 0.217755
threshold=0.54096115269024869 0.11039781634791516 6.4419461776887994 2.6041949554793202 0.30922075404814597 -0.013185320836104615 7.5107520444623104
decision_type=2 2 2 2 2 2 2
left_child=1 5 3 -2 -3 -1 -4
right_child=2 4 6 -5 -6 -7 -8
leaf_value=0.0026466622432752048 0.00075759268752238773 -0.0020623070491225799 -0.0043754350004020547 0.0022693907047334231 -0.00072815652796108347 -9.2380185844756054e-05 -0.0016864195641484109
leaf_weight=876 44611 19488 405 8910 16646 11859 405
leaf_count=876 44611 19488 405 8910 16646 11859 405
internal_value=7.10098e-07 -0.00104348 0.000940209 0.00101384 -0.00145222 0.000118767 -0.00342492
internal_weight=103200 48869 54331 53521 36134 12735 810
internal_count=103200 48869 54331 53521 36134 12735 810
is_linear=0
shrinkage=0.054


Tree=12
num_leaves=5
num_cat=0
split_feature=0 0 0 0
split_gain=13.1826 9.77039 14.9117 11.6466
threshold=3.6914038435155248 -0.10846427440588702 -1.5184129163717992 0.051030943498545152
decision_type=2 2 2 2
left_child=1 2 -1 -3
right_child=-2 3 -4 -5
leaf_value=-0.0019094751630943829 0.0064145821708574092 -0.0020924391730077342 0.00092878863888751597 -0.00014710964672040954
leaf_weight=6150 806 11017 38882 46345
leaf_count=6150 806 11017 38882 46345
internal_value=4.62287e-07 -5.74501e-05 0.000537064 -0.000524367
internal_weight=103200 102394 45032 57362
internal_count=103200 102394 45032 57362
is_linear=0
shrinkage=0.054


Tree=13
num_leaves=8
num_cat=0
split_feature=1 1 1 1 1 1 1
split_gain=31.2275 6.25158 8.79244 4.97809 8.71731 2.12313 1.73513
threshold=0.72070199502292365 4.3756325762540973 2.800497178413476 0.11039781634791516 0.30922075404814597 -0.013185320836104615 6.4419461776887994
decision_type=2 2 2 2 2 2 2
left_child=3 2 -2 5 -5 -1 -3
right_child=1 6 -4 4 -6 -7 -8
leaf_value=0.002513061656413673 0.00091921821573853974 -0.0004293080856224483 0.0031921449743444598 -0.0019481651160805995 -0.00043708672625510878 -8.1904206904598415e-05 -0.0032809137631384959
leaf_weight=876 36488 2025 5670 19488 25984 11859 810
leaf_count=876 36488 2025 5670 19488 25984 11859 810
internal_value=6.3482e-07 0.00106751 0.00123317 -0.000824492 -0.00108817 0.000118178 -0.00134512
internal_weight=103200 44993 42158 58207 45472 12735 2835
internal_count=103200 44993 42158 58207 45472 12735 2835
is_linear=0
shrinkage=0.054


Tree=14
num_leaves=5
num_cat=0
split_feature=0 0 0 0
split_gain=11.8697 8.64465 15.0049 7.46435
threshold=3.6914038435155248 -0.16679207598492315 -0.41128927221334804 1.0794034162392325
decision_type=2 2 2 2
left_child=1 2 -1 -3
right_child=-2 3 -4 -5
leaf_value=-0.00013805587859723145 0.0060869684246581679 -0.00073417400753914659 0.0020849918721845685 0.0008424878521531788
leaf_weight=28672 806 50565 12679 10478
leaf_count=28672 806 50565 12679 10478
internal_value=6.24425e-07 -5.43274e-05 0.000547568 -0.000462375
internal_weight=103200 102394 41351 61043
internal_count=103200 102394 41351 61043
is_linear=0
shrinkage=0.054


Tree=15
num_leaves=8
num_cat=0
split_feature=1 1 1 1 1 1 1
split_gain=27.8057 5.50701 5.8337 5.29459 4.10174 1.88758 0.245052
threshold=0.61139646487963117 0.11039781634791516 0.30922075404814597 6.4419461776887994 2.6041949554793202 -0.013185320836104615 7.5107520444623104
decision_type=2 2 2 2 2 2 2
left_child=1 5 -3 4 -2 -1 -5
right_child=3 2 -4 6 -6 -7 -8
leaf_value=0.0023740238857877737 0.00074862272064430628 -0.001839276831113469 -0.00053495881635956771 -0.0040815174508541819 0.0020272995225886371 -7.2776472099500778e-05 -0.001478507149173745
leaf_weight=876 40551 19488 20706 405 8910 11859 405
leaf_count=876 40551 19488 20706 405 8910 11859 405
internal_value=1.10126e-06 -0.000861761 -0.00117101 0.000909528 0.00098337 0.000115911 -0.00314163
internal_weight=103200 52929 40194 50271 49461 12735 810
internal_count=103200 52929 40194 50271 49461 12735 810
is_linear=0
shrinkage=0.054


Tree=16
num_leaves=5
num_cat=0
split_feature=0 0 0 0
split_gain=10.6811 7.67124 13.512 9.85025
threshold=3.6914038435155248 -0.10846427440588702 -1.5184129163717992 0.051030943498545152
decision_type=2 2 2 2
left_child=1 2 -1 -3
right_child=-2 3 -4 -5
leaf_value=-0.0018531454272691995 0.0057744495116259708 -0.0019070698043953446 0.00084848477682156122 -0.00011809733938986179
leaf_weight=6150 806 11017 38882 46345
leaf_count=6150 806 11017 38882 46345
internal_value=8.58424e-07 -5.12686e-05 0.00047552 -0.000465
internal_weight=103200 102394 45032 57362
internal_count=103200 102394 45032 57362
is_linear=0
shrinkage=0.054


Tree=17
num_leaves=8
num_cat=0
split_feature=1 1 1 1 1 1 1
split_gain=24.9595 5.59881 7.3819 4.17469 4.77647 2.49671 1.30282
threshold=0.72070199502292365 4.3756325762540973 2.800497178413476 0.065489305646573667 0.30922075404814597 0.032723166876166714 6.4419461776887994
decision_type=2 2 2 2 2 2 2
left_child=3 2 -2 5 -5 -1 -3
right_child=1 6 -4 4 -6 -7 -8
leaf_value=-0.00051175072081025008 0.00082406361613954811 -0.0005228223428089771 0.0029064901530550346 -0.001446892743829231 -0.00039739577423909757 0.0014366131918111754 -0.0030087613465411651
leaf_weight=3803 36488 2025 5670 24766 25984 3654 810
leaf_count=3803 36488 2025 5670 24766 25984 3654 810
internal_value=9.8127e-07 0.000954793 0.00111166 -0.0007367 -0.000911808 0.000450242 -0.00132734
internal_weight=103200 44993 42158 58207 50750 7457 2835
internal_count=103200 44993 42158 58207 50750 7457 2835
is_linear=0
shrinkage=0.054


end of trees

feature_importances:
gp_factor_1=63
gp_factor_0=36

parameters:
[boosting: gbdt]
[objective: regression]
[metric: rmse]
[tree_learner: serial]
[device_type: cpu]
[data_sample_strategy: bagging]
[data: ]
[valid: ]
[num_iterations: 500]
[learning_rate: 0.054]
[num_leaves: 32]
[num_threads: 0]
[seed: 0]
[deterministic: 0]
[force_col_wise: 0]
[force_row_wise: 0]
[histogram_pool_size: -1]
[max_depth: 3]
[min_data_in_leaf: 50]
[min_sum_hessian_in_leaf: 0.001]
[bagging_fraction: 0.5]
[pos_bagging_fraction: 1]
[neg_bagging_fraction: 1]
[bagging_freq: 0]
[bagging_seed: 3]
[bagging_by_query: 0]
[feature_fraction: 0.5]
[feature_fraction_bynode: 1]
[feature_fraction_seed: 2]
[extra_trees: 0]
[extra_seed: 6]
[early_stopping_round: 0]
[early_stopping_min_delta: 0]
[first_metric_only: 0]
[max_delta_step: 0]
[lambda_l1: 0.05]
[lambda_l2: 120]
[linear_lambda: 0]
[min_gain_to_split: 0]
[drop_rate: 0.1]
[max_drop: 50]
[skip_drop: 0.5]
[xgboost_dart_mode: 0]
[uniform_drop: 0]
[drop_seed: 4]
[top_rate: 0.2]
[other_rate: 0.1]
[min_data_per_group: 100]
[max_cat_threshold: 32]
[cat_l2: 10]
[cat_smooth: 10]
[max_cat_to_onehot: 4]
[top_k: 20]
[monotone_constraints: ]
[monotone_constraints_method: basic]
[monotone_penalty: 0]
[feature_contri: ]
[forcedsplits_filename: ]
[refit_decay_rate: 0.9]
[cegb_tradeoff: 1]
[cegb_penalty_split: 0]
[cegb_penalty_feature_lazy: ]
[cegb_penalty_feature_coupled: ]
[path_smooth: 0]
[interaction_constraints: ]
[verbosity: -1]
[saved_feature_importance_type: 0]
[use_quantized_grad: 0]
[num_grad_quant_bins: 4]
[quant_train_renew_leaf: 0]
[stochastic_rounding: 1]
[linear_tree: 0]
[max_bin: 255]
[max_bin_by_feature: ]
[min_data_in_bin: 3]
[bin_construct_sample_cnt: 200000]
[data_random_seed: 1]
[is_enable_sparse: 1]
[enable_bundle: 1]
[use_missing: 1]
[zero_as_missing: 0]
[feature_pre_filter: 1]
[pre_partition: 0]
[two_round: 0]
[header: 0]
[label_column: ]
[weight_column: ]
[group_column: ]
[ignore_column: ]
[categorical_feature: ]
[forcedbins_filename: ]
[precise_float_parser: 0]
[parser_config_file: ]
[objective_seed: 5]
[num_class: 1]
[is_unbalance: 0]
[scale_pos_weight: 1]
[sigmoid: 1]
[boost_from_average: 1]
[reg_sqrt: 0]
[alpha: 0.9]
[fair_c: 1]
[poisson_max_delta_step: 0.7]
[tweedie_variance_power: 1.5]
[lambdarank_truncation_level: 30]
[lambdarank_norm: 1]
[label_gain: ]
[lambdarank_position_bias_regularization: 0]
[eval_at: ]
[multi_error_top_k: 1]
[auc_mu_weights: ]
[num_machines: 1]
[local_listen_port: 12400]
[time_out: 120]
[machine_list_filename: ]
[machines: ]
[gpu_platform_id: -1]
[gpu_device_id: -1]
[gpu_use_dp: 0]
[num_gpu: 1]

end of parameters

pandas_categorical:[]
