tree
version=v4
num_class=1
num_tree_per_iteration=1
label_index=0
max_feature_idx=3
objective=regression
feature_names=gp_factor_0 gp_factor_1 gp_factor_2 gp_factor_3
feature_infos=[-4.3643578047198481:4.0503641779394597] [-15.590469706210133:20.604802579657918] [-7.0864106833952851:6.755963261226297] [-10.577555895880691:16.16543600902467]
tree_sizes=794 901 795 886 899 813 916 886 908 888 900 797 883 909 915 916 885 907 916 897 889 898 905 907 798 914 623 889 625 799 910 891 906 887 889 906 890 882 906 795 891 899 889 910 914 897 915 916 792 898

Tree=0
num_leaves=7
num_cat=0
split_feature=0 2 2 2 2 0
split_gain=39.9281 31.8482 29.236 29.1558 11.1129 1.38334
threshold=-2.2657132272521521 -2.5803583170257234 4.0217887555766652 -0.15149595389054138 0.007267161841872774 0.37519391683283937
decision_type=2 2 2 2 2 2
left_child=1 -1 3 -2 -3 -4
right_child=2 4 5 -5 -6 -7
leaf_value=-0.025034002717232554 0.00032371982377803416 -0.0030040502161215068 0.00041935453518880932 -0.0015311277233517459 -0.015841708614263171 0.013033526723456363
leaf_weight=183 42534 1328 54 58625 125 351
leaf_count=183 42534 1328 54 58625 125 351
internal_value=-0.00082416 -0.00889749 -0.000684739 -0.000750817 -0.00517157 0.0120254
internal_weight=103200 1636 101564 101159 1453 405
internal_count=103200 1636 101564 101159 1453 405
is_linear=0
shrinkage=1


Tree=1
num_leaves=8
num_cat=0
split_feature=0 1 1 0 0 1 1
split_gain=37.7389 44.061 28.9442 28.0036 24.95 9.87565 9.38009
threshold=-2.1710185118257992 0.49504008493408341 -0.027925037990562222 0.081831841336077807 -0.16079561396623357 0.89976383597671805 0.0016371833094468164
decision_type=2 2 2 2 2 2 2
left_child=1 6 3 -2 -4 -3 -1
right_child=2 5 4 -5 -6 -7 -8
leaf_value=-0.013340065063300788 -0.0020657500633380083 0.012725657721233935 -0.00046253384521613829 0.00056552771075870365 0.0019307958473048126 -0.0025552827215462918 -0.0052125879965130789
leaf_weight=977 24634 266 20457 22447 33208 130 1081
leaf_count=977 24634 266 20457 22447 33208 130 1081
internal_value=-1.5979e-06 -0.00645835 0.000163147 -0.000812919 0.00101942 0.00827632 -0.00959461
internal_weight=103200 2454 100746 47081 53665 396 2058
internal_count=103200 2454 100746 47081 53665 396 2058
is_linear=0
shrinkage=0.054


Tree=2
num_leaves=7
num_cat=0
split_feature=0 2 2 2 2 0
split_gain=34.0696 30.1711 26.7831 27.1343 10.6989 1.24909
threshold=-2.2657132272521521 -2.5803583170257234 4.0217887555766652 -0.10235603741415529 0.007267161841872774 0.37519391683283937
decision_type=2 2 2 2 2 2
left_child=1 -1 3 -2 -3 -4
right_child=2 4 5 -5 -6 -7
leaf_value=-0.023132288370266704 0.0010430762934522538 -0.0017810517158000799 0.0012004856293571407 -0.00073310313634204153 -0.014308845728511106 0.013252064638275203
leaf_weight=183 45353 1328 54 55806 125 351
leaf_count=183 45353 1328 54 55806 125 351
internal_value=-2.0405e-06 -0.00745963 0.000126722 6.34839e-05 -0.00386989 0.012292
internal_weight=103200 1636 101564 101159 1453 405
internal_count=103200 1636 101564 101159 1453 405
is_linear=0
shrinkage=0.054


Tree=3
num_leaves=8
num_cat=0
split_feature=3 0 0 3 3 0 0
split_gain=42.8589 34.1549 26.6025 16.0029 9.80985 9.37105 5.59207
threshold=1.0698128986569195 -2.2657132272521521 0.48771809585069564 -1.5092862118970067 4.2786813779922612 0.35884350911093349 -0.082921804246019429
decision_type=2 2 2 2 2 2 2
left_child=1 3 -3 -1 5 -2 -6
right_child=4 2 -4 -5 6 -7 -8
leaf_value=0.0079902654505629635 0.0038284852950022652 -0.00071386613949672598 0.0014326776918496739 -0.009478750011750801 0.0012786140412995616 -0.00067800622518396684 0.011490508437210603
leaf_weight=79 6386 70881 21950 1446 247 1654 557
leaf_count=79 6386 70881 21950 1446 247 1654 557
internal_value=-3.46404e-06 -0.000342065 -0.00020509 -0.00805529 0.00356497 0.00290474 0.00892968
internal_weight=103200 94356 92831 1525 8844 8040 804
internal_count=103200 94356 92831 1525 8844 8040 804
is_linear=0
shrinkage=0.054


Tree=4
num_leaves=8
num_cat=0
split_feature=0 2 2 0 0 2 2
split_gain=30.4989 72.4465 26.8653 26.7291 19.269 28.9931 8.63087
threshold=-0.17109126936061267 -0.1589536612197818 4.0217887555766652 0.86464220420401483 -2.2657132272521521 -2.5803583170257234 0.17937289324128944
decision_type=2 2 2 2 2 2 2
left_child=4 3 -3 -2 5 -1 -6
right_child=1 2 -4 -5 6 -7 -8
leaf_value=-0.022138683233100292 0.0027919421968429698 -0.00053004612821782714 0.011751261186718941 0.009277262353840984 -0.0013113730348747296 -0.0033390893030205938 0.0013814935465731094
leaf_weight=183 16205 49467 405 2017 29641 1453 3829
leaf_count=183 16205 49467 405 2017 29641 1453 3829
internal_value=-2.32271e-06 0.000663979 -0.00040229 0.00356595 -0.00129266 -0.0068127 -0.000999391
internal_weight=103200 68094 49872 18222 35106 1636 33470
internal_count=103200 68094 49872 18222 35106 1636 33470
is_linear=0
shrinkage=0.054


Tree=5
num_leaves=7
num_cat=0
split_feature=0 2 2 0 2 2
split_gain=27.5461 40.3397 23.0378 55.2507 26.5109 11.1102
threshold=-2.1254780671206999 -2.5803583170257234 -0.15149595389054138 -0.17109126936061267 1.8669418463538949 0.051791107929643851
decision_type=2 2 2 2 2 2
left_child=1 -1 3 -2 -4 -3
right_child=2 5 4 -5 -6 -7
leaf_value=-0.021036179734820887 -0.00064162798462112668 -0.0011768357117612606 -0.00085132497494573741 0.0033139861610258165 0.0036156958475354853 -0.012028393570184473
leaf_weight=284 23032 2382 54801 18454 4050 197
leaf_count=284 23032 2382 54801 18454 4050 197
internal_value=-2.32888e-06 -0.00511614 0.000149498 0.00112235 -0.000537136 -0.00250468
internal_weight=103200 2863 100337 41486 58851 2579
internal_count=103200 2863 100337 41486 58851 2579
is_linear=0
shrinkage=0.054


Tree=6
num_leaves=8
num_cat=0
split_feature=1 1 1 2 2 1 1
split_gain=28.4717 13.0771 34.3531 15.2991 11.0173 44.8044 31.6384
threshold=-0.027925037990562222 0.029171402582501563 0.064603580080727266 2.2034769994436445 -0.17288809076156589 -0.093424230693935448 -0.53638085041663719
decision_type=2 2 2 2 2 2 2
left_child=4 3 -3 -2 5 -1 -6
right_child=1 2 -4 -5 6 -7 -8
leaf_value=0.0018992834235011355 0.0019041342115225293 -0.0033362401623470727 0.0010098013016940942 0.0099034789261241048 -0.0049037569019666077 -0.0053324651689405601 -0.00069226925209503617
leaf_weight=11112 10739 6045 37882 638 6319 3093 27372
leaf_count=11112 10739 6045 37882 638 6319 3093 27372
internal_value=-4.01217e-06 0.00082984 0.000404201 0.00245164 -0.000966559 0.000292973 -0.00149685
internal_weight=103200 55304 43927 11377 47896 14205 33691
internal_count=103200 55304 43927 11377 47896 14205 33691
is_linear=0
shrinkage=0.054


Tree=7
num_leaves=8
num_cat=0
split_feature=3 0 0 3 3 0 0
split_gain=38.4851 26.9296 21.5803 12.5377 9.41429 10.6624 9.15932
threshold=1.0698128986569195 -2.1254780671206999 0.63414557065937094 -2.5073049166878341 5.6338591696706377 0.35884350911093349 0.086073005236218567
decision_type=2 2 2 2 2 2 2
left_child=1 3 -3 -1 5 -2 -6
right_child=4 2 -4 -5 6 -7 -8
leaf_value=0.0095621515449969205 0.0038471639707966352 -0.00059432207341861287 0.0014310281881695307 -0.0062677854058911268 0.0024388545753264591 -0.00086291580114141397 0.018123726190944236
leaf_weight=50 6730 72363 19340 2603 271 1712 131
leaf_count=50 6730 72363 19340 2603 271 1712 131
internal_value=-3.76591e-06 -0.000324626 -0.000165838 -0.00556759 0.00337768 0.00289296 0.0105466
internal_weight=103200 94356 91703 2653 8844 8442 402
internal_count=103200 94356 91703 2653 8844 8442 402
is_linear=0
shrinkage=0.054


Tree=8
num_leaves=8
num_cat=0
split_feature=0 2 0 2 0 2 0
split_gain=23.9461 56.3836 25.2191 23.512 15.4584 25.1555 7.78907
threshold=-0.17109126936061267 -0.14380454649472066 0.86464220420401483 4.0217887555766652 -2.3258125239796983 -2.5803583170257234 -0.57094340920283582
decision_type=2 2 2 2 2 2 2
left_child=4 2 -2 -3 5 -1 -6
right_child=1 3 -4 -5 6 -7 -8
leaf_value=-0.021882168943077242 0.0023643686889906761 -0.00048874821345751274 0.0085583147212346753 0.011001053178049093 -0.00024759226035901493 -0.0028376495160712884 -0.0019182121786879423
leaf_weight=144 16595 49010 2084 405 20415 1083 13464
leaf_count=144 16595 49010 2084 405 20415 1083 13464
internal_value=-1.82235e-06 0.000588574 0.00310578 -0.000368102 -0.00114518 -0.00682501 -0.000916027
internal_weight=103200 68094 18679 49415 35106 1227 33879
internal_count=103200 68094 18679 49415 35106 1227 33879
is_linear=0
shrinkage=0.054


Tree=9
num_leaves=8
num_cat=0
split_feature=3 0 0 0 3 0 0
split_gain=34.7352 23.3619 18.3748 9.97599 9.08108 9.67998 8.67921
threshold=1.0698128986569195 0.065501326389098932 -2.2657132272521521 2.4188125087761425 5.6338591696706377 0.35884350911093349 0.086073005236218567
decision_type=2 2 2 2 2 2 2
left_child=1 2 -1 -3 5 -2 -6
right_child=4 3 -4 -5 6 -7 -8
leaf_value=-0.0066715728438180221 0.0036456529673525597 0.00053821134505422274 -0.00086766601123547166 0.0063335207827221246 0.0023581787517508658 -0.00084114256635339194 0.017616246726761656
leaf_weight=1525 6730 40032 52032 767 271 1712 131
leaf_count=1525 6730 40032 52032 767 271 1712 131
internal_value=-2.06722e-06 -0.000306898 -0.00104752 0.00066548 0.00321042 0.0027364 0.0102422
internal_weight=103200 94356 53557 40799 8844 8442 402
internal_count=103200 94356 53557 40799 8844 8442 402
is_linear=0
shrinkage=0.054


Tree=10
num_leaves=8
num_cat=0
split_feature=0 2 2 0 0 2 2
split_gain=19.9948 51.2175 21.4302 21.0281 13.1348 24.34 7.1283
threshold=-0.17109126936061267 -0.1589536612197818 4.0217887555766652 0.86464220420401483 -2.3258125239796983 -2.5803583170257234 0.17937289324128944
decision_type=2 2 2 2 2 2 2
left_child=4 3 -3 -2 5 -1 -6
right_child=1 2 -4 -5 6 -7 -8
leaf_value=-0.02106434509873983 0.0022943307267002336 -0.00047167459027587115 0.010497162037822552 0.0080404485181458669 -0.0011151466514957534 -0.0024077912180048141 0.0013231068624627764
leaf_weight=144 16205 49467 405 2017 30027 1083 3852
leaf_count=144 16205 49467 405 2017 30027 1083 3852
internal_value=-5.64613e-07 0.000538924 -0.000357562 0.00297896 -0.00104534 -0.00628082 -0.000834149
internal_weight=103200 68094 49872 18222 35106 1227 33879
internal_count=103200 68094 49872 18222 35106 1227 33879
is_linear=0
shrinkage=0.054


Tree=11
num_leaves=7
num_cat=0
split_feature=0 2 2 2 2 0
split_gain=18.6272 35.1652 17.8665 19.7467 10.9247 2.31166
threshold=-2.1254780671206999 -2.5803583170257234 4.0217887555766652 -0.10235603741415529 0.051791107929643851 1.6986100605359606
decision_type=2 2 2 2 2 2
left_child=1 -1 3 -2 -3 -4
right_child=2 4 5 -5 -6 -7
leaf_value=-0.019049443570029512 0.00092143005759043426 -0.00051499592715464134 0.0032017824456121173 -0.00060477065315325189 -0.011219032989087595 0.013371363110136524
leaf_weight=284 44284 2382 209 55648 197 196
leaf_count=284 44284 2382 209 55648 197 196
internal_value=-7.14874e-07 -0.00420594 0.00012413 7.1819e-05 -0.00179609 0.0100599
internal_weight=103200 2863 100337 99932 2579 405
internal_count=103200 2863 100337 99932 2579 405
is_linear=0
shrinkage=0.054


Tree=12
num_leaves=8
num_cat=0
split_feature=3 2 2 2 2 2 3
split_gain=31.374 24.1183 18.5471 13.6833 13.9138 8.02799 4.8163
threshold=1.0698128986569195 4.0217887555766652 -0.088696810063155704 -0.63701532229246605 -0.081221778978047693 -1.0310271088285152 -0.16101265586938765
decision_type=2 2 2 2 2 2 2
left_child=1 2 -1 5 -5 -2 -3
right_child=3 6 -4 4 -6 -7 -8
leaf_value=0.00045920233253349111 0.003076457499859026 0.0012874688723700173 -0.0010595383646380368 -0.0015352052062590621 0.0035245269908032507 0.01099985901179678 0.015170865130355118
leaf_weight=43813 861 123 50191 2215 4986 782 229
leaf_count=43813 861 123 50191 2215 4986 782 229
internal_value=-1.54765e-06 -0.000291256 -0.000351978 0.00305155 0.00196815 0.00734122 0.011886
internal_weight=103200 94356 94004 8844 7201 1643 352
internal_count=103200 94356 94004 8844 7201 1643 352
is_linear=0
shrinkage=0.054


Tree=13
num_leaves=8
num_cat=0
split_feature=1 0 0 0 0 1 1
split_gain=25.154 27.1521 21.5696 18.1576 11.9427 11.9262 5.82492
threshold=-0.027925037990562222 0.081831841336077807 -2.3258125239796983 -0.19456097030614122 2.1758763457755852 0.35098748736966623 0.57447477457904361
decision_type=2 2 2 2 2 2 2
left_child=1 2 -1 6 -3 -5 -2
right_child=3 4 -4 5 -6 -7 -8
leaf_value=-0.01303051539507088 -0.0010519084933485042 0.00014388700538145861 -0.001871744432757214 0.00089470726598728202 0.0053000154571109714 0.0031085108975951107 0.00093918483561059095
leaf_weight=400 14762 21170 25049 24699 1277 9934 5909
leaf_count=400 14762 21170 25049 24699 1277 9934 5909
internal_value=4.92873e-07 -0.000904191 -0.00210757 0.000784304 0.00046396 0.00153832 -0.00048047
internal_weight=103200 47896 25449 55304 22447 34633 20671
internal_count=103200 47896 25449 55304 22447 34633 20671
is_linear=0
shrinkage=0.054


Tree=14
num_leaves=8
num_cat=0
split_feature=1 1 1 2 2 1 1
split_gain=22.5595 12.8194 29.5086 12.7717 8.27156 37.4549 27.3972
threshold=-0.027925037990562222 0.029171402582501563 0.064603580080727266 2.2034769994436445 -0.17288809076156589 -0.093424230693935448 -0.53638085041663719
decision_type=2 2 2 2 2 2 2
left_child=4 3 -3 -2 5 -1 -6
right_child=1 2 -4 -5 6 -7 -8
leaf_value=0.0017037733887806114 0.001846240688765953 -0.0031452054943133783 0.00088265073713016421 0.0091608617913310885 -0.0044862285225173897 -0.0049082359794103206 -0.00056778053134471501
leaf_weight=11112 10739 6045 37882 638 6319 3093 27372
leaf_count=11112 10739 6045 37882 638 6319 3093 27372
internal_value=1.18418e-07 0.000742409 0.000321239 0.002348 -0.000856638 0.000234829 -0.00131611
internal_weight=103200 55304 43927 11377 47896 14205 33691
internal_count=103200 55304 43927 11377 47896 14205 33691
is_linear=0
shrinkage=0.054


Tree=15
num_leaves=8
num_cat=0
split_feature=1 0 0 0 1 1 0
split_gain=20.2461 24.3928 17.8601 16.4541 12.9502 12.9302 6.78331
threshold=-0.027925037990562222 -2.080052979155258 0.081831841336077807 -0.33292665648795744 0.029171402582501563 -0.10438025319234555 -0.52904210333370849
decision_type=2 2 2 2 2 2 2
left_child=1 5 -3 6 -5 -1 -2
right_child=3 2 -4 4 -6 -7 -8
leaf_value=-0.0026896118171721743 -0.00018114843318392361 -0.0016245119553748469 0.00048184623357119068 0.0030916845787700457 0.00076290592981273823 -0.014673039693449047 -0.0029674958809398568
leaf_weight=641 14046 24384 22447 9083 29177 424 2998
leaf_count=641 14046 24384 22447 9083 29177 424 2998
internal_value=1.41136e-07 -0.000811497 -0.000616185 0.000703344 0.00132377 -0.00846551 -0.000688738
internal_weight=103200 47896 46831 55304 38260 1065 17044
internal_count=103200 47896 46831 55304 38260 1065 17044
is_linear=0
shrinkage=0.054


Tree=16
num_leaves=8
num_cat=0
split_feature=3 2 2 2 2 2 3
split_gain=28.3155 21.913 16.7524 12.6463 12.4544 7.09401 4.58369
threshold=1.0698128986569195 4.0217887555766652 -0.088696810063155704 -0.63701532229246605 -0.081221778978047693 -1.0310271088285152 -0.16101265586938765
decision_type=2 2 2 2 2 2 2
left_child=1 2 -1 5 -5 -2 -3
right_child=3 6 -4 4 -6 -7 -8
leaf_value=0.00043688807856797669 0.0029925831323953074 0.001133656364125717 -0.0010065022072320339 -0.0014556289186542187 0.0033312634101214638 0.010468349948161612 0.014527366457318083
leaf_weight=43813 861 123 50191 2215 4986 782 229
leaf_count=43813 861 123 50191 2215 4986 782 229
internal_value=-9.34824e-07 -0.000276162 -0.000334045 0.00289953 0.00185874 0.00702262 0.011331
internal_weight=103200 94356 94004 8844 7201 1643 352
internal_count=103200 94356 94004 8844 7201 1643 352
is_linear=0
shrinkage=0.054


Tree=17
num_leaves=8
num_cat=0
split_feature=1 0 0 0 0 1 1
split_gain=17.8076 23.4359 17.9928 15.3345 13.6441 6.42537 5.21423
threshold=-0.027925037990562222 -2.3258125239796983 0.081831841336077807 -0.16079561396623357 -0.070490787022134613 0.57447477457904361 -0.55621548749802874
decision_type=2 2 2 2 2 2 2
left_child=1 6 -3 5 -5 -2 -1
right_child=3 2 -4 4 -6 -7 -8
leaf_value=0.00012207826760621734 -0.0010209253076723902 -0.0016252793323900938 0.00047550234087497797 0.0041079228594529714 0.0009471840112183097 0.0010029339278756187 -0.014506339237444927
leaf_weight=82 15785 25049 22447 4534 28674 6311 318
leaf_count=82 15785 25049 22447 4534 28674 6311 318
internal_value=9.78799e-07 -0.000760213 -0.00063368 0.000660476 0.00139205 -0.00044046 -0.0121662
internal_weight=103200 47896 47496 55304 33208 22096 400
internal_count=103200 47896 47496 55304 33208 22096 400
is_linear=0
shrinkage=0.054


Tree=18
num_leaves=8
num_cat=0
split_feature=1 1 1 2 2 1 1
split_gain=16.0001 10.5105 26.3334 11.4963 7.93792 32.3982 24.2683
threshold=-0.027925037990562222 0.029171402582501563 0.064603580080727266 2.2034769994436445 -0.17288809076156589 -0.093424230693935448 -0.62460195524087114
decision_type=2 2 2 2 2 2 2
left_child=4 3 -3 -2 5 -1 -6
right_child=1 2 -4 -5 6 -7 -8
leaf_value=0.0017123744420331343 0.0016051332417412066 -0.0030302119922829981 0.00077468362145013112 0.0085371748246365967 -0.0045128868691681296 -0.004437377637864664 -0.0005423513853028962
leaf_weight=11112 10739 6045 37882 638 5220 3093 28471
leaf_count=11112 10739 6045 37882 638 5220 3093 28471
internal_value=2.69081e-07 0.000625402 0.000244184 0.00207915 -0.000721255 0.000347183 -0.00117145
internal_weight=103200 55304 43927 11377 47896 14205 33691
internal_count=103200 55304 43927 11377 47896 14205 33691
is_linear=0
shrinkage=0.054


Tree=19
num_leaves=8
num_cat=0
split_feature=3 0 3 3 3 0 0
split_gain=25.5249 17.5092 23.3757 17.0129 8.75392 10.02 8.33429
threshold=1.0698128986569195 0.48771809585069564 -0.12942884268263255 -0.071391425837913206 5.6338591696706377 0.12161250014773943 0.086073005236218567
decision_type=2 2 2 2 2 2 2
left_child=1 2 -1 -3 5 -2 -6
right_child=4 3 -4 -5 6 -7 -8
leaf_value=-0.0017661687394625555 0.0035952417047003878 0.0025471283135339042 0.00018772464285434344 -0.00044742521002653061 0.0020452907736980071 -0.00031768226161561536 0.016823913477002031
leaf_weight=31582 5610 11091 40824 10859 271 2832 131
leaf_count=31582 5610 11091 40824 10859 271 2832 131
internal_value=2.5976e-07 -0.000261004 -0.000665998 0.00107118 0.00275414 0.00229622 0.00962684
internal_weight=103200 94356 72406 21950 8844 8442 402
internal_count=103200 94356 72406 21950 8844 8442 402
is_linear=0
shrinkage=0.054


Tree=20
num_leaves=8
num_cat=0
split_feature=1 2 2 1 1 1 1
split_gain=15.1474 17.2475 16.1837 7.82494 7.72214 7.36433 6.64619
threshold=0.35098748736966623 -1.133399209592336 1.8669418463538949 -5.5585970987012896 1.2581099800948452 2.2150668216527123 -0.19860268095754077
decision_type=2 2 2 2 2 2 2
left_child=2 5 3 -1 -3 -2 -4
right_child=1 4 6 -5 -6 -7 -8
leaf_value=-0.0070264743318551939 -0.0028922647267295475 0.0027791563574758025 0.01016602814010013 -0.00043884042520652962 9.596545990288843e-05 0.0060861037677272314 0.0022336498745893674
leaf_weight=410 3040 11880 234 79415 4245 179 3797
leaf_count=410 3040 11880 234 79415 4245 179 3797
internal_value=1.66889e-06 0.001359 -0.000312905 -0.000483206 0.00207888 -0.00219141 0.00297535
internal_weight=103200 19344 83856 79825 16125 3219 4031
internal_count=103200 19344 83856 79825 16125 3219 4031
is_linear=0
shrinkage=0.054


Tree=21
num_leaves=8
num_cat=0
split_feature=0 1 0 1 1 1 0
split_gain=14.7184 14.2139 22.3086 15.868 10.3941 19.3527 18.1584
threshold=-1.2374692510414074 -0.13950724510468901 1.8920597093103058 -0.12981122558057337 0.4108243163193932 1.3444328062266793 -2.080052979155258
decision_type=2 2 2 2 2 2 2
left_child=4 2 -2 -3 6 -6 -1
right_child=1 3 -4 -5 5 -7 -8
leaf_value=-0.0063650290207257869 -0.0011489715799965039 0.006771070884960601 0.0057095281965178256 0.00056136695659979102 0.0031811404170272927 -0.0069521868794436385 -0.0010958639452147791
leaf_weight=2587 25970 1105 1342 62525 2395 585 6691
leaf_count=2587 25970 1105 1342 62525 2395 585 6691
internal_value=2.27033e-06 0.000239779 -0.000788373 0.00068179 -0.00174483 0.000998896 -0.00262787
internal_weight=103200 90942 27312 63630 12258 2980 9278
internal_count=103200 90942 27312 63630 12258 2980 9278
is_linear=0
shrinkage=0.054


Tree=22
num_leaves=8
num_cat=0
split_feature=0 2 0 2 2 2 0
split_gain=13.4667 25.4874 29.9766 13.2445 11.708 16.7668 6.77922
threshold=0.065501326389098932 -0.059462643880609893 0.86464220420401483 4.0217887555766652 1.0485663219698453 -0.095622964505058528 0.034203037457613585
decision_type=2 2 2 2 2 2 2
left_child=4 2 -2 -3 5 -1 -6
right_child=1 3 -4 -5 6 -7 -8
leaf_value=-6.0819509546088491e-06 0.0012894181054080263 -0.00010052451635527076 0.0080475461347784202 0.0085412379168633909 0.005941662227340487 -0.0019641074946986294 -0.0022708546706112897
leaf_weight=38313 7049 34467 2540 405 1115 18998 313
leaf_count=38313 7049 34467 2540 405 1115 18998 313
internal_value=2.18774e-06 0.000710175 0.00315717 2.87097e-05 -0.000534015 -0.000657942 0.00410334
internal_weight=103200 44461 9589 34872 58739 57311 1428
internal_count=103200 44461 9589 34872 58739 57311 1428
is_linear=0
shrinkage=0.054


Tree=23
num_leaves=8
num_cat=0
split_feature=0 1 0 1 1 1 1
split_gain=13.0243 12.7091 19.8272 14.3891 9.44154 21.3123 9.65506
threshold=-1.2374692510414074 -0.13950724510468901 2.1329804973791417 -0.12981122558057337 -0.041553459326660325 -0.10438025319234555 1.3444328062266793
decision_type=2 2 2 2 2 2 2
left_child=4 2 -2 -3 5 -1 -6
right_child=1 3 -4 -5 6 -7 -8
leaf_value=-0.0012018097625181266 -0.00099087653424607632 0.0064432145858770423 0.0077100291374475275 0.00053000605933363433 -2.6221816257987778e-05 -0.0098225961282346393 -0.006629598714009601
leaf_weight=2899 26645 1105 667 62525 7694 1080 585
leaf_count=2899 26645 1105 667 62525 7694 1080 585
internal_value=3.28984e-06 0.000226712 -0.000745491 0.000644672 -0.00164019 -0.00376142 -0.000581196
internal_weight=103200 90942 27312 63630 12258 3979 8279
internal_count=103200 90942 27312 63630 12258 3979 8279
is_linear=0
shrinkage=0.054


Tree=24
num_leaves=7
num_cat=0
split_feature=0 2 2 2 2 0
split_gain=12.1026 22.3403 11.7625 12.0369 10.4664 2.99803
threshold=-2.2657132272521521 -2.5803583170257234 4.0217887555766652 -0.10235603741415529 0.007267161841872774 1.6986100605359606
decision_type=2 2 2 2 2 2
left_child=1 -1 3 -2 -3 -4
right_child=2 4 5 -5 -6 -7
leaf_value=-0.017811678268111284 0.00069018426130896681 0.00033423908808276966 0.0018569205674284072 -0.00049281388504937649 -0.011783964086153677 0.011584595492791056
leaf_weight=183 45353 1328 209 55806 125 196
leaf_count=183 45353 1328 209 55806 125 196
internal_value=2.85779e-06 -0.00444193 7.96389e-05 3.77269e-05 -0.001526 0.00814164
internal_weight=103200 1636 101564 101159 1453 405
internal_count=103200 1636 101564 101159 1453 405
is_linear=0
shrinkage=0.054


Tree=25
num_leaves=8
num_cat=0
split_feature=0 1 1 1 0 0 0
split_gain=11.9609 15.0388 18.8801 13.0822 19.2246 11.3714 8.50391
threshold=0.065501326389098932 -0.039855108863610759 -0.093424230693935448 0.35098748736966623 0.86464220420401483 -0.15089860362954585 0.16650638294850009
decision_type=2 2 2 2 2 2 2
left_child=1 2 -1 6 -5 -3 -2
right_child=3 5 -4 4 -6 -7 -8
leaf_value=-0.00081240723488875278 0.0019175869151377015 -0.0004895063370015327 -0.0047102565322685811 0.0012273461964771378 0.0092355409860534112 0.0015549326992904096 -3.6910024742358184e-05
leaf_weight=19197 8016 23290 4370 3268 1098 11882 32079
leaf_count=19197 8016 23290 4370 3268 1098 11882 32079
internal_value=1.72373e-06 -0.000503611 -0.0015555 0.000668959 0.0034351 0.00020402 0.000358332
internal_weight=103200 58739 23567 44461 4366 35172 40095
internal_count=103200 58739 23567 44461 4366 35172 40095
is_linear=0
shrinkage=0.054


Tree=26
num_leaves=5
num_cat=0
split_feature=2 1 2 1
split_gain=11.1994 11.7685 15.2467 7.2882
threshold=4.0217887555766652 0.35098748736966623 -1.133399209592336 -5.5585970987012896
decision_type=2 2 2 2
left_child=1 3 -3 -1
right_child=-2 2 -4 -5
leaf_value=-0.0066303135581186291 0.0078691069709051938 -0.0021782193353089923 0.0018351902663229695 -0.0002757538854341701
leaf_weight=410 405 3219 16125 83041
leaf_count=410 405 3219 16125 83041
internal_value=2.12386e-06 -3.79842e-05 0.00115788 -0.000316482
internal_weight=103200 102795 19344 83451
internal_count=103200 102795 19344 83451
is_linear=0
shrinkage=0.054


Tree=27
num_leaves=8
num_cat=0
split_feature=3 0 3 0 3 0 0
split_gain=23.1342 13.1039 12.8779 11.0559 8.40035 9.66578 7.81065
threshold=1.0698128986569195 -2.2657132272521521 -0.32893770108459514 0.63414557065937094 5.6338591696706377 0.12161250014773943 0.086073005236218567
decision_type=2 2 2 2 2 2 2
left_child=1 2 -1 -3 5 -2 -6
right_child=4 3 -4 -5 6 -7 -8
leaf_value=0.0033690134128481247 0.003452576373856318 -0.00046422332185552134 -0.0075230325395838696 0.0009831157837434123 0.0020002039110797753 -0.00038781924102825255 0.016320458381559953
leaf_weight=340 5610 73491 1185 19340 271 2832 131
leaf_count=340 5610 73491 1185 19340 271 2832 131
internal_value=2.04524e-06 -0.000246683 -0.00502438 -0.000161782 0.00262379 0.00217656 0.00935099
internal_weight=103200 94356 1525 92831 8844 8442 402
internal_count=103200 94356 1525 92831 8844 8442 402
is_linear=0
shrinkage=0.054


Tree=28
num_leaves=5
num_cat=0
split_feature=2 1 2 1
split_gain=10.2064 10.6868 13.6352 6.66226
threshold=4.0217887555766652 0.35098748736966623 -1.133399209592336 -5.5585970987012896
decision_type=2 2 2 2
left_child=1 3 -3 -1
right_child=-2 2 -4 -5
leaf_value=-0.0063372364641311315 0.0075131683774712892 -0.0020506686635901575 0.0017448226643841293 -0.00026169321585876577
leaf_weight=410 405 3219 16125 83041
leaf_count=410 405 3219 16125 83041
internal_value=3.04946e-06 -3.52392e-05 0.00110433 -0.000300632
internal_weight=103200 102795 19344 83451
internal_count=103200 102795 19344 83451
is_linear=0
shrinkage=0.054


Tree=29
num_leaves=7
num_cat=0
split_feature=0 2 2 2 0 2
split_gain=10.4871 33.3112 20.9 13.5397 6.82581 5.29633
threshold=-1.2374692510414074 -2.833096029144524 -3.2522753794281125 -0.088696810063155704 -1.6885340674228679 0.58555362419589885
decision_type=2 2 2 2 2 2
left_child=1 4 -2 -4 -1 -3
right_child=2 5 3 -5 -6 -7
leaf_value=-0.01587406695973825 0.010977849764041682 -0.00096276816508867214 0.0009326125801816308 -0.0004084557124697818 -0.0023394405426304271 0.005473314016511621
leaf_weight=417 402 11378 37068 53472 196 267
leaf_count=417 402 11378 37068 53472 196 267
internal_value=2.92008e-06 -0.00147181 0.000203405 0.000141069 -0.0126417 -0.000760649
internal_weight=103200 12258 90942 90540 613 11645
internal_count=103200 12258 90942 90540 613 11645
is_linear=0
shrinkage=0.054


Tree=30
num_leaves=8
num_cat=0
split_feature=3 2 2 2 2 2 3
split_gain=21.6668 16.6207 24.1971 17.7833 12.3865 25.7201 13.0242
threshold=0.38470981637057794 -0.095622964505058528 -0.5075815418779791 0.12555562429541769 -0.62508932147083762 -0.037727735860883786 0.8870140808164888
decision_type=2 2 2 2 2 2 2
left_child=1 2 -1 -3 6 -6 -2
right_child=4 3 -4 -5 5 -7 -8
leaf_value=-0.00077844520905360603 0.0010526551618878842 -0.003142030004055019 0.0019696383379523377 -0.0005306603573728638 -0.002064658345186667 0.0023129630441283667 0.0069226739702664729
leaf_weight=21185 2242 9698 16529 34060 5776 11558 2152
leaf_count=21185 2242 9698 16529 34060 5776 11558 2152
internal_value=2.62152e-06 -0.000401772 0.000428319 -0.00111648 0.00151295 0.00084994 0.00403575
internal_weight=103200 81472 37714 43758 21728 17334 4394
internal_count=103200 81472 37714 43758 21728 17334 4394
is_linear=0
shrinkage=0.054


Tree=31
num_leaves=8
num_cat=0
split_feature=3 0 3 0 3 0 0
split_gain=19.4466 16.3216 13.0466 12.1062 8.49006 7.99057 7.73333
threshold=0.38470981637057794 -1.2374692510414074 -0.41854999324617964 1.6602894986915289 4.2786813779922612 2.5401569200876399 2.4188125087761425
decision_type=2 2 2 2 2 2 2
left_child=1 2 -1 4 -2 -5 -3
right_child=3 6 -4 5 -6 -7 -8
leaf_value=-0.0058208752686000533 0.00087208299228137929 -0.00015491726185372845 -0.0012750901764372097 0.007677495613229445 0.0062678208406534881 -0.0059471087534002263 0.0051743070706909379
leaf_weight=2373 19802 70963 7453 1100 774 52 683
leaf_count=2373 19802 70963 7453 1100 774 52 683
internal_value=2.83872e-06 -0.000380275 -0.00243016 0.0014337 0.00111035 0.00655734 -9.55092e-05
internal_weight=103200 81472 9826 21728 20576 1152 71646
internal_count=103200 81472 9826 21728 20576 1152 71646
is_linear=0
shrinkage=0.054


Tree=32
num_leaves=8
num_cat=0
split_feature=0 2 2 2 2 2 0
split_gain=10.1319 20.0164 28.9313 10.5306 12.9333 9.34842 6.19861
threshold=0.065501326389098932 -0.059462643880609893 -0.7589134539232435 1.0485663219698453 -0.18060547283921116 4.0217887555766652 0.034203037457613585
decision_type=2 2 2 2 2 2 2
left_child=3 2 -2 4 -1 -3 -5
right_child=1 5 -4 6 -6 -7 -8
leaf_value=7.1218769785590788e-05 -0.0023415880257761203 -9.5189224261653559e-05 0.0044551590780723864 0.0056931057468959578 -0.0015881265798799074 0.0071651020833738152 -0.0021617388224586258
leaf_weight=34899 2343 34467 7246 1115 22412 405 313
leaf_count=34899 2343 34467 7246 1115 22412 405 313
internal_value=3.11009e-06 0.000617214 0.00278573 -0.000461986 -0.000579599 1.33364e-05 0.00393556
internal_weight=103200 44461 9589 58739 57311 34872 1428
internal_count=103200 44461 9589 58739 57311 34872 1428
is_linear=0
shrinkage=0.054


Tree=33
num_leaves=8
num_cat=0
split_feature=0 1 1 1 0 1 1
split_gain=9.2144 28.8965 9.15186 22.8155 17.5341 6.5753 5.38104
threshold=-2.3258125239796983 0.056589172369383163 -0.13950724510468901 -0.12981122558057337 2.0456546844777308 0.50811971157840163 -0.55621548749802874
decision_type=2 2 2 2 2 2 2
left_child=1 6 4 -4 -2 -3 -1
right_child=2 5 3 -5 -6 -7 -8
leaf_value=0.00062121514012981763 -0.00097611969184441402 -0.00034955727103483549 0.0073898781512383941 0.00025825814380203525 0.0062559907225358717 0.010114783623359108 -0.013147826896564293
leaf_weight=82 28796 426 1213 71071 893 168 551
leaf_count=82 28796 426 1213 71071 893 168 551
internal_value=3.64303e-06 -0.00443341 6.22071e-05 0.000390021 -0.00073419 0.00380882 -0.0115458
internal_weight=103200 1227 101973 72284 29689 594 633
internal_count=103200 1227 101973 72284 29689 594 633
is_linear=0
shrinkage=0.054


Tree=34
num_leaves=8
num_cat=0
split_feature=3 2 2 2 2 3 2
split_gain=17.8865 13.9064 10.8188 10.1732 16.4819 5.20174 3.59551
threshold=1.0698128986569195 4.0217887555766652 -0.088696810063155704 -0.49760191108386648 -0.27125662407679535 -0.16101265586938765 -1.0310271088285152
decision_type=2 2 2 2 2 2 2
left_child=1 2 -1 6 -5 -3 -2
right_child=3 5 -4 4 -6 -7 -8
leaf_value=0.00035877205292196665 0.0023717598544305551 -0.00025348872475119098 -0.00080115425539629243 -0.0052251115531802561 0.0022941421677784794 0.012399298807189008 0.0073514506425316614
leaf_weight=43813 861 123 50191 874 5903 229 1206
leaf_count=43813 861 123 50191 874 5903 229 1206
internal_value=4.08532e-06 -0.00021462 -0.000260744 0.00230938 0.00124999 0.0090319 0.00552237
internal_weight=103200 94356 94004 8844 6777 352 2067
internal_count=103200 94356 94004 8844 6777 352 2067
is_linear=0
shrinkage=0.054


Tree=35
num_leaves=8
num_cat=0
split_feature=0 2 2 2 2 0 0
split_gain=9.24501 17.4972 25.8924 9.5872 10.7929 8.70803 5.65173
threshold=0.065501326389098932 -0.051858161346651471 -0.74400163626772819 1.0485663219698453 -0.18060547283921116 0.1009868935530308 0.034203037457613585
decision_type=2 2 2 2 2 2 2
left_child=3 2 -2 4 -1 -3 -5
right_child=1 5 -4 6 -6 -7 -8
leaf_value=4.3119999188885729e-05 -0.002186807015190799 0.0029825822316509034 0.0041782661705066461 0.005434957331559972 -0.0014727716383664327 -0.00022347329922661397 -0.0020649906926734616
leaf_weight=34899 2400 2555 7330 1115 22412 32176 313
leaf_count=34899 2400 2555 7330 1115 22412 32176 313
internal_value=5.02616e-06 0.000591636 0.00260047 -0.000439249 -0.000551475 2.17616e-05 0.00375667
internal_weight=103200 44461 9730 58739 57311 34731 1428
internal_count=103200 44461 9730 58739 57311 34731 1428
is_linear=0
shrinkage=0.054


Tree=36
num_leaves=8
num_cat=0
split_feature=2 2 1 1 2 1 2
split_gain=8.41703 10.6597 12.9349 6.9021 6.83748 5.36744 0.689372
threshold=1.8669418463538949 0.81222529578977565 -0.18356498770795174 -0.19860268095754077 4.0217887555766652 0.049283706049213373 2.7204105896670487
decision_type=2 2 2 2 2 2 2
left_child=1 2 -1 6 -5 -3 -2
right_child=3 5 -4 4 -6 -7 -8
leaf_value=-0.00093913546516292859 0.010856440121873709 -0.00090137891835136142 0.00052958656174869939 0.00075788400155362941 0.0075052961071678725 -0.0034866526857042532 0.0011912055665887268
leaf_weight=24148 175 9502 62447 3427 389 3053 59
leaf_count=24148 175 9502 62447 3427 389 3053 59
internal_value=5.17298e-06 -9.4643e-05 0.000119253 0.00238187 0.00165425 -0.00155731 0.00965699
internal_weight=103200 99150 86595 4050 3816 12555 234
internal_count=103200 99150 86595 4050 3816 12555 234
is_linear=0
shrinkage=0.054


Tree=37
num_leaves=8
num_cat=0
split_feature=3 0 3 0 0 3 0
split_gain=16.441 14.5905 17.0437 10.709 9.57291 8.85652 8.04222
threshold=0.38470981637057794 -2.3258125239796983 -0.32893770108459514 1.7766739874741539 0.48771809585069564 4.2786813779922612 2.5401569200876399
decision_type=2 2 2 2 2 2 2
left_child=1 2 -1 5 -3 -2 -5
right_child=3 4 -4 6 -6 -7 -8
leaf_value=0.004114007748076692 0.00080045152795377552 -0.00059489279312242263 -0.010786188923027866 0.0078956218961835356 0.00078124429055948538 0.0062843000520888294 -0.0059095623287610533
leaf_weight=240 19985 61294 656 909 19282 782 52
leaf_count=240 19985 61294 656 909 19282 782 52
internal_value=5.86801e-06 -0.000346399 -0.00677789 0.00132151 -0.000264875 0.001042 0.00657303
internal_weight=103200 81472 896 21728 80576 20767 961
internal_count=103200 81472 896 21728 80576 20767 961
is_linear=0
shrinkage=0.054


Tree=38
num_leaves=8
num_cat=0
split_feature=0 2 0 0 2 0 2
split_gain=8.21976 25.5693 13.5838 13.1285 8.10487 13.6579 6.77485
threshold=-0.17109126936061267 -0.1589536612197818 1.0238616646806256 -0.036335900356951681 0.17937289324128944 -2.080052979155258 -2.3716057320484465
decision_type=2 2 2 2 2 2 2
left_child=4 2 -2 -3 6 -6 -1
right_child=1 3 -4 -5 5 -7 -8
leaf_value=-0.0041249582001058492 0.0015818045945809205 -0.0026813293437215201 0.0065884976057290238 3.7267209594934027e-05 -0.009965254283941672 0.0024101135701719732 -0.00075275469547890852
leaf_weight=1737 16571 5748 1651 44124 161 3752 29456
leaf_count=1737 16571 5748 1651 44124 161 3752 29456
internal_value=5.7147e-06 0.000351653 0.00207572 -0.000281695 -0.000664126 0.0016189 -0.000955712
internal_weight=103200 68094 18222 49872 35106 3913 31193
internal_count=103200 68094 18222 49872 35106 3913 31193
is_linear=0
shrinkage=0.054


Tree=39
num_leaves=7
num_cat=0
split_feature=0 2 2 2 0 2
split_gain=7.42023 26.2631 9.75369 8.70765 20.4614 7.93887
threshold=-2.1710185118257992 -2.5803583170257234 1.0000000180025095e-35 -3.2522753794281125 -1.4942777555155951 -2.833096029144524
decision_type=2 2 2 2 2 2
left_child=1 -1 -3 4 -2 -5
right_child=3 2 -4 5 -6 -7
leaf_value=-0.016217165764955722 -0.00570018155425787 0.00075370607171499932 -0.0093787150696673233 -0.0071237987970118998 0.01121142891678612 6.4780683682320148e-05
leaf_weight=248 231 2007 199 330 470 99715
leaf_count=248 231 2007 199 330 470 99715
internal_value=4.9715e-06 -0.00285804 -0.000595863 7.80536e-05 0.00561666 3.2536e-05
internal_weight=103200 2454 2206 100746 701 100045
internal_count=103200 2454 2206 100746 701 100045
is_linear=0
shrinkage=0.054


Tree=40
num_leaves=8
num_cat=0
split_feature=3 2 2 2 2 2 3
split_gain=14.9054 11.9699 9.51302 11.5908 8.75728 5.39632 4.94193
threshold=1.0698128986569195 4.0217887555766652 -0.63701532229246605 -0.081221778978047693 -0.088696810063155704 -1.0310271088285152 -0.15732347159831186
decision_type=2 2 2 2 2 2 2
left_child=1 4 5 -4 -1 -2 -3
right_child=2 6 3 -5 -6 -7 -8
leaf_value=0.00031798012062053064 0.0022351721304861849 -0.00044168267798396285 -0.0019650750365115032 0.0026391424717839389 -0.00072559965127296834 0.0086574673850280826 0.011686100437766713
leaf_weight=43813 861 124 2215 4986 50191 782 228
leaf_count=43813 861 124 2215 4986 50191 782 228
internal_value=3.0451e-06 -0.000196602 0.00210748 0.00121354 -0.000239398 0.00567467 0.00838198
internal_weight=103200 94356 8844 7201 94004 1643 352
internal_count=103200 94356 8844 7201 94004 1643 352
is_linear=0
shrinkage=0.054


Tree=41
num_leaves=8
num_cat=0
split_feature=1 0 1 1 0 0 1
split_gain=7.80985 15.2102 11.6912 20.7067 14.4897 10.6123 4.49248
threshold=-0.027925037990562222 -2.3258125239796983 0.029171402582501563 0.064603580080727266 -1.996910762703646 2.1758763457755852 -0.55621548749802874
decision_type=2 2 2 2 2 2 2
left_child=1 6 4 -4 -2 -3 -1
right_child=2 5 3 -5 -6 -7 -8
leaf_value=0.00079883173330880632 -0.0066220292987972237 -0.00053704380208359839 -0.0028633489341301443 0.0005105232340644818 0.00238254881606956 0.0042411915842492662 -0.011875530194116347
leaf_weight=82 433 46219 6045 37882 10944 1277 318
leaf_count=82 433 46219 6045 37882 10944 1277 318
internal_value=4.28716e-06 -0.000499803 0.00044104 3.96317e-05 0.00197407 -0.000398152 -0.00968734
internal_weight=103200 47896 55304 43927 11377 47496 400
internal_count=103200 47896 55304 43927 11377 47496 400
is_linear=0
shrinkage=0.054


Tree=42
num_leaves=8
num_cat=0
split_feature=2 2 1 1 2 1 1
split_gain=7.15252 9.8741 11.0691 6.67142 5.73339 4.68464 0.68866
threshold=1.8669418463538949 0.81222529578977565 -0.18356498770795174 -0.19860268095754077 4.0217887555766652 0.049283706049213373 -0.37911147067472756
decision_type=2 2 2 2 2 2 2
left_child=1 2 -1 6 -5 -3 -2
right_child=3 5 -4 4 -6 -7 -8
leaf_value=-0.00086206088866400458 0.0012924325950804257 -0.00088304557567090889 0.0004966086229096781 0.00066439662639908694 0.006841212790659656 -0.0032996231560742987 0.010632154108441318
leaf_weight=24148 66 9502 62447 3427 389 3053 168
leaf_count=24148 66 9502 62447 3427 389 3053 168
internal_value=3.17842e-06 -8.8831e-05 0.000117028 0.00219409 0.00148412 -0.00149657 0.00933659
internal_weight=103200 99150 86595 4050 3816 12555 234
internal_count=103200 99150 86595 4050 3816 12555 234
is_linear=0
shrinkage=0.054


Tree=43
num_leaves=8
num_cat=0
split_feature=0 2 0 0 2 0 2
split_gain=7.66573 21.8963 19.3008 11.9922 7.6568 12.0734 5.74566
threshold=-0.17109126936061267 -0.088696810063155704 0.86464220420401483 -0.036335900356951681 0.17937289324128944 -2.080052979155258 -2.3716057320484465
decision_type=2 2 2 2 2 2 2
left_child=4 2 -2 -3 6 -6 -1
right_child=1 3 -4 -5 5 -7 -8
leaf_value=-0.0038456932032163932 0.0011819202570591645 -0.002764624252059319 0.0062590289828052979 -3.6818031304365546e-06 -0.0093198312544684817 0.0023186501645751398 -0.00073919952106159075
leaf_weight=1737 18340 5025 2376 42353 161 3752 29456
leaf_count=1737 18340 5025 2376 42353 161 3752 29456
internal_value=3.94153e-06 0.00033802 0.00179706 -0.000302814 -0.000642928 0.00157606 -0.000926347
internal_weight=103200 68094 20716 47378 35106 3913 31193
internal_count=103200 68094 20716 47378 35106 3913 31193
is_linear=0
shrinkage=0.054


Tree=44
num_leaves=8
num_cat=0
split_feature=0 2 0 0 0 2 2
split_gain=6.89834 19.6982 11.0925 10.5771 7.45973 14.4023 7.10093
threshold=-0.17109126936061267 -0.1589536612197818 1.0238616646806256 -0.036335900356951681 -0.57094340920283582 -2.5803583170257234 -3.2522753794281125
decision_type=2 2 2 2 2 2 2
left_child=4 2 -2 -3 5 -1 -6
right_child=1 3 -4 -5 6 -7 -8
leaf_value=-0.0056670405851033312 0.0013874929067924789 -0.0023895931121939648 0.0059105883705750772 5.0534986075799262e-05 0.0074384322231753246 0.00035004137817530638 -0.0017581781626097254
leaf_weight=1109 16571 5748 1651 44124 133 20533 13331
leaf_count=1109 16571 5748 1651 44124 133 20533 13331
internal_value=3.29089e-06 0.000320209 0.00183344 -0.000235709 -0.000610345 1.20353e-05 -0.00160223
internal_weight=103200 68094 18222 49872 35106 21642 13464
internal_count=103200 68094 18222 49872 35106 21642 13464
is_linear=0
shrinkage=0.054


Tree=45
num_leaves=8
num_cat=0
split_feature=2 0 0 2 0 0 2
split_gain=6.58193 11.0439 16.4613 8.77868 16.2426 13.9592 1.88514
threshold=1.8669418463538949 1.4364349357293968 0.13547072760667891 0.81222529578977565 0.073918009710686725 0.030325160177692611 2.9569403203682953
decision_type=2 2 2 2 2 2 2
left_child=3 2 -2 4 -1 -5 -3
right_child=1 6 -4 5 -6 -7 -8
leaf_value=-0.00042527550135555367 0.0078564525615725991 0.0064536863823152412 -0.0027403528523132731 0.0028642442304403033 0.0011297644154231346 -0.0021495442323410632 0.0022683580995314177
leaf_weight=56871 428 1120 1827 1795 29724 10760 675
leaf_count=56871 428 1120 1827 1795 29724 10760 675
internal_value=3.44836e-06 0.00210515 -0.000432603 -8.48141e-05 0.00010929 -0.00141217 0.00512199
internal_weight=103200 4050 2255 99150 86595 12555 1795
internal_count=103200 4050 2255 99150 86595 12555 1795
is_linear=0
shrinkage=0.054


Tree=46
num_leaves=8
num_cat=0
split_feature=3 2 2 2 2 2 3
split_gain=14.1061 10.357 18.7539 13.5545 10.2214 23.6677 9.99135
threshold=0.38470981637057794 -0.095622964505058528 -0.5075815418779791 0.12555562429541769 -0.62508932147083762 -0.037727735860883786 0.8870140808164888
decision_type=2 2 2 2 2 2 2
left_child=1 2 -1 -3 6 -6 -2
right_child=4 3 -4 -5 5 -7 -8
leaf_value=-0.00072901968478879611 0.00090192615420849932 -0.0026544405974623319 0.0016902239337939714 -0.00037516864574099567 -0.0021720433418204715 0.0020263025090710663 0.0060419919919080453
leaf_weight=21185 2242 9698 16529 34060 5776 11558 2152
leaf_count=21185 2242 9698 16529 34060 5776 11558 2152
internal_value=4.22048e-06 -0.000322072 0.000333194 -0.000886259 0.00122287 0.000621869 0.00351361
internal_weight=103200 81472 37714 43758 21728 17334 4394
internal_count=103200 81472 37714 43758 21728 17334 4394
is_linear=0
shrinkage=0.054


Tree=47
num_leaves=8
num_cat=0
split_feature=3 0 3 0 0 0 3
split_gain=12.9153 23.9413 14.4552 12.4716 25.1587 15.2647 11.6102
threshold=0.021458390031434831 -0.34571528434319704 -1.0000000180025095e-35 -0.50644953899542988 -1.5342181400908321 1.9300296727040112 -0.6749546782594823
decision_type=2 2 2 2 2 2 2
left_child=1 6 -3 4 -2 -5 -1
right_child=3 2 -4 5 -6 -7 -8
leaf_value=-0.0050390295075017242 -0.00092453650218089431 0.00034787867590686653 -0.0047968923673399281 -5.9277638525145777e-05 0.0045543009866615613 0.0046515900478212545 -0.0015213744732945199
leaf_weight=3537 4051 38529 1541 35960 5908 2004 11670
leaf_count=3537 4051 38529 1541 35960 5908 2004 11670
internal_value=4.28778e-06 -0.00055761 0.000136224 0.000652241 0.00234094 0.000203197 -0.00237277
internal_weight=103200 55277 40070 47923 9959 37964 15207
internal_count=103200 55277 40070 47923 9959 37964 15207
is_linear=0
shrinkage=0.054


Tree=48
num_leaves=7
num_cat=0
split_feature=1 1 1 2 2 2
split_gain=6.65737 7.77152 12.6565 2.36695 2.30187 0.218724
threshold=-5.5585970987012896 -3.3140445718754061 -2.1640243961065067 -1.1824254376967194 -0.59197650421717374 0.14051264646333922
decision_type=2 2 2 2 2 2
left_child=4 3 -3 -2 -1 -6
right_child=1 2 -4 -5 5 -7
leaf_value=0.001186488259251717 -0.0017322000933456712 -0.0052039686340205364 5.9476454333235087e-05 0.0058303910986776458 -0.0080345558966273736 -0.00096073991230836053
leaf_weight=73 85 1230 100740 735 286 51
leaf_count=73 85 1230 100740 735 286 51
internal_value=3.87724e-06 3.49881e-05 -1.0029e-05 0.00492254 -0.00603269 -0.00750332
internal_weight=103200 102790 101970 820 410 337
internal_count=103200 102790 101970 820 410 337
is_linear=0
shrinkage=0.054


Tree=49
num_leaves=8
num_cat=0
split_feature=2 0 0 2 0 0 2
split_gain=5.75125 9.74625 15.0197 8.21907 14.2631 12.5994 1.71016
threshold=1.8669418463538949 1.4364349357293968 0.13547072760667891 0.81222529578977565 0.065501326389098932 0.030325160177692611 2.9569403203682953
decision_type=2 2 2 2 2 2 2
left_child=3 2 -2 4 -1 -5 -3
right_child=1 6 -4 5 -6 -7 -8
leaf_value=-0.00040119314735076532 0.0075020904057759479 0.0060662638647501366 -0.0026200721874085277 0.0026996059222883415 0.0010484062501183824 -0.0020641555403876051 0.0021014552149549127
leaf_weight=56195 428 1120 1827 1795 30400 10760 675
leaf_count=56195 428 1120 1827 1795 30400 10760 675
internal_value=3.10965e-06 0.00196772 -0.000415762 -7.93936e-05 0.000108418 -0.00136375 0.00480184
internal_weight=103200 4050 2255 99150 86595 12555 1795
internal_count=103200 4050 2255 99150 86595 12555 1795
is_linear=0
shrinkage=0.054


end of trees

feature_importances:
gp_factor_2=119
gp_factor_0=113
gp_factor_1=68
gp_factor_3=36

parameters:
[boosting: gbdt]
[objective: regression]
[metric: rmse]
[tree_learner: serial]
[device_type: cpu]
[data_sample_strategy: bagging]
[data: ]
[valid: ]
[num_iterations: 500]
[learning_rate: 0.054]
[num_leaves: 32]
[num_threads: 0]
[seed: 0]
[deterministic: 0]
[force_col_wise: 0]
[force_row_wise: 0]
[histogram_pool_size: -1]
[max_depth: 3]
[min_data_in_leaf: 50]
[min_sum_hessian_in_leaf: 0.001]
[bagging_fraction: 0.5]
[pos_bagging_fraction: 1]
[neg_bagging_fraction: 1]
[bagging_freq: 0]
[bagging_seed: 3]
[bagging_by_query: 0]
[feature_fraction: 0.5]
[feature_fraction_bynode: 1]
[feature_fraction_seed: 2]
[extra_trees: 0]
[extra_seed: 6]
[early_stopping_round: 0]
[early_stopping_min_delta: 0]
[first_metric_only: 0]
[max_delta_step: 0]
[lambda_l1: 0.05]
[lambda_l2: 120]
[linear_lambda: 0]
[min_gain_to_split: 0]
[drop_rate: 0.1]
[max_drop: 50]
[skip_drop: 0.5]
[xgboost_dart_mode: 0]
[uniform_drop: 0]
[drop_seed: 4]
[top_rate: 0.2]
[other_rate: 0.1]
[min_data_per_group: 100]
[max_cat_threshold: 32]
[cat_l2: 10]
[cat_smooth: 10]
[max_cat_to_onehot: 4]
[top_k: 20]
[monotone_constraints: ]
[monotone_constraints_method: basic]
[monotone_penalty: 0]
[feature_contri: ]
[forcedsplits_filename: ]
[refit_decay_rate: 0.9]
[cegb_tradeoff: 1]
[cegb_penalty_split: 0]
[cegb_penalty_feature_lazy: ]
[cegb_penalty_feature_coupled: ]
[path_smooth: 0]
[interaction_constraints: ]
[verbosity: -1]
[saved_feature_importance_type: 0]
[use_quantized_grad: 0]
[num_grad_quant_bins: 4]
[quant_train_renew_leaf: 0]
[stochastic_rounding: 1]
[linear_tree: 0]
[max_bin: 255]
[max_bin_by_feature: ]
[min_data_in_bin: 3]
[bin_construct_sample_cnt: 200000]
[data_random_seed: 1]
[is_enable_sparse: 1]
[enable_bundle: 1]
[use_missing: 1]
[zero_as_missing: 0]
[feature_pre_filter: 1]
[pre_partition: 0]
[two_round: 0]
[header: 0]
[label_column: ]
[weight_column: ]
[group_column: ]
[ignore_column: ]
[categorical_feature: ]
[forcedbins_filename: ]
[precise_float_parser: 0]
[parser_config_file: ]
[objective_seed: 5]
[num_class: 1]
[is_unbalance: 0]
[scale_pos_weight: 1]
[sigmoid: 1]
[boost_from_average: 1]
[reg_sqrt: 0]
[alpha: 0.9]
[fair_c: 1]
[poisson_max_delta_step: 0.7]
[tweedie_variance_power: 1.5]
[lambdarank_truncation_level: 30]
[lambdarank_norm: 1]
[label_gain: ]
[lambdarank_position_bias_regularization: 0]
[eval_at: ]
[multi_error_top_k: 1]
[auc_mu_weights: ]
[num_machines: 1]
[local_listen_port: 12400]
[time_out: 120]
[machine_list_filename: ]
[machines: ]
[gpu_platform_id: -1]
[gpu_device_id: -1]
[gpu_use_dp: 0]
[num_gpu: 1]

end of parameters

pandas_categorical:[]
